{"format": "lightgbm_json_v1", "version": 1, "num_features": 79, "num_trees": 220, "feature_names": ["ptb_dist_pct", "rsi_norm", "rsi_slope", "macd_hist", "macd_line", "vwap_dist", "vwap_slope", "ha_signed_consec", "delta_1m_pct", "delta_3m_pct", "vol_ratio_norm", "minutes_left_norm", "rule_prob_up", "rule_confidence", "vwap_cross_count_norm", "best_edge", "regime_trending", "regime_confidence", "regime_mean_reverting", "regime_moderate", "session_asia", "session_europe", "session_us", "session_overlap", "session_offhours", "ha_is_green", "multi_tf_agreement", "failed_vwap_reclaim", "bb_width", "bb_percent_b", "bb_squeeze", "atr_pct_norm", "atr_ratio_norm", "atr_expanding", "vol_delta_buy_ratio", "vol_delta_accel", "ema_dist_norm", "ema_cross_signal", "stoch_k_norm", "stoch_kd_norm", "volume_acceleration", "bb_squeeze_intensity", "hour_sin", "hour_cos", "market_yes_price", "market_price_momentum", "orderbook_imbalance", "spread_pct", "crowd_model_divergence", "momentum_5candle_slope", "volatility_change_ratio", "price_consistency", "funding_rate_norm", "funding_rate_change", "delta_1m_capped", "momentum_accel", "rsi_x_trending", "rsi_x_regime_conf", "rsi_x_mean_rev", "delta1m_x_multitf", "bb_pctb_x_squeeze", "vol_buy_x_delta", "vwap_trend_strength", "rsi_divergence", "combined_oscillator", "ha_delta_agree", "delta_1m_atr_adj", "price_position_score", "vol_weighted_momentum", "macd_x_rsi_slope", "trend_alignment_score", "oscillator_extreme", "vol_momentum_confirm", "squeeze_breakout_potential", "multi_indicator_agree", "stoch_rsi_extreme", "crowd_agree_momentum", "divergence_x_confidence", "imbalance_x_vol_delta"], "init_score": 0.001645587893980413, "platt_a": 5.470313261004977, "platt_b": -2.756908474843676, "metrics": {"accuracy": 0.693, "auc": 0.7415}, "ensemble_weights": {"xgb": 0.75, "lgb": 0.25}, "tree_info": [{"tree_index": 0, "num_leaves": 19, "num_cat": 0, "shrinkage": 1, "tree_structure": {"split_index": 0, "split_feature": 59, "split_gain": 1792.4200439453125, "threshold": 1.0000000180025095e-35, "decision_type": "<=", "default_left": true, "missing_type": "None", "internal_value": 0.00163882, "internal_weight": 10838.1, "internal_count": 74343, "left_child": {"split_index": 1, "split_feature": 8, "split_gain": 1925.800048828125, "threshold": 1.0000000180025095e-35, "decision_type": "<=", "default_left": true, "missing_type": "None", "internal_value": -0.00460069, "internal_weight": 7379.43, "internal_count": 50640, "left_child": {"split_index": 2, "split_feature": 26, "split_gain": 3228.919921875, "threshold": 1.0000000180025095e-35, "decision_type": "<=", "default_left": true, "missing_type": "None", "internal_value": 0.00211007, "internal_weight": 5493.71, "internal_count": 37711, "left_child": {"split_index": 3, "split_feature": 8, "split_gain": 189.46800231933594, "threshold": -1.0000000180025095e-35, "decision_type": "<=", "default_left": true, "missing_type": "None", "internal_value": 0.0245159, "internal_weight": 2030.95, "internal_count": 14014, "left_child": {"split_index": 6, "split_feature": 66, "split_gain": 43.35329818725586, "threshold": -0.015380874276161192, "decision_type": "<=", "default_left": true, "missing_type": "None", "internal_value": 0.0265983, "internal_weight": 1858.17, "internal_count": 12852, "left_child": {"leaf_index": 0, "leaf_value": 0.03242760671803133, "leaf_weight": 515.730793312192, "leaf_count": 3585}, "right_child": {"split_index": 13, "split_feature": 5, "split_gain": 10.410599708557129, "threshold": 0.0017143150325864556, "decision_type": "<=", "default_left": true, "missing_type": "None", "internal_value": 0.0242563, "internal_weight": 1342.44, "internal_count": 9267, "left_child": {"leaf_index": 7, "leaf_value": 0.025307615258844084, "leaf_weight": 1104.9651575684547, "leaf_count": 7611}, "right_child": {"leaf_index": 14, "leaf_value": 0.018974842438956516, "leaf_weight": 237.47619952261448, "leaf_count": 1656}}}, "right_child": {"split_index": 14, "split_feature": 29, "split_gain": 10.091899871826172, "threshold": 0.19162689149379733, "decision_type": "<=", "default_left": true, "missing_type": "None", "internal_value": 0.00199915, "internal_weight": 172.779, "internal_count": 1162, "left_child": {"leaf_index": 4, "leaf_value": 0.013286453828446369, "leaf_weight": 28.332571357488632, "leaf_count": 190}, "right_child": {"leaf_index": 15, "leaf_value": -0.00043160033103353096, "leaf_weight": 144.44688838720322, "leaf_count": 972}}}, "right_child": {"split_index": 4, "split_feature": 8, "split_gain": 114.322998046875, "threshold": -0.000596885016420856, "decision_type": "<=", "default_left": true, "missing_type": "None", "internal_value": -0.0110409, "internal_weight": 3462.76, "internal_count": 23697, "left_child": {"split_index": 15, "split_feature": 61, "split_gain": 10.020000457763672, "threshold": -0.43913364410400385, "decision_type": "<=", "default_left": true, "missing_type": "None", "internal_value": -0.00524991, "internal_weight": 1160.2, "internal_count": 8041, "left_child": {"leaf_index": 3, "leaf_value": -0.0069763702147038475, "leaf_weight": 693.9167008250952, "leaf_count": 4833}, "right_child": {"leaf_index": 16, "leaf_value": -0.002601651623875159, "leaf_weight": 466.28676341474056, "leaf_count": 3208}}, "right_child": {"split_index": 8, "split_feature": 8, "split_gain": 24.734500885009766, "threshold": -0.00024122000468196345, "decision_type": "<=", "default_left": true, "missing_type": "None", "internal_value": -0.0139354, "internal_weight": 2302.56, "internal_count": 15656, "left_child": {"split_index": 17, "split_feature": 29, "split_gain": 9.583450317382812, "threshold": 0.15651012957096103, "decision_type": "<=", "default_left": true, "missing_type": "None", "internal_value": -0.0115049, "internal_weight": 1174.78, "internal_count": 7992, "left_child": {"leaf_index": 5, "leaf_value": -0.008007467685342304, "leaf_weight": 344.29044292867184, "leaf_count": 2324}, "right_child": {"leaf_index": 18, "leaf_value": -0.012883102734827375, "leaf_weight": 830.4892614483833, "leaf_count": 5668}}, "right_child": {"split_index": 12, "split_feature": 12, "split_gain": 11.017800331115723, "threshold": 0.4738379120826722, "decision_type": "<=", "default_left": true, "missing_type": "None", "internal_value": -0.0163962, "internal_weight": 1127.78, "internal_count": 7664, "left_child": {"leaf_index": 9, "leaf_value": -0.013957758674206771, "leaf_weight": 606.5204076915979, "leaf_count": 4119}, "right_child": {"leaf_index": 13, "leaf_value": -0.019057015988627964, "leaf_weight": 521.2596140354872, "leaf_count": 3545}}}}}, "right_child": {"split_index": 7, "split_feature": 66, "split_gain": 34.8046989440918, "threshold": 0.016941648907959465, "decision_type": "<=", "default_left": true, "missing_type": "None", "internal_value": -0.0241113, "internal_weight": 1885.72, "internal_count": 12929, "left_child": {"split_index": 10, "split_feature": 5, "split_gain": 18.181699752807617, "threshold": -0.00069698499282822, "decision_type": "<=", "default_left": true, "missing_type": "None", "internal_value": -0.0221883, "internal_weight": 1440.09, "internal_count": 9855, "left_child": {"leaf_index": 2, "leaf_value": -0.017766205329434754, "leaf_weight": 441.6300242394209, "leaf_count": 3010}, "right_child": {"leaf_index": 11, "leaf_value": -0.02403860862901229, "leaf_weight": 998.4578934460878, "leaf_count": 6845}}, "right_child": {"leaf_index": 8, "leaf_value": -0.030003962542483963, "leaf_weight": 445.6307604312897, "leaf_count": 3074}}}, "right_child": {"split_index": 5, "split_feature": 8, "split_gain": 89.17649841308594, "threshold": 0.0004921799991279842, "decision_type": "<=", "default_left": true, "missing_type": "None", "internal_value": 0.0149393, "internal_weight": 3458.69, "internal_count": 23703, "left_child": {"split_index": 9, "split_feature": 59, "split_gain": 21.56529998779297, "threshold": 0.00010300999929313549, "decision_type": "<=", "default_left": true, "missing_type": "None", "internal_value": 0.0179865, "internal_weight": 2021.38, "internal_count": 13758, "left_child": {"leaf_index": 1, "leaf_value": 0.022269619724251257, "leaf_weight": 493.9404112994671, "leaf_count": 3355}, "right_child": {"split_index": 16, "split_feature": 1, "split_gain": 9.650130271911621, "threshold": 0.5630297958850862, "decision_type": "<=", "default_left": true, "missing_type": "None", "internal_value": 0.0165385, "internal_weight": 1527.44, "internal_count": 10403, "left_child": {"leaf_index": 10, "leaf_value": 0.018402768653972945, "leaf_weight": 796.767602995038, "leaf_count": 5418}, "right_child": {"leaf_index": 17, "leaf_value": 0.014402171307627479, "leaf_weight": 730.6732256114483, "leaf_count": 4985}}}, "right_child": {"split_index": 11, "split_feature": 57, "split_gain": 17.163700103759766, "threshold": 0.5357978940010072, "decision_type": "<=", "default_left": true, "missing_type": "None", "internal_value": 0.0106094, "internal_weight": 1437.31, "internal_count": 9945, "left_child": {"leaf_index": 6, "leaf_value": 0.012640962507216788, "leaf_weight": 859.3255816549063, "leaf_count": 5930}, "right_child": {"leaf_index": 12, "leaf_value": 0.007510303778505402, "leaf_weight": 577.9850618392229, "leaf_count": 4015}}}}}, {"tree_index": 1, "num_leaves": 19, "num_cat": 0, "shrinkage": 0.0224093, "tree_structure": {"split_index": 0, "split_feature": 59, "split_gain": 1713.699951171875, "threshold": 1.0000000180025095e-35, "decision_type": "<=", "default_left": true, "missing_type": "None", "internal_value": -6.634349999999999e-06, "internal_weight": 10837.2, "internal_count": 74343, "left_child": {"split_index": 1, "split_feature": 54, "split_gain": 1841.3800048828125, "threshold": 1.0000000180025095e-35, "decision_type": "<=", "default_left": true, "missing_type": "None", "internal_value": -0.006108, "internal_weight": 7378.7, "internal_count": 50640, "left_child": {"split_index": 2, "split_feature": 26, "split_gain": 3087.389892578125, "threshold": 1.0000000180025095e-35, "decision_type": "<=", "default_left": true, "missing_type": "None", "internal_value": 0.000454108, "internal_weight": 5493.26, "internal_count": 37711, "left_child": {"split_index": 3, "split_feature": 54, "split_gain": 181.11099243164062, "threshold": -1.0000000180025095e-35, "decision_type": "<=", "default_left": true, "missing_type": "None", "internal_value": 0.0223657, "internal_weight": 2030.62, "internal_count": 14014, "left_child": {"split_index": 9, "split_feature": 54, "split_gain": 20.502599716186523, "threshold": -0.0003268099972046911, "decision_type": "<=", "default_left": true, "missing_type": "None", "internal_value": 0.024402, "internal_weight": 1857.84, "internal_count": 12852, "left_child": {"leaf_index": 0, "leaf_value": 0.027484714501519673, "leaf_weight": 781.7505406290293, "leaf_count": 5478}, "right_child": {"split_index": 11, "split_feature": 5, "split_gain": 13.341699600219727, "threshold": 0.0017143150325864556, "decision_type": "<=", "default_left": true, "missing_type": "None", "internal_value": 0.0220484, "internal_weight": 1076.09, "internal_count": 7374, "left_child": {"leaf_index": 10, "leaf_value": 0.02314657005965941, "leaf_weight": 924.9951054602861, "leaf_count": 6328}, "right_child": {"leaf_index": 12, "leaf_value": 0.014787404188442866, "leaf_weight": 151.09394504129887, "leaf_count": 1046}}}, "right_child": {"split_index": 14, "split_feature": 29, "split_gain": 9.69884967803955, "threshold": 0.19162689149379733, "decision_type": "<=", "default_left": true, "missing_type": "None", "internal_value": 0.0003498, "internal_weight": 172.778, "internal_count": 1162, "left_child": {"leaf_index": 4, "leaf_value": 0.011416105276515142, "leaf_weight": 28.33134040236473, "leaf_count": 190}, "right_child": {"leaf_index": 15, "leaf_value": -0.002032041177173086, "leaf_weight": 144.4469831585884, "leaf_count": 972}}}, "right_child": {"split_index": 4, "split_feature": 54, "split_gain": 109.30400085449219, "threshold": -0.000596885016420856, "decision_type": "<=", "default_left": true, "missing_type": "None", "internal_value": -0.0124051, "internal_weight": 3462.64, "internal_count": 23697, "left_child": {"split_index": 13, "split_feature": 49, "split_gain": 9.769309997558594, "threshold": -0.00034076000156346703, "decision_type": "<=", "default_left": true, "missing_type": "None", "internal_value": -0.00674233, "internal_weight": 1160.2, "internal_count": 8041, "left_child": {"leaf_index": 3, "leaf_value": -0.003577170582626144, "leaf_weight": 362.5550473034382, "leaf_count": 2502}, "right_child": {"leaf_index": 14, "leaf_value": -0.00814044713450056, "leaf_weight": 797.6399890184402, "leaf_count": 5539}}, "right_child": {"split_index": 6, "split_feature": 54, "split_gain": 23.643600463867188, "threshold": -0.00024122000468196345, "decision_type": "<=", "default_left": true, "missing_type": "None", "internal_value": -0.0152355, "internal_weight": 2302.44, "internal_count": 15656, "left_child": {"split_index": 16, "split_feature": 29, "split_gain": 9.143540382385254, "threshold": 0.15651012957096103, "decision_type": "<=", "default_left": true, "missing_type": "None", "internal_value": -0.0128585, "internal_weight": 1174.74, "internal_count": 7992, "left_child": {"leaf_index": 5, "leaf_value": -0.009439664273905354, "leaf_weight": 344.28516018390656, "leaf_count": 2324}, "right_child": {"leaf_index": 17, "leaf_value": -0.014205442501296591, "leaf_weight": 830.4553734660149, "leaf_count": 5668}}, "right_child": {"split_index": 12, "split_feature": 12, "split_gain": 10.525099754333496, "threshold": 0.4738379120826722, "decision_type": "<=", "default_left": true, "missing_type": "None", "internal_value": -0.0176421, "internal_weight": 1127.7, "internal_count": 7664, "left_child": {"leaf_index": 7, "leaf_value": -0.015256986222935556, "leaf_weight": 606.4912829846144, "leaf_count": 4119}, "right_child": {"leaf_index": 13, "leaf_value": -0.020244453438138334, "leaf_weight": 521.2126473486423, "leaf_count": 3545}}}}}, "right_child": {"split_index": 7, "split_feature": 67, "split_gain": 22.678800582885742, "threshold": 0.4118486493825913, "decision_type": "<=", "default_left": true, "missing_type": "None", "internal_value": -0.0251878, "internal_weight": 1885.44, "internal_count": 12929, "left_child": {"leaf_index": 2, "leaf_value": -0.0225449304709716, "leaf_weight": 1017.0309108048677, "leaf_count": 6965}, "right_child": {"leaf_index": 8, "leaf_value": -0.028139625205094106, "leaf_weight": 868.4097108989954, "leaf_count": 5964}}}, "right_child": {"split_index": 5, "split_feature": 54, "split_gain": 85.22219848632812, "threshold": 0.0004916349716950209, "decision_type": "<=", "default_left": true, "missing_type": "None", "internal_value": 0.0129988, "internal_weight": 3458.49, "internal_count": 23703, "left_child": {"split_index": 8, "split_feature": 59, "split_gain": 20.61090087890625, "threshold": 0.00010300999929313549, "decision_type": "<=", "default_left": true, "missing_type": "None", "internal_value": 0.0159801, "internal_weight": 2020.04, "internal_count": 13750, "left_child": {"leaf_index": 1, "leaf_value": 0.020168506637093266, "leaf_weight": 493.8795133084059, "leaf_count": 3355}, "right_child": {"split_index": 17, "split_feature": 1, "split_gain": 9.105790138244629, "threshold": 0.5630297958850862, "decision_type": "<=", "default_left": true, "missing_type": "None", "internal_value": 0.014563, "internal_weight": 1526.16, "internal_count": 10395, "left_child": {"leaf_index": 9, "leaf_value": 0.016377791274234693, "leaf_weight": 796.0868479758501, "leaf_count": 5414}, "right_child": {"leaf_index": 18, "leaf_value": 0.012482438730563702, "leaf_weight": 730.0726054906845, "leaf_count": 4981}}}, "right_child": {"split_index": 10, "split_feature": 57, "split_gain": 16.617399215698242, "threshold": 0.5357978940010072, "decision_type": "<=", "default_left": true, "missing_type": "None", "internal_value": 0.00876854, "internal_weight": 1438.45, "internal_count": 9953, "left_child": {"split_index": 15, "split_feature": 34, "split_gain": 9.400699615478516, "threshold": 0.6981289088726045, "decision_type": "<=", "default_left": true, "missing_type": "None", "internal_value": 0.0107664, "internal_weight": 860.033, "internal_count": 5935, "left_child": {"leaf_index": 6, "leaf_value": 0.011092146907466441, "leaf_weight": 844.4413113892078, "leaf_count": 5828}, "right_child": {"leaf_index": 16, "leaf_value": -0.0049111707974946375, "leaf_weight": 15.591349959373472, "leaf_count": 107}}, "right_child": {"leaf_index": 11, "leaf_value": 0.005720682361151041, "leaf_weight": 578.4135730862617, "leaf_count": 4018}}}}}, {"tree_index": 2, "num_leaves": 19, "num_cat": 0, "shrinkage": 0.0224093, "tree_structure": {"split_index": 0, "split_feature": 59, "split_gain": 1638.5699462890625, "threshold": 1.0000000180025095e-35, "decision_type": "<=", "default_left": true, "missing_type": "None", "internal_value": -6.3541e-06, "internal_weight": 10834.5, "internal_count": 74343, "left_child": {"split_index": 1, "split_feature": 8, "split_gain": 1761.0799560546875, "threshold": 1.0000000180025095e-35, "decision_type": "<=", "default_left": true, "missing_type": "None", "internal_value": -0.00597366, "internal_weight": 7376.51, "internal_count": 50640, "left_child": {"split_index": 2, "split_feature": 26, "split_gain": 2952.64990234375, "threshold": 1.0000000180025095e-35, "decision_type": "<=", "default_left": true, "missing_type": "None", "internal_value": 0.000443975, "internal_weight": 5491.94, "internal_count": 37711, "left_child": {"split_index": 3, "split_feature": 8, "split_gain": 173.218994140625, "threshold": -1.0000000180025095e-35, "decision_type": "<=", "default_left": true, "missing_type": "None", "internal_value": 0.0218781, "internal_weight": 2029.73, "internal_count": 14014, "left_child": {"split_index": 6, "split_feature": 66, "split_gain": 40.96760177612305, "threshold": -0.015380874276161192, "decision_type": "<=", "default_left": true, "missing_type": "None", "internal_value": 0.0238704, "internal_weight": 1856.95, "internal_count": 12852, "left_child": {"leaf_index": 0, "leaf_value": 0.02953117885696588, "leaf_weight": 515.2803583741188, "leaf_count": 3585}, "right_child": {"split_index": 14, "split_feature": 5, "split_gain": 9.62401008605957, "threshold": 0.0017143150325864556, "decision_type": "<=", "default_left": true, "missing_type": "None", "internal_value": 0.0215977, "internal_weight": 1341.67, "internal_count": 9267, "left_child": {"leaf_index": 7, "leaf_value": 0.022608149669584587, "leaf_weight": 1104.2885805815458, "leaf_count": 7611}, "right_child": {"leaf_index": 15, "leaf_value": 0.016523690486379757, "leaf_weight": 237.38587264716625, "leaf_count": 1656}}}, "right_child": {"split_index": 15, "split_feature": 4, "split_gain": 9.533080101013184, "threshold": -14.93777275085449, "decision_type": "<=", "default_left": true, "missing_type": "None", "internal_value": 0.000346027, "internal_weight": 172.775, "internal_count": 1162, "left_child": {"leaf_index": 4, "leaf_value": 0.010689001274636218, "leaf_weight": 31.640919104218483, "leaf_count": 209}, "right_child": {"leaf_index": 16, "leaf_value": -0.0021619309992069215, "leaf_weight": 141.1341172158718, "leaf_count": 953}}}, "right_child": {"split_index": 4, "split_feature": 8, "split_gain": 104.54299926757812, "threshold": -0.000596885016420856, "decision_type": "<=", "default_left": true, "missing_type": "None", "internal_value": -0.012131, "internal_weight": 3462.21, "internal_count": 23697, "left_child": {"split_index": 16, "split_feature": 1, "split_gain": 9.526430130004883, "threshold": 0.20684055238962176, "decision_type": "<=", "default_left": true, "missing_type": "None", "internal_value": -0.00659264, "internal_weight": 1160.16, "internal_count": 8041, "left_child": {"leaf_index": 3, "leaf_value": 5.644039317137231e-05, "leaf_weight": 96.20276302099228, "leaf_count": 647}, "right_child": {"leaf_index": 17, "leaf_value": -0.007200941727005805, "leaf_weight": 1063.957029774785, "leaf_count": 7394}}, "right_child": {"split_index": 8, "split_feature": 8, "split_gain": 22.61479949951172, "threshold": -0.00024122000468196345, "decision_type": "<=", "default_left": true, "missing_type": "None", "internal_value": -0.0148995, "internal_weight": 2302.05, "internal_count": 15656, "left_child": {"leaf_index": 5, "leaf_value": -0.012574009042591682, "leaf_weight": 1174.6019789874554, "leaf_count": 7992}, "right_child": {"split_index": 13, "split_feature": 12, "split_gain": 10.063799858093262, "threshold": 0.4738379120826722, "decision_type": "<=", "default_left": true, "missing_type": "None", "internal_value": -0.017254, "internal_weight": 1127.45, "internal_count": 7664, "left_child": {"leaf_index": 9, "leaf_value": -0.01492006183439983, "leaf_weight": 606.3914244771004, "leaf_count": 4119}, "right_child": {"leaf_index": 14, "leaf_value": -0.01980051725014756, "leaf_weight": 521.0587378293276, "leaf_count": 3545}}}}}, "right_child": {"split_index": 7, "split_feature": 66, "split_gain": 33.497798919677734, "threshold": 0.016941648907959465, "decision_type": "<=", "default_left": true, "missing_type": "None", "internal_value": -0.0246377, "internal_weight": 1884.57, "internal_count": 12929, "left_child": {"split_index": 10, "split_feature": 5, "split_gain": 17.03350067138672, "threshold": -0.00069698499282822, "decision_type": "<=", "default_left": true, "missing_type": "None", "internal_value": -0.0227586, "internal_weight": 1439.28, "internal_count": 9855, "left_child": {"leaf_index": 2, "leaf_value": -0.01848857053713591, "leaf_weight": 441.4509655088186, "leaf_count": 3010}, "right_child": {"leaf_index": 11, "leaf_value": -0.02454640353853392, "leaf_weight": 997.8316368460655, "leaf_count": 6845}}, "right_child": {"leaf_index": 8, "leaf_value": -0.030401425893466262, "leaf_weight": 445.2850071489811, "leaf_count": 3074}}}, "right_child": {"split_index": 5, "split_feature": 8, "split_gain": 81.57599639892578, "threshold": 0.0004921799991279842, "decision_type": "<=", "default_left": true, "missing_type": "None", "internal_value": 0.0127115, "internal_weight": 3457.95, "internal_count": 23703, "left_child": {"split_index": 9, "split_feature": 59, "split_gain": 19.73349952697754, "threshold": 0.00010300999929313549, "decision_type": "<=", "default_left": true, "missing_type": "None", "internal_value": 0.0156267, "internal_weight": 2020.79, "internal_count": 13758, "left_child": {"leaf_index": 1, "leaf_value": 0.019727055773357878, "leaf_weight": 493.71842020750046, "leaf_count": 3355}, "right_child": {"split_index": 17, "split_feature": 1, "split_gain": 8.805500030517578, "threshold": 0.5630297958850862, "decision_type": "<=", "default_left": true, "missing_type": "None", "internal_value": 0.0142406, "internal_weight": 1527.07, "internal_count": 10403, "left_child": {"leaf_index": 10, "leaf_value": 0.01602378102974684, "leaf_weight": 796.5272904187441, "leaf_count": 5418}, "right_child": {"leaf_index": 18, "leaf_value": 0.012196758482194163, "leaf_weight": 730.541750267148, "leaf_count": 4985}}}, "right_child": {"split_index": 11, "split_feature": 66, "split_gain": 15.962400436401367, "threshold": 0.019891761243343357, "decision_type": "<=", "default_left": true, "missing_type": "None", "internal_value": 0.00856948, "internal_weight": 1437.17, "internal_count": 9945, "left_child": {"leaf_index": 6, "leaf_value": 0.01138433178906973, "leaf_weight": 603.6954910904169, "leaf_count": 4204}, "right_child": {"split_index": 12, "split_feature": 61, "split_gain": 12.26159954071045, "threshold": 0.4270386844873429, "decision_type": "<=", "default_left": true, "missing_type": "None", "internal_value": 0.00646863, "internal_weight": 833.472, "internal_count": 5741, "left_child": {"leaf_index": 12, "leaf_value": 0.011150661975056342, "leaf_weight": 210.98535349965096, "leaf_count": 1446}, "right_child": {"leaf_index": 13, "leaf_value": 0.004797260857813701, "leaf_weight": 622.4864625781775, "leaf_count": 4295}}}}}}, {"tree_index": 3, "num_leaves": 19, "num_cat": 0, "shrinkage": 0.0224093, "tree_structure": {"split_index": 0, "split_feature": 59, "split_gain": 1567.02001953125, "threshold": 1.0000000180025095e-35, "decision_type": "<=", "default_left": true, "missing_type": "None", "internal_value": -5.90267e-06, "internal_weight": 10830.1, "internal_count": 74343, "left_child": {"split_index": 1, "split_feature": 8, "split_gain": 1685.1300048828125, "threshold": 1.0000000180025095e-35, "decision_type": "<=", "default_left": true, "missing_type": "None", "internal_value": -0.00584339, "internal_weight": 7372.94, "internal_count": 50640, "left_child": {"split_index": 2, "split_feature": 26, "split_gain": 2824.300048828125, "threshold": 1.0000000180025095e-35, "decision_type": "<=", "default_left": true, "missing_type": "None", "internal_value": 0.000434615, "internal_weight": 5489.82, "internal_count": 37711, "left_child": {"split_index": 3, "split_feature": 8, "split_gain": 165.77200317382812, "threshold": -1.0000000180025095e-35, "decision_type": "<=", "default_left": true, "missing_type": "None", "internal_value": 0.0214069, "internal_weight": 2028.31, "internal_count": 14014, "left_child": {"split_index": 8, "split_feature": 8, "split_gain": 19.2189998626709, "threshold": -0.0003268099972046911, "decision_type": "<=", "default_left": true, "missing_type": "None", "internal_value": 0.0233574, "internal_weight": 1855.54, "internal_count": 12852, "left_child": {"leaf_index": 0, "leaf_value": 0.02633924181480155, "leaf_weight": 780.5946379452944, "leaf_count": 5478}, "right_child": {"split_index": 11, "split_feature": 5, "split_gain": 12.309300422668457, "threshold": 0.0017143150325864556, "decision_type": "<=", "default_left": true, "missing_type": "None", "internal_value": 0.0210822, "internal_weight": 1074.95, "internal_count": 7374, "left_child": {"leaf_index": 9, "leaf_value": 0.02213770725909764, "leaf_weight": 923.9385646134615, "leaf_count": 6328}, "right_child": {"leaf_index": 12, "leaf_value": 0.014107536335468226, "leaf_weight": 151.00984078645706, "leaf_count": 1046}}}, "right_child": {"split_index": 15, "split_feature": 4, "split_gain": 9.157110214233398, "threshold": -14.93777275085449, "decision_type": "<=", "default_left": true, "missing_type": "None", "internal_value": 0.000341853, "internal_weight": 172.771, "internal_count": 1162, "left_child": {"leaf_index": 4, "leaf_value": 0.010480187217506324, "leaf_weight": 31.637629717588425, "leaf_count": 209}, "right_child": {"leaf_index": 16, "leaf_value": -0.002114980736890612, "leaf_weight": 141.1338418573141, "leaf_count": 953}}}, "right_child": {"split_index": 4, "split_feature": 8, "split_gain": 100.0260009765625, "threshold": -0.000596885016420856, "decision_type": "<=", "default_left": true, "missing_type": "None", "internal_value": -0.0118633, "internal_weight": 3461.51, "internal_count": 23697, "left_child": {"split_index": 14, "split_feature": 61, "split_gain": 9.395259857177734, "threshold": -0.43913364410400385, "decision_type": "<=", "default_left": true, "missing_type": "None", "internal_value": -0.00644567, "internal_weight": 1160.1, "internal_count": 8041, "left_child": {"leaf_index": 3, "leaf_value": -0.008115819426749986, "leaf_weight": 693.8388570696115, "leaf_count": 4833}, "right_child": {"leaf_index": 15, "leaf_value": -0.0038853719194260248, "leaf_weight": 466.25995498895645, "leaf_count": 3208}}, "right_child": {"split_index": 6, "split_feature": 8, "split_gain": 21.65570068359375, "threshold": -0.00024122000468196345, "decision_type": "<=", "default_left": true, "missing_type": "None", "internal_value": -0.014572, "internal_weight": 2301.41, "internal_count": 15656, "left_child": {"split_index": 16, "split_feature": 29, "split_gain": 8.795459747314453, "threshold": 0.15651012957096103, "decision_type": "<=", "default_left": true, "missing_type": "None", "internal_value": -0.0122957, "internal_weight": 1174.38, "internal_count": 7992, "left_child": {"leaf_index": 5, "leaf_value": -0.008954591056453036, "leaf_weight": 344.21311604976654, "leaf_count": 2324}, "right_child": {"leaf_index": 17, "leaf_value": -0.0136134074974992, "leaf_weight": 830.163302347064, "leaf_count": 5668}}, "right_child": {"split_index": 13, "split_feature": 12, "split_gain": 9.630999565124512, "threshold": 0.4738379120826722, "decision_type": "<=", "default_left": true, "missing_type": "None", "internal_value": -0.016877, "internal_weight": 1127.03, "internal_count": 7664, "left_child": {"leaf_index": 7, "leaf_value": -0.014592173724157763, "leaf_weight": 606.2255610376596, "leaf_count": 4119}, "right_child": {"leaf_index": 14, "leaf_value": -0.019370040315122974, "leaf_weight": 520.8050404936075, "leaf_count": 3545}}}}}, "right_child": {"split_index": 7, "split_feature": 67, "split_gain": 21.320999145507812, "threshold": 0.4118486493825913, "decision_type": "<=", "default_left": true, "missing_type": "None", "internal_value": -0.0241083, "internal_weight": 1883.12, "internal_count": 12929, "left_child": {"leaf_index": 2, "leaf_value": -0.021550663926137588, "leaf_weight": 1015.9666386842728, "leaf_count": 6965}, "right_child": {"leaf_index": 8, "leaf_value": -0.026967005617736208, "leaf_weight": 867.1568055152893, "leaf_count": 5964}}}, "right_child": {"split_index": 5, "split_feature": 8, "split_gain": 78.03980255126953, "threshold": 0.0004921799991279842, "decision_type": "<=", "default_left": true, "missing_type": "None", "internal_value": 0.0124321, "internal_weight": 3457.13, "internal_count": 23703, "left_child": {"split_index": 9, "split_feature": 59, "split_gain": 18.8981990814209, "threshold": 0.00010300999929313549, "decision_type": "<=", "default_left": true, "missing_type": "None", "internal_value": 0.0152843, "internal_weight": 2020.11, "internal_count": 13758, "left_child": {"leaf_index": 1, "leaf_value": 0.01929893495902262, "leaf_weight": 493.4638466536999, "leaf_count": 3355}, "right_child": {"split_index": 17, "split_feature": 34, "split_gain": 8.674360275268555, "threshold": 0.47511506080627447, "decision_type": "<=", "default_left": true, "missing_type": "None", "internal_value": 0.0139273, "internal_weight": 1526.65, "internal_count": 10403, "left_child": {"leaf_index": 10, "leaf_value": 0.015942015828084945, "leaf_weight": 697.8230186253786, "leaf_count": 4755}, "right_child": {"leaf_index": 18, "leaf_value": 0.012142351994593957, "leaf_weight": 828.8261540979147, "leaf_count": 5648}}}, "right_child": {"split_index": 10, "split_feature": 56, "split_gain": 15.361700057983398, "threshold": 0.6516078114509584, "decision_type": "<=", "default_left": true, "missing_type": "None", "internal_value": 0.00838055, "internal_weight": 1437.02, "internal_count": 9945, "left_child": {"split_index": 12, "split_feature": 61, "split_gain": 9.636870384216309, "threshold": 0.6949431598186494, "decision_type": "<=", "default_left": true, "missing_type": "None", "internal_value": 0.00987377, "internal_weight": 1020.36, "internal_count": 7042, "left_child": {"leaf_index": 6, "leaf_value": 0.010190416797017335, "leaf_weight": 999.9140142053366, "leaf_count": 6902}, "right_child": {"leaf_index": 13, "leaf_value": -0.004255797903578666, "leaf_weight": 20.44831757247448, "leaf_count": 140}}, "right_child": {"leaf_index": 11, "leaf_value": 0.004633696870869362, "leaf_weight": 416.65407502651215, "leaf_count": 2903}}}}}, {"tree_index": 4, "num_leaves": 19, "num_cat": 0, "shrinkage": 0.0224093, "tree_structure": {"split_index": 0, "split_feature": 59, "split_gain": 1498.6700439453125, "threshold": 1.0000000180025095e-35, "decision_type": "<=", "default_left": true, "missing_type": "None", "internal_value": -5.66417e-06, "internal_weight": 10824.1, "internal_count": 74343, "left_child": {"split_index": 1, "split_feature": 8, "split_gain": 1612.699951171875, "threshold": 1.0000000180025095e-35, "decision_type": "<=", "default_left": true, "missing_type": "None", "internal_value": -0.00571696, "internal_weight": 7368.12, "internal_count": 50640, "left_child": {"split_index": 2, "split_feature": 59, "split_gain": 2702.10009765625, "threshold": -1.0000000180025095e-35, "decision_type": "<=", "default_left": true, "missing_type": "None", "internal_value": 0.000425039, "internal_weight": 5486.95, "internal_count": 37711, "left_child": {"split_index": 4, "split_feature": 8, "split_gain": 95.7261962890625, "threshold": -0.000596885016420856, "decision_type": "<=", "default_left": true, "missing_type": "None", "internal_value": -0.0116031, "internal_weight": 3460.53, "internal_count": 23697, "left_child": {"split_index": 12, "split_feature": 1, "split_gain": 8.98666000366211, "threshold": 0.20684055238962176, "decision_type": "<=", "default_left": true, "missing_type": "None", "internal_value": -0.00630293, "internal_weight": 1160.01, "internal_count": 8041, "left_child": {"leaf_index": 0, "leaf_value": 0.00014925350631731285, "leaf_weight": 96.20057809352875, "leaf_count": 647}, "right_child": {"leaf_index": 13, "leaf_value": -0.006893955138916615, "leaf_weight": 1063.8122852146626, "leaf_count": 7394}}, "right_child": {"split_index": 6, "split_feature": 8, "split_gain": 20.736900329589844, "threshold": -0.00024122000468196345, "decision_type": "<=", "default_left": true, "missing_type": "None", "internal_value": -0.0142538, "internal_weight": 2300.52, "internal_count": 15656, "left_child": {"split_index": 16, "split_feature": 29, "split_gain": 8.400239944458008, "threshold": 0.15651012957096103, "decision_type": "<=", "default_left": true, "missing_type": "None", "internal_value": -0.0120255, "internal_weight": 1174.06, "internal_count": 7992, "left_child": {"leaf_index": 5, "leaf_value": -0.008757857005614244, "leaf_weight": 344.1599581539631, "leaf_count": 2324}, "right_child": {"leaf_index": 17, "leaf_value": -0.013314213209260848, "leaf_weight": 829.9008097350597, "leaf_count": 5668}}, "right_child": {"split_index": 14, "split_feature": 1, "split_gain": 8.615269660949707, "threshold": 0.5055388212203981, "decision_type": "<=", "default_left": true, "missing_type": "None", "internal_value": -0.0165105, "internal_weight": 1126.46, "internal_count": 7664, "left_child": {"leaf_index": 7, "leaf_value": -0.014469108702489448, "leaf_weight": 645.061293438077, "leaf_count": 4393}, "right_child": {"leaf_index": 15, "leaf_value": -0.019066292358363095, "leaf_weight": 481.39521196484566, "leaf_count": 3271}}}}, "right_child": {"split_index": 3, "split_feature": 8, "split_gain": 158.72000122070312, "threshold": -1.0000000180025095e-35, "decision_type": "<=", "default_left": true, "missing_type": "None", "internal_value": 0.0209507, "internal_weight": 2026.42, "internal_count": 14014, "left_child": {"split_index": 8, "split_feature": 8, "split_gain": 18.443599700927734, "threshold": -0.0003268099972046911, "decision_type": "<=", "default_left": true, "missing_type": "None", "internal_value": 0.022861, "internal_weight": 1853.66, "internal_count": 12852, "left_child": {"leaf_index": 3, "leaf_value": 0.025784689905977987, "leaf_weight": 779.6212284043431, "leaf_count": 5478}, "right_child": {"split_index": 11, "split_feature": 5, "split_gain": 11.761799812316895, "threshold": 0.0017143150325864556, "decision_type": "<=", "default_left": true, "missing_type": "None", "internal_value": 0.0206311, "internal_weight": 1074.03, "internal_count": 7374, "left_child": {"leaf_index": 9, "leaf_value": 0.021664116963138393, "leaf_weight": 923.0863624662161, "leaf_count": 6328}, "right_child": {"leaf_index": 12, "leaf_value": 0.013806055619697916, "leaf_weight": 150.94817312061787, "leaf_count": 1046}}}, "right_child": {"split_index": 13, "split_feature": 29, "split_gain": 8.906390190124512, "threshold": 0.19162689149379733, "decision_type": "<=", "default_left": true, "missing_type": "None", "internal_value": 0.000337685, "internal_weight": 172.766, "internal_count": 1162, "left_child": {"leaf_index": 4, "leaf_value": 0.010945934280847136, "leaf_weight": 28.32149665057659, "leaf_count": 190}, "right_child": {"leaf_index": 14, "leaf_value": -0.0019421913314856783, "leaf_weight": 144.44440671801567, "leaf_count": 972}}}}, "right_child": {"split_index": 7, "split_feature": 67, "split_gain": 20.47760009765625, "threshold": 0.4118486493825913, "decision_type": "<=", "default_left": true, "missing_type": "None", "internal_value": -0.0235955, "internal_weight": 1881.17, "internal_count": 12929, "left_child": {"split_index": 15, "split_feature": 2, "split_gain": 8.568849563598633, "threshold": 2.272340536117554, "decision_type": "<=", "default_left": true, "missing_type": "None", "internal_value": -0.0210879, "internal_weight": 1015.1, "internal_count": 6965, "left_child": {"leaf_index": 2, "leaf_value": -0.01884688147467661, "leaf_weight": 598.6004697978497, "leaf_count": 4101}, "right_child": {"leaf_index": 16, "leaf_value": -0.024049552218963623, "leaf_weight": 416.50403006374836, "leaf_count": 2864}}, "right_child": {"leaf_index": 8, "leaf_value": -0.026399264980414384, "leaf_weight": 866.0639187842607, "leaf_count": 5964}}}, "right_child": {"split_index": 5, "split_feature": 8, "split_gain": 74.71520233154297, "threshold": 0.0004921799991279842, "decision_type": "<=", "default_left": true, "missing_type": "None", "internal_value": 0.0121593, "internal_weight": 3456.02, "internal_count": 23703, "left_child": {"split_index": 9, "split_feature": 59, "split_gain": 18.110599517822266, "threshold": 0.00010300999929313549, "decision_type": "<=", "default_left": true, "missing_type": "None", "internal_value": 0.0149511, "internal_weight": 2019.21, "internal_count": 13758, "left_child": {"leaf_index": 1, "leaf_value": 0.018883455728766648, "leaf_weight": 493.1221577525139, "leaf_count": 3355}, "right_child": {"split_index": 17, "split_feature": 46, "split_gain": 8.346059799194336, "threshold": 0.0023718599695712332, "decision_type": "<=", "default_left": true, "missing_type": "None", "internal_value": 0.0136222, "internal_weight": 1526.09, "internal_count": 10403, "left_child": {"leaf_index": 10, "leaf_value": 0.015284169276629817, "leaf_weight": 826.9726616591215, "leaf_count": 5644}, "right_child": {"leaf_index": 18, "leaf_value": 0.011557182535330592, "leaf_weight": 699.1198052465916, "leaf_count": 4759}}}, "right_child": {"split_index": 10, "split_feature": 57, "split_gain": 14.940400123596191, "threshold": 0.5357978940010072, "decision_type": "<=", "default_left": true, "missing_type": "None", "internal_value": 0.00819467, "internal_weight": 1436.81, "internal_count": 9945, "left_child": {"leaf_index": 6, "leaf_value": 0.01009017200175699, "leaf_weight": 858.9324994534254, "leaf_count": 5930}, "right_child": {"leaf_index": 11, "leaf_value": 0.0053040224135746765, "leaf_weight": 577.8777385056019, "leaf_count": 4015}}}}}, {"tree_index": 5, "num_leaves": 19, "num_cat": 0, "shrinkage": 0.0224093, "tree_structure": {"split_index": 0, "split_feature": 59, "split_gain": 1442.1300048828125, "threshold": 1.0000000180025095e-35, "decision_type": "<=", "default_left": true, "missing_type": "None", "internal_value": -2.4123899999999998e-05, "internal_weight": 10801.2, "internal_count": 74225, "left_child": {"split_index": 1, "split_feature": 8, "split_gain": 1522.9300537109375, "threshold": 1.0000000180025095e-35, "decision_type": "<=", "default_left": true, "missing_type": "None", "internal_value": -0.00563652, "internal_weight": 7349.24, "internal_count": 50535, "left_child": {"split_index": 2, "split_feature": 26, "split_gain": 2572.260009765625, "threshold": 1.0000000180025095e-35, "decision_type": "<=", "default_left": true, "missing_type": "None", "internal_value": 0.000343975, "internal_weight": 5470.92, "internal_count": 37609, "left_child": {"split_index": 3, "split_feature": 8, "split_gain": 157.9320068359375, "threshold": -1.0000000180025095e-35, "decision_type": "<=", "default_left": true, "missing_type": "None", "internal_value": 0.0203923, "internal_weight": 2021.45, "internal_count": 13982, "left_child": {"split_index": 6, "split_feature": 66, "split_gain": 39.64469909667969, "threshold": -0.015913292765617367, "decision_type": "<=", "default_left": true, "missing_type": "None", "internal_value": 0.0222924, "internal_weight": 1850.4, "internal_count": 12833, "left_child": {"leaf_index": 0, "leaf_value": 0.028069319473951068, "leaf_weight": 484.1997545287013, "leaf_count": 3377}, "right_child": {"split_index": 15, "split_feature": 5, "split_gain": 7.482019901275635, "threshold": 0.0017143150325864556, "decision_type": "<=", "default_left": true, "missing_type": "None", "internal_value": 0.0201524, "internal_weight": 1366.2, "internal_count": 9456, "left_child": {"leaf_index": 7, "leaf_value": 0.021051701295456443, "leaf_weight": 1124.9895065948367, "leaf_count": 7773}, "right_child": {"leaf_index": 16, "leaf_value": 0.015609628630499535, "leaf_weight": 241.20716972649097, "leaf_count": 1683}}}, "right_child": {"split_index": 14, "split_feature": 4, "split_gain": 8.889639854431152, "threshold": -14.93777275085449, "decision_type": "<=", "default_left": true, "missing_type": "None", "internal_value": -0.000149389, "internal_weight": 171.052, "internal_count": 1149, "left_child": {"leaf_index": 4, "leaf_value": 0.009786970721937273, "leaf_weight": 31.32901854813099, "leaf_count": 206}, "right_child": {"leaf_index": 15, "leaf_value": -0.0026820665635502376, "leaf_weight": 139.72296325862408, "leaf_count": 943}}}, "right_child": {"split_index": 4, "split_feature": 8, "split_gain": 91.7396011352539, "threshold": -0.000596885016420856, "decision_type": "<=", "default_left": true, "missing_type": "None", "internal_value": -0.011413, "internal_weight": 3449.47, "internal_count": 23627, "left_child": {"split_index": 13, "split_feature": 71, "split_gain": 9.406270027160645, "threshold": 0.1191423386335373, "decision_type": "<=", "default_left": true, "missing_type": "None", "internal_value": -0.00623098, "internal_weight": 1160.96, "internal_count": 8044, "left_child": {"leaf_index": 3, "leaf_value": -0.006702634551700259, "leaf_weight": 1101.173032835126, "leaf_count": 7638}, "right_child": {"leaf_index": 14, "leaf_value": 0.0021611739426936312, "leaf_weight": 59.79088827967644, "leaf_count": 406}}, "right_child": {"split_index": 8, "split_feature": 29, "split_gain": 20.026399612426758, "threshold": 0.11356680095195772, "decision_type": "<=", "default_left": true, "missing_type": "None", "internal_value": -0.0140202, "internal_weight": 2288.5, "internal_count": 15583, "left_child": {"leaf_index": 5, "leaf_value": -0.009396470167022232, "leaf_weight": 427.47672721743584, "leaf_count": 2901}, "right_child": {"split_index": 12, "split_feature": 5, "split_gain": 10.24470043182373, "threshold": -0.0011016750358976422, "decision_type": "<=", "default_left": true, "missing_type": "None", "internal_value": -0.0150517, "internal_weight": 1861.03, "internal_count": 12682, "left_child": {"leaf_index": 9, "leaf_value": -0.011349279753572503, "leaf_weight": 378.7204950451851, "leaf_count": 2560}, "right_child": {"split_index": 16, "split_feature": 8, "split_gain": 7.446159839630127, "threshold": -0.0002471600018907338, "decision_type": "<=", "default_left": true, "missing_type": "None", "internal_value": -0.0159538, "internal_weight": 1482.31, "internal_count": 10122, "left_child": {"leaf_index": 13, "leaf_value": -0.013845777910543453, "leaf_weight": 670.3381078243256, "leaf_count": 4585}, "right_child": {"leaf_index": 17, "leaf_value": -0.017596264122568376, "leaf_weight": 811.9684526324272, "leaf_count": 5537}}}}}}, "right_child": {"split_index": 7, "split_feature": 66, "split_gain": 38.12519836425781, "threshold": 0.016941648907959465, "decision_type": "<=", "default_left": true, "missing_type": "None", "internal_value": -0.0230203, "internal_weight": 1878.32, "internal_count": 12926, "left_child": {"split_index": 9, "split_feature": 5, "split_gain": 18.798599243164062, "threshold": -0.0007790899835526942, "decision_type": "<=", "default_left": true, "missing_type": "None", "internal_value": -0.0210536, "internal_weight": 1433.84, "internal_count": 9843, "left_child": {"leaf_index": 2, "leaf_value": -0.01653748957298023, "leaf_weight": 419.1835092380643, "leaf_count": 2860}, "right_child": {"leaf_index": 10, "leaf_value": -0.02282850687254924, "leaf_weight": 1014.6528475880623, "leaf_count": 6983}}, "right_child": {"leaf_index": 8, "leaf_value": -0.02906819306510584, "leaf_weight": 444.48714485764503, "leaf_count": 3083}}}, "right_child": {"split_index": 5, "split_feature": 54, "split_gain": 66.08200073242188, "threshold": 0.0004916349716950209, "decision_type": "<=", "default_left": true, "missing_type": "None", "internal_value": 0.0119135, "internal_weight": 3451.99, "internal_count": 23690, "left_child": {"split_index": 10, "split_feature": 54, "split_gain": 15.850899696350098, "threshold": 9.4865001301514e-05, "decision_type": "<=", "default_left": true, "missing_type": "None", "internal_value": 0.0145426, "internal_weight": 2016.86, "internal_count": 13756, "left_child": {"leaf_index": 1, "leaf_value": 0.018469128524084735, "leaf_weight": 449.6952263712883, "leaf_count": 3062}, "right_child": {"leaf_index": 11, "leaf_value": 0.013359975169067721, "leaf_weight": 1567.167197138071, "leaf_count": 10694}}, "right_child": {"split_index": 11, "split_feature": 44, "split_gain": 13.140999794006348, "threshold": 0.5090197026729585, "decision_type": "<=", "default_left": true, "missing_type": "None", "internal_value": 0.00817794, "internal_weight": 1435.12, "internal_count": 9934, "left_child": {"split_index": 17, "split_feature": 46, "split_gain": 7.20458984375, "threshold": 0.39652091264724737, "decision_type": "<=", "default_left": true, "missing_type": "None", "internal_value": 0.0107752, "internal_weight": 593.705, "internal_count": 4096, "left_child": {"leaf_index": 6, "leaf_value": 0.011038128498953864, "leaf_weight": 588.474825873971, "leaf_count": 4059}, "right_child": {"leaf_index": 18, "leaf_value": -0.00921196961180628, "leaf_weight": 5.229833781719207, "leaf_count": 37}}, "right_child": {"leaf_index": 12, "leaf_value": 0.006286009283125772, "leaf_weight": 841.4200730621815, "leaf_count": 5838}}}}}, {"tree_index": 6, "num_leaves": 19, "num_cat": 0, "shrinkage": 0.0224093, "tree_structure": {"split_index": 0, "split_feature": 59, "split_gain": 1379.43994140625, "threshold": 1.0000000180025095e-35, "decision_type": "<=", "default_left": true, "missing_type": "None", "internal_value": -2.37308e-05, "internal_weight": 10792.5, "internal_count": 74225, "left_child": {"split_index": 1, "split_feature": 8, "split_gain": 1458.530029296875, "threshold": 1.0000000180025095e-35, "decision_type": "<=", "default_left": true, "missing_type": "None", "internal_value": -0.0055164, "internal_weight": 7342.14, "internal_count": 50535, "left_child": {"split_index": 2, "split_feature": 26, "split_gain": 2461.77001953125, "threshold": 1.0000000180025095e-35, "decision_type": "<=", "default_left": true, "missing_type": "None", "internal_value": 0.000336807, "internal_weight": 5466.71, "internal_count": 37609, "left_child": {"split_index": 3, "split_feature": 8, "split_gain": 151.3509979248047, "threshold": -1.0000000180025095e-35, "decision_type": "<=", "default_left": true, "missing_type": "None", "internal_value": 0.0199667, "internal_weight": 2018.69, "internal_count": 13982, "left_child": {"split_index": 6, "split_feature": 66, "split_gain": 38.18389892578125, "threshold": -0.015913292765617367, "decision_type": "<=", "default_left": true, "missing_type": "None", "internal_value": 0.0218293, "internal_weight": 1847.64, "internal_count": 12833, "left_child": {"leaf_index": 0, "leaf_value": 0.02750522690722061, "leaf_weight": 483.1604341864586, "leaf_count": 3377}, "right_child": {"split_index": 16, "split_feature": 5, "split_gain": 7.162129878997803, "threshold": 0.0017143150325864556, "decision_type": "<=", "default_left": true, "missing_type": "None", "internal_value": 0.0197286, "internal_weight": 1364.48, "internal_count": 9456, "left_child": {"leaf_index": 7, "leaf_value": 0.02060992537175953, "leaf_weight": 1123.466276742518, "leaf_count": 7773}, "right_child": {"leaf_index": 17, "leaf_value": 0.015278109940901147, "leaf_weight": 241.01801925897598, "leaf_count": 1683}}}, "right_child": {"split_index": 14, "split_feature": 69, "split_gain": 8.275279998779297, "threshold": -2.9558750391006465, "decision_type": "<=", "default_left": true, "missing_type": "None", "internal_value": -0.000140694, "internal_weight": 171.044, "internal_count": 1149, "left_child": {"leaf_index": 4, "leaf_value": -0.013538570495458415, "leaf_weight": 16.15296019613743, "leaf_count": 105}, "right_child": {"leaf_index": 15, "leaf_value": 0.0015355484097320327, "leaf_weight": 154.89061807096004, "leaf_count": 1044}}}, "right_child": {"split_index": 4, "split_feature": 8, "split_gain": 87.86419677734375, "threshold": -0.000596885016420856, "decision_type": "<=", "default_left": true, "missing_type": "None", "internal_value": -0.0111639, "internal_weight": 3448.03, "internal_count": 23627, "left_child": {"split_index": 13, "split_feature": 34, "split_gain": 9.115779876708984, "threshold": 0.4367371648550034, "decision_type": "<=", "default_left": true, "missing_type": "None", "internal_value": -0.00609224, "internal_weight": 1160.83, "internal_count": 8044, "left_child": {"leaf_index": 3, "leaf_value": -0.003529331192543013, "leaf_weight": 456.0241671651602, "leaf_count": 3141}, "right_child": {"leaf_index": 14, "leaf_value": -0.007703537898892842, "leaf_weight": 704.8084783554077, "leaf_count": 4903}}, "right_child": {"split_index": 8, "split_feature": 29, "split_gain": 19.17169952392578, "threshold": 0.11356680095195772, "decision_type": "<=", "default_left": true, "missing_type": "None", "internal_value": -0.0137165, "internal_weight": 2287.19, "internal_count": 15583, "left_child": {"leaf_index": 5, "leaf_value": -0.00919074549696522, "leaf_weight": 427.35325917601585, "leaf_count": 2901}, "right_child": {"split_index": 12, "split_feature": 5, "split_gain": 9.797730445861816, "threshold": -0.0011016750358976422, "decision_type": "<=", "default_left": true, "missing_type": "None", "internal_value": -0.0147265, "internal_weight": 1859.84, "internal_count": 12682, "left_child": {"leaf_index": 9, "leaf_value": -0.01110267619396649, "leaf_weight": 378.55843622237444, "leaf_count": 2560}, "right_child": {"split_index": 17, "split_feature": 8, "split_gain": 7.1342902183532715, "threshold": -0.0002471600018907338, "decision_type": "<=", "default_left": true, "missing_type": "None", "internal_value": -0.0156095, "internal_weight": 1481.28, "internal_count": 10122, "left_child": {"leaf_index": 13, "leaf_value": -0.013544420491116047, "leaf_weight": 670.0003719329834, "leaf_count": 4585}, "right_child": {"leaf_index": 18, "leaf_value": -0.01721876717707002, "leaf_weight": 811.2811361178756, "leaf_count": 5537}}}}}}, "right_child": {"split_index": 7, "split_feature": 66, "split_gain": 36.71820068359375, "threshold": 0.016941648907959465, "decision_type": "<=", "default_left": true, "missing_type": "None", "internal_value": -0.0225434, "internal_weight": 1875.42, "internal_count": 12926, "left_child": {"split_index": 9, "split_feature": 5, "split_gain": 18.043800354003906, "threshold": -0.0007790899835526942, "decision_type": "<=", "default_left": true, "missing_type": "None", "internal_value": -0.0206128, "internal_weight": 1431.9, "internal_count": 9843, "left_child": {"leaf_index": 2, "leaf_value": -0.016185421616476483, "leaf_weight": 418.80554004758596, "leaf_count": 2860}, "right_child": {"leaf_index": 10, "leaf_value": -0.02235366410880686, "leaf_weight": 1013.0983058661222, "leaf_count": 6983}}, "right_child": {"leaf_index": 8, "leaf_value": -0.02848533650745601, "leaf_weight": 443.52013885229826, "leaf_count": 3083}}}, "right_child": {"split_index": 5, "split_feature": 54, "split_gain": 63.296600341796875, "threshold": 0.0004916349716950209, "decision_type": "<=", "default_left": true, "missing_type": "None", "internal_value": 0.0116533, "internal_weight": 3450.4, "internal_count": 23690, "left_child": {"split_index": 10, "split_feature": 54, "split_gain": 15.218400001525879, "threshold": 9.4865001301514e-05, "decision_type": "<=", "default_left": true, "missing_type": "None", "internal_value": 0.0142276, "internal_weight": 2015.57, "internal_count": 13756, "left_child": {"leaf_index": 1, "leaf_value": 0.018077623867355265, "leaf_weight": 449.24084824323654, "leaf_count": 3062}, "right_child": {"leaf_index": 11, "leaf_value": 0.013068487922979972, "leaf_weight": 1566.3291470631957, "leaf_count": 10694}}, "right_child": {"split_index": 11, "split_feature": 56, "split_gain": 12.68239974975586, "threshold": 0.5391881465911866, "decision_type": "<=", "default_left": true, "missing_type": "None", "internal_value": 0.00799693, "internal_weight": 1434.83, "internal_count": 9934, "left_child": {"split_index": 15, "split_feature": 9, "split_gain": 8.12030029296875, "threshold": 0.0003137449966743589, "decision_type": "<=", "default_left": true, "missing_type": "None", "internal_value": 0.00999189, "internal_weight": 767.474, "internal_count": 5303, "left_child": {"leaf_index": 6, "leaf_value": 0.013059662841485055, "leaf_weight": 291.9206507205963, "leaf_count": 2012}, "right_child": {"leaf_index": 16, "leaf_value": 0.007983362332585963, "leaf_weight": 475.55294685065746, "leaf_count": 3291}}, "right_child": {"leaf_index": 12, "leaf_value": 0.005636324085077111, "leaf_weight": 667.3519598990679, "leaf_count": 4631}}}}}, {"tree_index": 7, "num_leaves": 19, "num_cat": 0, "shrinkage": 0.0224093, "tree_structure": {"split_index": 0, "split_feature": 59, "split_gain": 1319.760009765625, "threshold": 1.0000000180025095e-35, "decision_type": "<=", "default_left": true, "missing_type": "None", "internal_value": -2.3412799999999997e-05, "internal_weight": 10782.6, "internal_count": 74225, "left_child": {"split_index": 1, "split_feature": 8, "split_gain": 1397.1500244140625, "threshold": 1.0000000180025095e-35, "decision_type": "<=", "default_left": true, "missing_type": "None", "internal_value": -0.00540002, "internal_weight": 7334.01, "internal_count": 50535, "left_child": {"split_index": 2, "split_feature": 26, "split_gain": 2356.2900390625, "threshold": 1.0000000180025095e-35, "decision_type": "<=", "default_left": true, "missing_type": "None", "internal_value": 0.000329281, "internal_weight": 5461.91, "internal_count": 37609, "left_child": {"split_index": 3, "split_feature": 8, "split_gain": 145.25900268554688, "threshold": -1.0000000180025095e-35, "decision_type": "<=", "default_left": true, "missing_type": "None", "internal_value": 0.0195528, "internal_weight": 2015.55, "internal_count": 13982, "left_child": {"split_index": 6, "split_feature": 66, "split_gain": 36.82490158081055, "threshold": -0.015913292765617367, "decision_type": "<=", "default_left": true, "missing_type": "None", "internal_value": 0.0213805, "internal_weight": 1844.5, "internal_count": 12833, "left_child": {"leaf_index": 0, "leaf_value": 0.02696156677729587, "leaf_weight": 481.961241081357, "leaf_count": 3377}, "right_child": {"leaf_index": 7, "leaf_value": 0.019317037175757598, "leaf_weight": 1362.542075201869, "leaf_count": 9456}}, "right_child": {"split_index": 15, "split_feature": 4, "split_gain": 8.527790069580078, "threshold": -14.93777275085449, "decision_type": "<=", "default_left": true, "missing_type": "None", "internal_value": -0.000143142, "internal_weight": 171.042, "internal_count": 1149, "left_child": {"leaf_index": 4, "leaf_value": 0.009588914340180901, "leaf_weight": 31.321124717593193, "leaf_count": 206}, "right_child": {"leaf_index": 16, "leaf_value": -0.002624778667343574, "leaf_weight": 139.72067548334599, "leaf_count": 943}}}, "right_child": {"split_index": 4, "split_feature": 8, "split_gain": 84.1509017944336, "threshold": -0.000596885016420856, "decision_type": "<=", "default_left": true, "missing_type": "None", "internal_value": -0.0109211, "internal_weight": 3446.37, "internal_count": 23627, "left_child": {"split_index": 14, "split_feature": 71, "split_gain": 8.89857006072998, "threshold": 0.1191423386335373, "decision_type": "<=", "default_left": true, "missing_type": "None", "internal_value": -0.00595766, "internal_weight": 1160.68, "internal_count": 8044, "left_child": {"leaf_index": 3, "leaf_value": -0.006416797804927866, "leaf_weight": 1100.8911331444979, "leaf_count": 7638}, "right_child": {"leaf_index": 15, "leaf_value": 0.0021981109268160532, "leaf_weight": 59.790095180273056, "leaf_count": 406}}, "right_child": {"split_index": 8, "split_feature": 8, "split_gain": 17.41860008239746, "threshold": -0.00024122000468196345, "decision_type": "<=", "default_left": true, "missing_type": "None", "internal_value": -0.0134206, "internal_weight": 2285.69, "internal_count": 15583, "left_child": {"leaf_index": 5, "leaf_value": -0.011354497520324417, "leaf_weight": 1161.5334558412433, "leaf_count": 7917}, "right_child": {"split_index": 17, "split_feature": 5, "split_gain": 7.881680011749268, "threshold": -0.0006576849846169351, "decision_type": "<=", "default_left": true, "missing_type": "None", "internal_value": -0.0154929, "internal_weight": 1124.15, "internal_count": 7666, "left_child": {"leaf_index": 9, "leaf_value": -0.012351469159747582, "leaf_weight": 373.0312298089266, "leaf_count": 2536}, "right_child": {"leaf_index": 18, "leaf_value": -0.01695719498849874, "leaf_weight": 751.1221915706992, "leaf_count": 5130}}}}}, "right_child": {"split_index": 7, "split_feature": 66, "split_gain": 35.41350173950195, "threshold": 0.016941648907959465, "decision_type": "<=", "default_left": true, "missing_type": "None", "internal_value": -0.0220816, "internal_weight": 1872.1, "internal_count": 12926, "left_child": {"split_index": 9, "split_feature": 5, "split_gain": 17.33609962463379, "threshold": -0.0007790899835526942, "decision_type": "<=", "default_left": true, "missing_type": "None", "internal_value": -0.0201849, "internal_weight": 1429.71, "internal_count": 9843, "left_child": {"leaf_index": 2, "leaf_value": -0.01584263983325069, "leaf_weight": 418.38073655217886, "leaf_count": 2860}, "right_child": {"leaf_index": 10, "leaf_value": -0.021893534995944413, "leaf_weight": 1011.3243919983506, "leaf_count": 6983}}, "right_child": {"leaf_index": 8, "leaf_value": -0.027924339198461597, "leaf_weight": 442.39444241672754, "leaf_count": 3083}}}, "right_child": {"split_index": 5, "split_feature": 8, "split_gain": 60.56570053100586, "threshold": 0.00044524999975692486, "decision_type": "<=", "default_left": true, "missing_type": "None", "internal_value": 0.0114001, "internal_weight": 3448.58, "internal_count": 23690, "left_child": {"split_index": 11, "split_feature": 68, "split_gain": 13.199799537658691, "threshold": 3.1063244023243903e-05, "decision_type": "<=", "default_left": true, "missing_type": "None", "internal_value": 0.0141404, "internal_weight": 1872.35, "internal_count": 12791, "left_child": {"leaf_index": 1, "leaf_value": 0.01626162659063455, "leaf_weight": 880.962504312396, "leaf_count": 6004}, "right_child": {"split_index": 13, "split_feature": 43, "split_gain": 9.82036018371582, "threshold": -0.4126824736595153, "decision_type": "<=", "default_left": true, "missing_type": "None", "internal_value": 0.0121805, "internal_weight": 991.386, "internal_count": 6787, "left_child": {"leaf_index": 12, "leaf_value": 0.008999589302301351, "leaf_weight": 370.9901232942939, "leaf_count": 2548}, "right_child": {"leaf_index": 14, "leaf_value": 0.013988368251191296, "leaf_weight": 620.395489551127, "leaf_count": 4239}}}, "right_child": {"split_index": 10, "split_feature": 46, "split_gain": 16.662500381469727, "threshold": -0.036465059965848916, "decision_type": "<=", "default_left": true, "missing_type": "None", "internal_value": 0.00810786, "internal_weight": 1576.23, "internal_count": 10899, "left_child": {"split_index": 16, "split_feature": 9, "split_gain": 8.255900382995605, "threshold": 0.0003137449966743589, "decision_type": "<=", "default_left": true, "missing_type": "None", "internal_value": 0.010728, "internal_weight": 696.6, "internal_count": 4787, "left_child": {"leaf_index": 6, "leaf_value": 0.01411773286750738, "leaf_weight": 252.4833876118064, "leaf_count": 1733}, "right_child": {"leaf_index": 17, "leaf_value": 0.008656633265725898, "leaf_weight": 444.11653783917427, "leaf_count": 3054}}, "right_child": {"split_index": 12, "split_feature": 66, "split_gain": 12.114399909973145, "threshold": 0.019891761243343357, "decision_type": "<=", "default_left": true, "missing_type": "None", "internal_value": 0.00597765, "internal_weight": 879.634, "internal_count": 6112, "left_child": {"leaf_index": 11, "leaf_value": 0.009105624398435529, "leaf_weight": 365.2980166822672, "leaf_count": 2567}, "right_child": {"leaf_index": 13, "leaf_value": 0.003677194170044338, "leaf_weight": 514.3362848162651, "leaf_count": 3545}}}}}}, {"tree_index": 8, "num_leaves": 19, "num_cat": 0, "shrinkage": 0.0224093, "tree_structure": {"split_index": 0, "split_feature": 70, "split_gain": 568.7689819335938, "threshold": 1.0000000180025095e-35, "decision_type": "<=", "default_left": true, "missing_type": "None", "internal_value": -2.2671e-05, "internal_weight": 10771.5, "internal_count": 74225, "left_child": {"split_index": 1, "split_feature": 56, "split_gain": 311.8630065917969, "threshold": 0.4769239723682404, "decision_type": "<=", "default_left": true, "missing_type": "None", "internal_value": -0.00258416, "internal_weight": 8637.42, "internal_count": 59533, "left_child": {"split_index": 4, "split_feature": 70, "split_gain": 202.06300354003906, "threshold": -1.0000000180025095e-35, "decision_type": "<=", "default_left": true, "missing_type": "None", "internal_value": -0.000168778, "internal_weight": 6539.55, "internal_count": 44981, "left_child": {"split_index": 10, "split_feature": 8, "split_gain": 27.360700607299805, "threshold": -0.0006093549891375004, "decision_type": "<=", "default_left": true, "missing_type": "None", "internal_value": -0.00798011, "internal_weight": 1322.08, "internal_count": 9048, "left_child": {"leaf_index": 0, "leaf_value": -0.004385590133644718, "leaf_weight": 603.4748247414827, "leaf_count": 4167}, "right_child": {"leaf_index": 11, "leaf_value": -0.010938947267203944, "leaf_weight": 718.602011539042, "leaf_count": 4881}}, "right_child": {"split_index": 5, "split_feature": 8, "split_gain": 156.69200134277344, "threshold": -1.0000000180025095e-35, "decision_type": "<=", "default_left": true, "missing_type": "None", "internal_value": 0.00181381, "internal_weight": 5217.48, "internal_count": 35933, "left_child": {"split_index": 6, "split_feature": 26, "split_gain": 1545.6199951171875, "threshold": 1.0000000180025095e-35, "decision_type": "<=", "default_left": true, "missing_type": "None", "internal_value": 0.0055901, "internal_weight": 2679.51, "internal_count": 18515, "left_child": {"split_index": 14, "split_feature": 66, "split_gain": 24.394899368286133, "threshold": -0.015913292765617367, "decision_type": "<=", "default_left": true, "missing_type": "None", "internal_value": 0.0221005, "internal_weight": 1377.91, "internal_count": 9595, "left_child": {"leaf_index": 5, "leaf_value": 0.027062235281254697, "leaf_weight": 407.2399021759629, "leaf_count": 2858}, "right_child": {"leaf_index": 15, "leaf_value": 0.01989362623118364, "leaf_weight": 970.6679282858968, "leaf_count": 6737}}, "right_child": {"split_index": 13, "split_feature": 68, "split_gain": 24.833099365234375, "threshold": -4.9749214667826884e-05, "decision_type": "<=", "default_left": true, "missing_type": "None", "internal_value": -0.0118964, "internal_weight": 1301.61, "internal_count": 8920, "left_child": {"leaf_index": 7, "leaf_value": -0.008766102581157186, "leaf_weight": 673.4921655729413, "leaf_count": 4638}, "right_child": {"leaf_index": 14, "leaf_value": -0.015151016319947442, "leaf_weight": 628.1134189590812, "leaf_count": 4282}}}, "right_child": {"split_index": 7, "split_feature": 26, "split_gain": 1162.1300048828125, "threshold": 1.0000000180025095e-35, "decision_type": "<=", "default_left": true, "missing_type": "None", "internal_value": -0.002172, "internal_weight": 2537.96, "internal_count": 17418, "left_child": {"split_index": 8, "split_feature": 8, "split_gain": 99.04750061035156, "threshold": 1.0000000180025095e-35, "decision_type": "<=", "default_left": true, "missing_type": "None", "internal_value": -0.0178351, "internal_weight": 1225.49, "internal_count": 8420, "left_child": {"leaf_index": 6, "leaf_value": 0.00016857982965175713, "leaf_weight": 135.37616556882858, "leaf_count": 908}, "right_child": {"split_index": 15, "split_feature": 66, "split_gain": 21.746599197387695, "threshold": 0.007842232007533314, "decision_type": "<=", "default_left": true, "missing_type": "None", "internal_value": -0.0200716, "internal_weight": 1090.12, "internal_count": 7512, "left_child": {"leaf_index": 9, "leaf_value": -0.016320882015495707, "leaf_weight": 513.5087945088744, "leaf_count": 3528}, "right_child": {"leaf_index": 16, "leaf_value": -0.023242814214460835, "leaf_weight": 576.6083231344819, "leaf_count": 3984}}}, "right_child": {"split_index": 12, "split_feature": 8, "split_gain": 25.671600341796875, "threshold": 0.00040253500628750777, "decision_type": "<=", "default_left": true, "missing_type": "None", "internal_value": 0.0124565, "internal_weight": 1312.47, "internal_count": 8998, "left_child": {"leaf_index": 8, "leaf_value": 0.015072394119230826, "leaf_weight": 782.6509341523051, "leaf_count": 5341}, "right_child": {"leaf_index": 13, "leaf_value": 0.008479377448366797, "leaf_weight": 529.8191844671965, "leaf_count": 3657}}}}}, "right_child": {"split_index": 2, "split_feature": 8, "split_gain": 458.4779968261719, "threshold": 1.0000000180025095e-35, "decision_type": "<=", "default_left": true, "missing_type": "None", "internal_value": -0.0100923, "internal_weight": 2097.86, "internal_count": 14552, "left_child": {"split_index": 3, "split_feature": 26, "split_gain": 520.43798828125, "threshold": 1.0000000180025095e-35, "decision_type": "<=", "default_left": true, "missing_type": "None", "internal_value": -0.00201697, "internal_weight": 1319.6, "internal_count": 9138, "left_child": {"split_index": 11, "split_feature": 72, "split_gain": 27.117000579833984, "threshold": -0.023535324260592457, "decision_type": "<=", "default_left": true, "missing_type": "None", "internal_value": 0.015943, "internal_weight": 498.761, "internal_count": 3479, "left_child": {"leaf_index": 2, "leaf_value": 0.017416815610291254, "leaf_weight": 461.53669848293066, "leaf_count": 3228}, "right_child": {"leaf_index": 12, "leaf_value": -0.0019980622949729546, "leaf_weight": 37.224725522100925, "leaf_count": 251}}, "right_child": {"split_index": 16, "split_feature": 8, "split_gain": 16.22800064086914, "threshold": -0.000596885016420856, "decision_type": "<=", "default_left": true, "missing_type": "None", "internal_value": -0.0129694, "internal_weight": 820.838, "internal_count": 5659, "left_child": {"leaf_index": 4, "leaf_value": -0.0076819292944257074, "leaf_weight": 235.69657818973064, "leaf_count": 1648}, "right_child": {"leaf_index": 17, "leaf_value": -0.015007506179415278, "leaf_weight": 585.141711935401, "leaf_count": 4011}}}, "right_child": {"split_index": 17, "split_feature": 66, "split_gain": 14.007699966430664, "threshold": 0.017786965705454353, "decision_type": "<=", "default_left": true, "missing_type": "None", "internal_value": -0.0236817, "internal_weight": 778.264, "internal_count": 5414, "left_child": {"leaf_index": 3, "leaf_value": -0.02145999593918171, "leaf_weight": 583.7412955835462, "leaf_count": 4039}, "right_child": {"leaf_index": 18, "leaf_value": -0.02966410134018652, "leaf_weight": 194.52298184484243, "leaf_count": 1375}}}}, "right_child": {"split_index": 9, "split_feature": 66, "split_gain": 42.46609878540039, "threshold": 0.019891761243343357, "decision_type": "<=", "default_left": true, "missing_type": "None", "internal_value": 0.0103235, "internal_weight": 2134.11, "internal_count": 14692, "left_child": {"leaf_index": 1, "leaf_value": 0.012429205676385805, "leaf_weight": 1481.0820383802056, "leaf_count": 10195}, "right_child": {"leaf_index": 10, "leaf_value": 0.005480179524944272, "leaf_weight": 653.024107247591, "leaf_count": 4497}}}}, {"tree_index": 9, "num_leaves": 19, "num_cat": 0, "shrinkage": 0.0224093, "tree_structure": {"split_index": 0, "split_feature": 59, "split_gain": 1208.3399658203125, "threshold": 1.0000000180025095e-35, "decision_type": "<=", "default_left": true, "missing_type": "None", "internal_value": -2.2689599999999997e-05, "internal_weight": 10759.6, "internal_count": 74225, "left_child": {"split_index": 1, "split_feature": 8, "split_gain": 1283.1700439453125, "threshold": 1.0000000180025095e-35, "decision_type": "<=", "default_left": true, "missing_type": "None", "internal_value": -0.00517641, "internal_weight": 7315.12, "internal_count": 50535, "left_child": {"split_index": 2, "split_feature": 26, "split_gain": 2159.580078125, "threshold": 1.0000000180025095e-35, "decision_type": "<=", "default_left": true, "missing_type": "None", "internal_value": 0.000315469, "internal_weight": 5450.77, "internal_count": 37609, "left_child": {"split_index": 3, "split_feature": 8, "split_gain": 133.6750030517578, "threshold": -1.0000000180025095e-35, "decision_type": "<=", "default_left": true, "missing_type": "None", "internal_value": 0.0187611, "internal_weight": 2008.23, "internal_count": 13982, "left_child": {"split_index": 6, "split_feature": 66, "split_gain": 34.632598876953125, "threshold": -0.015913292765617367, "decision_type": "<=", "default_left": true, "missing_type": "None", "internal_value": 0.0205211, "internal_weight": 1837.2, "internal_count": 12833, "left_child": {"split_index": 15, "split_feature": 67, "split_gain": 6.8947601318359375, "threshold": 0.5357230305671693, "decision_type": "<=", "default_left": true, "missing_type": "None", "internal_value": 0.0259467, "internal_weight": 479.178, "internal_count": 3377, "left_child": {"leaf_index": 0, "leaf_value": 0.02620018607420442, "leaf_weight": 474.90742905437946, "leaf_count": 3349}, "right_child": {"leaf_index": 16, "leaf_value": -8.012292211222172e-05, "leaf_weight": 4.270720556378364, "leaf_count": 28}}, "right_child": {"leaf_index": 7, "leaf_value": 0.018520130046286987, "leaf_weight": 1358.0222425162792, "leaf_count": 9456}}, "right_child": {"split_index": 14, "split_feature": 69, "split_gain": 7.975289821624756, "threshold": -2.9558750391006465, "decision_type": "<=", "default_left": true, "missing_type": "None", "internal_value": -0.000128486, "internal_weight": 171.031, "internal_count": 1149, "left_child": {"leaf_index": 4, "leaf_value": -0.013283393714313677, "leaf_weight": 16.150897324085236, "leaf_count": 105}, "right_child": {"leaf_index": 15, "leaf_value": 0.001515884178524656, "leaf_weight": 154.88008639216423, "leaf_count": 1044}}}, "right_child": {"split_index": 4, "split_feature": 8, "split_gain": 77.62249755859375, "threshold": -0.000596885016420856, "decision_type": "<=", "default_left": true, "missing_type": "None", "internal_value": -0.0104525, "internal_weight": 3442.54, "internal_count": 23627, "left_child": {"split_index": 13, "split_feature": 34, "split_gain": 8.544919967651367, "threshold": 0.4367371648550034, "decision_type": "<=", "default_left": true, "missing_type": "None", "internal_value": -0.00568527, "internal_weight": 1160.31, "internal_count": 8044, "left_child": {"leaf_index": 3, "leaf_value": -0.0032073218731604853, "leaf_weight": 455.89305774867535, "leaf_count": 3141}, "right_child": {"leaf_index": 14, "leaf_value": -0.007244377085931492, "leaf_weight": 704.4184374660254, "leaf_count": 4903}}, "right_child": {"split_index": 8, "split_feature": 29, "split_gain": 18.02630043029785, "threshold": 0.11356680095195772, "decision_type": "<=", "default_left": true, "missing_type": "None", "internal_value": -0.0128559, "internal_weight": 2282.22, "internal_count": 15583, "left_child": {"split_index": 17, "split_feature": 55, "split_gain": 6.539720058441162, "threshold": -0.0002784783282550051, "decision_type": "<=", "default_left": true, "missing_type": "None", "internal_value": -0.00847691, "internal_weight": 426.771, "internal_count": 2901, "left_child": {"leaf_index": 5, "leaf_value": -0.0015801047888270546, "leaf_weight": 64.44084368646145, "leaf_count": 440}, "right_child": {"leaf_index": 18, "leaf_value": -0.009641861654169625, "leaf_weight": 362.3296800330281, "leaf_count": 2461}}, "right_child": {"split_index": 12, "split_feature": 47, "split_gain": 9.551420211791992, "threshold": 0.0193729754537344, "decision_type": "<=", "default_left": true, "missing_type": "None", "internal_value": -0.0138348, "internal_weight": 1855.45, "internal_count": 12682, "left_child": {"leaf_index": 9, "leaf_value": -0.01688581562972579, "leaf_weight": 461.45165994018316, "leaf_count": 3128}, "right_child": {"leaf_index": 13, "leaf_value": -0.01276669003345842, "leaf_weight": 1394.002681747079, "leaf_count": 9554}}}}}, "right_child": {"split_index": 7, "split_feature": 66, "split_gain": 33.41659927368164, "threshold": 0.016941648907959465, "decision_type": "<=", "default_left": true, "missing_type": "None", "internal_value": -0.0212005, "internal_weight": 1864.35, "internal_count": 12926, "left_child": {"split_index": 10, "split_feature": 6, "split_gain": 11.962900161743164, "threshold": -0.4771075248718261, "decision_type": "<=", "default_left": true, "missing_type": "None", "internal_value": -0.0193585, "internal_weight": 1424.57, "internal_count": 9843, "left_child": {"leaf_index": 2, "leaf_value": -0.01618910090909054, "leaf_weight": 524.7045289725065, "leaf_count": 3591}, "right_child": {"leaf_index": 11, "leaf_value": -0.021105962996268535, "leaf_weight": 899.861596159637, "leaf_count": 6252}}, "right_child": {"leaf_index": 8, "leaf_value": -0.0268886362724013, "leaf_weight": 439.78449837863445, "leaf_count": 3083}}}, "right_child": {"split_index": 5, "split_feature": 54, "split_gain": 56.50400161743164, "threshold": 0.0004916349716950209, "decision_type": "<=", "default_left": true, "missing_type": "None", "internal_value": 0.0109121, "internal_weight": 3444.44, "internal_count": 23690, "left_child": {"split_index": 9, "split_feature": 54, "split_gain": 14.271599769592285, "threshold": 9.4865001301514e-05, "decision_type": "<=", "default_left": true, "missing_type": "None", "internal_value": 0.0133483, "internal_weight": 2010.81, "internal_count": 13756, "left_child": {"leaf_index": 1, "leaf_value": 0.017072456224641142, "leaf_weight": 447.70677976310253, "leaf_count": 3062}, "right_child": {"leaf_index": 10, "leaf_value": 0.012229432697145036, "leaf_weight": 1563.1040985360742, "leaf_count": 10694}}, "right_child": {"split_index": 11, "split_feature": 44, "split_gain": 11.828499794006348, "threshold": 0.5090197026729585, "decision_type": "<=", "default_left": true, "missing_type": "None", "internal_value": 0.00745708, "internal_weight": 1433.63, "internal_count": 9934, "left_child": {"split_index": 16, "split_feature": 46, "split_gain": 6.779079914093018, "threshold": 0.39652091264724737, "decision_type": "<=", "default_left": true, "missing_type": "None", "internal_value": 0.00992024, "internal_weight": 592.857, "internal_count": 4096, "left_child": {"leaf_index": 6, "leaf_value": 0.010178178358652583, "leaf_weight": 587.6284308061004, "leaf_count": 4059}, "right_child": {"leaf_index": 17, "leaf_value": -0.0093485293806295, "leaf_weight": 5.22901339828968, "leaf_count": 37}}, "right_child": {"leaf_index": 12, "leaf_value": 0.005664908725389836, "leaf_weight": 840.7692966014147, "leaf_count": 5838}}}}}, {"tree_index": 10, "num_leaves": 19, "num_cat": 0, "shrinkage": 0.0224093, "tree_structure": {"split_index": 0, "split_feature": 5, "split_gain": 63.40520095825195, "threshold": -0.0010776150156743822, "decision_type": "<=", "default_left": true, "missing_type": "None", "internal_value": -2.03797e-05, "internal_weight": 10749.3, "internal_count": 74272, "left_child": {"split_index": 1, "split_feature": 74, "split_gain": 162.7989959716797, "threshold": 0.9000000059604646, "decision_type": "<=", "default_left": true, "missing_type": "None", "internal_value": 0.00271839, "internal_weight": 3037.91, "internal_count": 20940, "left_child": {"split_index": 2, "split_feature": 13, "split_gain": 247.84100341796875, "threshold": 0.2936882227659226, "decision_type": "<=", "default_left": true, "missing_type": "None", "internal_value": 0.00577374, "internal_weight": 2255.54, "internal_count": 15588, "left_child": {"split_index": 3, "split_feature": 74, "split_gain": 104.09400177001953, "threshold": 1.0000000180025095e-35, "decision_type": "<=", "default_left": true, "missing_type": "None", "internal_value": 0.00244599, "internal_weight": 1883.95, "internal_count": 12979, "left_child": {"leaf_index": 0, "leaf_value": -0.014490456383148232, "leaf_weight": 161.6912791132927, "leaf_count": 1103}, "right_child": {"split_index": 8, "split_feature": 3, "split_gain": 59.246299743652344, "threshold": 0.09208161383867265, "decision_type": "<=", "default_left": true, "missing_type": "None", "internal_value": 0.00407537, "internal_weight": 1722.26, "internal_count": 11876, "left_child": {"leaf_index": 4, "leaf_value": 0.01118767924436614, "leaf_weight": 434.73219645023346, "leaf_count": 3004}, "right_child": {"leaf_index": 9, "leaf_value": 0.001635632134378911, "leaf_weight": 1287.5276366844773, "leaf_count": 8872}}}, "right_child": {"leaf_index": 3, "leaf_value": 0.022388316122599596, "leaf_weight": 371.5867425724864, "leaf_count": 2609}}, "right_child": {"leaf_index": 2, "leaf_value": -0.006059956114459763, "leaf_weight": 782.3750755861402, "leaf_count": 5352}}, "right_child": {"split_index": 4, "split_feature": 74, "split_gain": 97.41529846191406, "threshold": 0.9000000059604646, "decision_type": "<=", "default_left": true, "missing_type": "None", "internal_value": -0.00110158, "internal_weight": 7711.36, "internal_count": 53332, "left_child": {"split_index": 5, "split_feature": 12, "split_gain": 493.16400146484375, "threshold": 0.6492641270160676, "decision_type": "<=", "default_left": true, "missing_type": "None", "internal_value": -0.00244305, "internal_weight": 6009.09, "internal_count": 41608, "left_child": {"split_index": 7, "split_feature": 12, "split_gain": 148.65699768066406, "threshold": 0.35214352607727056, "decision_type": "<=", "default_left": true, "missing_type": "None", "internal_value": -0.000475788, "internal_weight": 5498.08, "internal_count": 38042, "left_child": {"leaf_index": 1, "leaf_value": 0.02023156568318811, "leaf_weight": 164.2340972572565, "leaf_count": 1140}, "right_child": {"split_index": 9, "split_feature": 74, "split_gain": 37.74340057373047, "threshold": 1.0000000180025095e-35, "decision_type": "<=", "default_left": true, "missing_type": "None", "internal_value": -0.00113174, "internal_weight": 5333.85, "internal_count": 36902, "left_child": {"split_index": 10, "split_feature": 61, "split_gain": 174.51100158691406, "threshold": -0.21690792590379712, "decision_type": "<=", "default_left": true, "missing_type": "None", "internal_value": 0.005178, "internal_weight": 432.163, "internal_count": 3001, "left_child": {"leaf_index": 8, "leaf_value": 0.01751392185568325, "leaf_weight": 244.7993424832821, "leaf_count": 1720}, "right_child": {"leaf_index": 11, "leaf_value": -0.01091994140668994, "leaf_weight": 187.3632153943181, "leaf_count": 1281}}, "right_child": {"split_index": 11, "split_feature": 12, "split_gain": 98.06559753417969, "threshold": 0.5938196182250978, "decision_type": "<=", "default_left": true, "missing_type": "None", "internal_value": -0.00169431, "internal_weight": 4901.69, "internal_count": 33901, "left_child": {"split_index": 14, "split_feature": 12, "split_gain": 39.54679870605469, "threshold": 0.4454824626445771, "decision_type": "<=", "default_left": true, "missing_type": "None", "internal_value": -0.000266712, "internal_weight": 4080.88, "internal_count": 28240, "left_child": {"split_index": 15, "split_feature": 74, "split_gain": 194.56900024414062, "threshold": 0.7000000178813935, "decision_type": "<=", "default_left": true, "missing_type": "None", "internal_value": 0.00347314, "internal_weight": 1048.4, "internal_count": 7257, "left_child": {"leaf_index": 10, "leaf_value": 0.013466641059939149, "leaf_weight": 503.3575586080551, "leaf_count": 3477}, "right_child": {"leaf_index": 16, "leaf_value": -0.005772430978493914, "leaf_weight": 545.0425321310759, "leaf_count": 3780}}, "right_child": {"split_index": 16, "split_feature": 74, "split_gain": 63.62110137939453, "threshold": 0.7000000178813935, "decision_type": "<=", "default_left": true, "missing_type": "None", "internal_value": -0.00156619, "internal_weight": 3032.48, "internal_count": 20983, "left_child": {"leaf_index": 15, "leaf_value": -0.00307947739366104, "leaf_weight": 2492.887447118759, "leaf_count": 17258}, "right_child": {"split_index": 17, "split_feature": 61, "split_gain": 103.95700073242188, "threshold": -0.21690792590379712, "decision_type": "<=", "default_left": true, "missing_type": "None", "internal_value": 0.00537447, "internal_weight": 539.59, "internal_count": 3725, "left_child": {"leaf_index": 17, "leaf_value": -0.011902793142163168, "leaf_weight": 128.4641119018197, "leaf_count": 889}, "right_child": {"leaf_index": 18, "leaf_value": 0.010867416364607483, "leaf_weight": 411.1259019449353, "leaf_count": 2836}}}}, "right_child": {"split_index": 12, "split_feature": 74, "split_gain": 128.9709930419922, "threshold": 0.7000000178813935, "decision_type": "<=", "default_left": true, "missing_type": "None", "internal_value": -0.00873983, "internal_weight": 820.808, "internal_count": 5661, "left_child": {"leaf_index": 12, "leaf_value": -0.01673143409915707, "leaf_weight": 450.6001013368368, "leaf_count": 3111}, "right_child": {"split_index": 13, "split_feature": 29, "split_gain": 58.84349822998047, "threshold": 0.6276965439319612, "decision_type": "<=", "default_left": true, "missing_type": "None", "internal_value": 0.00104434, "internal_weight": 370.208, "internal_count": 2550, "left_child": {"leaf_index": 13, "leaf_value": -0.019372923639355277, "leaf_weight": 55.13690037280321, "leaf_count": 379}, "right_child": {"leaf_index": 14, "leaf_value": 0.004870582007525545, "leaf_weight": 315.07081726938486, "leaf_count": 2171}}}}}}, "right_child": {"leaf_index": 6, "leaf_value": -0.02340156799860629, "leaf_weight": 511.0080602020025, "leaf_count": 3566}}, "right_child": {"split_index": 6, "split_feature": 12, "split_gain": 250.03799438476562, "threshold": 0.5537677407264711, "decision_type": "<=", "default_left": true, "missing_type": "None", "internal_value": 0.003622, "internal_weight": 1702.27, "internal_count": 11724, "left_child": {"leaf_index": 5, "leaf_value": -0.010743906953512539, "leaf_weight": 444.47767604887486, "leaf_count": 3049}, "right_child": {"leaf_index": 7, "leaf_value": 0.008726721687359591, "leaf_weight": 1257.7881723567843, "leaf_count": 8675}}}}}, {"tree_index": 11, "num_leaves": 19, "num_cat": 0, "shrinkage": 0.0224093, "tree_structure": {"split_index": 0, "split_feature": 70, "split_gain": 511.3659973144531, "threshold": 1.0000000180025095e-35, "decision_type": "<=", "default_left": true, "missing_type": "None", "internal_value": -2.00485e-05, "internal_weight": 10742.1, "internal_count": 74272, "left_child": {"split_index": 1, "split_feature": 56, "split_gain": 276.4320068359375, "threshold": 0.4769239723682404, "decision_type": "<=", "default_left": true, "missing_type": "None", "internal_value": -0.00245015, "internal_weight": 8616.76, "internal_count": 59621, "left_child": {"split_index": 4, "split_feature": 70, "split_gain": 175.35299682617188, "threshold": -1.0000000180025095e-35, "decision_type": "<=", "default_left": true, "missing_type": "None", "internal_value": -0.000178616, "internal_weight": 6531.36, "internal_count": 45072, "left_child": {"leaf_index": 0, "leaf_value": -0.007468988652037578, "leaf_weight": 1317.8123606741428, "leaf_count": 9033}, "right_child": {"split_index": 5, "split_feature": 8, "split_gain": 146.33900451660156, "threshold": -1.0000000180025095e-35, "decision_type": "<=", "default_left": true, "missing_type": "None", "internal_value": 0.00166707, "internal_weight": 5213.55, "internal_count": 36039, "left_child": {"split_index": 6, "split_feature": 17, "split_gain": 475.739990234375, "threshold": 0.7614763081073762, "decision_type": "<=", "default_left": true, "missing_type": "None", "internal_value": 0.00532079, "internal_weight": 2675.48, "internal_count": 18565, "left_child": {"split_index": 8, "split_feature": 74, "split_gain": 117.29199981689453, "threshold": 0.9000000059604646, "decision_type": "<=", "default_left": true, "missing_type": "None", "internal_value": -0.000238287, "internal_weight": 1989.07, "internal_count": 13742, "left_child": {"split_index": 9, "split_feature": 15, "split_gain": 123.2760009765625, "threshold": 0.03559613041579724, "decision_type": "<=", "default_left": true, "missing_type": "None", "internal_value": 0.00268753, "internal_weight": 1542.83, "internal_count": 10682, "left_child": {"split_index": 12, "split_feature": 74, "split_gain": 68.53019714355469, "threshold": 1.0000000180025095e-35, "decision_type": "<=", "default_left": true, "missing_type": "None", "internal_value": -9.00042e-05, "internal_weight": 1295.98, "internal_count": 8963, "left_child": {"leaf_index": 5, "leaf_value": 0.01880284138183707, "leaf_weight": 85.22408211231232, "leaf_count": 594}, "right_child": {"split_index": 16, "split_feature": 12, "split_gain": 44.630699157714844, "threshold": 0.5760655701160432, "decision_type": "<=", "default_left": true, "missing_type": "None", "internal_value": -0.00149263, "internal_weight": 1210.75, "internal_count": 8369, "left_child": {"split_index": 17, "split_feature": 74, "split_gain": 53.98630142211914, "threshold": 0.7000000178813935, "decision_type": "<=", "default_left": true, "missing_type": "None", "internal_value": 3.8176800000000004e-05, "internal_weight": 1076.74, "internal_count": 7454, "left_child": {"leaf_index": 13, "leaf_value": 0.0036019721684243996, "leaf_weight": 716.410545617342, "leaf_count": 4953}, "right_child": {"leaf_index": 18, "leaf_value": -0.006977117050808592, "leaf_weight": 360.3273184001446, "leaf_count": 2501}}, "right_child": {"leaf_index": 17, "leaf_value": -0.013466888434244083, "leaf_weight": 134.01512698829174, "leaf_count": 915}}}, "right_child": {"leaf_index": 10, "leaf_value": 0.01705092213384505, "leaf_weight": 246.8485896512866, "leaf_count": 1719}}, "right_child": {"leaf_index": 9, "leaf_value": -0.010302244741555748, "leaf_weight": 446.24014861136675, "leaf_count": 3060}}, "right_child": {"leaf_index": 7, "leaf_value": 0.02134107085997222, "leaf_weight": 686.4142294377089, "leaf_count": 4823}}, "right_child": {"split_index": 7, "split_feature": 74, "split_gain": 178.343994140625, "threshold": 0.9000000059604646, "decision_type": "<=", "default_left": true, "missing_type": "None", "internal_value": -0.00218312, "internal_weight": 2538.07, "internal_count": 17474, "left_child": {"split_index": 10, "split_feature": 15, "split_gain": 108.91899871826172, "threshold": 0.04487407952547074, "decision_type": "<=", "default_left": true, "missing_type": "None", "internal_value": -0.00498048, "internal_weight": 2078.84, "internal_count": 14313, "left_child": {"split_index": 11, "split_feature": 74, "split_gain": 114.15799713134766, "threshold": 0.7000000178813935, "decision_type": "<=", "default_left": true, "missing_type": "None", "internal_value": -0.00348142, "internal_weight": 1922.09, "internal_count": 13225, "left_child": {"split_index": 13, "split_feature": 56, "split_gain": 61.698299407958984, "threshold": 0.24887898564338687, "decision_type": "<=", "default_left": true, "missing_type": "None", "internal_value": -0.00643178, "internal_weight": 1487.99, "internal_count": 10238, "left_child": {"split_index": 14, "split_feature": 12, "split_gain": 76.7844009399414, "threshold": 0.5466307997703553, "decision_type": "<=", "default_left": true, "missing_type": "None", "internal_value": -0.00380116, "internal_weight": 1125.73, "internal_count": 7753, "left_child": {"split_index": 15, "split_feature": 74, "split_gain": 88.25800323486328, "threshold": 1.0000000180025095e-35, "decision_type": "<=", "default_left": true, "missing_type": "None", "internal_value": -0.000706959, "internal_weight": 884.496, "internal_count": 6084, "left_child": {"leaf_index": 6, "leaf_value": -0.017044070708914304, "leaf_weight": 135.6235613822937, "leaf_count": 938}, "right_child": {"leaf_index": 16, "leaf_value": 0.002322363248335699, "leaf_weight": 748.8726207390428, "leaf_count": 5146}}, "right_child": {"leaf_index": 15, "leaf_value": -0.014885411453341924, "leaf_weight": 241.2317492812872, "leaf_count": 1669}}, "right_child": {"leaf_index": 14, "leaf_value": -0.014432659347911943, "leaf_weight": 362.25715763121843, "leaf_count": 2485}}, "right_child": {"leaf_index": 12, "leaf_value": 0.006571030230697391, "leaf_weight": 434.10619446635246, "leaf_count": 2987}}, "right_child": {"leaf_index": 11, "leaf_value": -0.022691924378178033, "leaf_weight": 156.7458377107978, "leaf_count": 1088}}, "right_child": {"leaf_index": 8, "leaf_value": 0.010383917278811385, "leaf_weight": 459.23228780925274, "leaf_count": 3161}}}}, "right_child": {"split_index": 2, "split_feature": 8, "split_gain": 402.5060119628906, "threshold": 1.0000000180025095e-35, "decision_type": "<=", "default_left": true, "missing_type": "None", "internal_value": -0.00954405, "internal_weight": 2085.39, "internal_count": 14549, "left_child": {"split_index": 3, "split_feature": 70, "split_gain": 477.62701416015625, "threshold": -1.0000000180025095e-35, "decision_type": "<=", "default_left": true, "missing_type": "None", "internal_value": -0.00193437, "internal_weight": 1309.2, "internal_count": 9104, "left_child": {"leaf_index": 2, "leaf_value": -0.012476296931843607, "leaf_weight": 813.9010096490383, "leaf_count": 5629}, "right_child": {"leaf_index": 4, "leaf_value": 0.015325255010332538, "leaf_weight": 495.2946363463998, "leaf_count": 3475}}, "right_child": {"leaf_index": 3, "leaf_value": -0.022281376835228073, "leaf_weight": 776.1992541775107, "leaf_count": 5445}}}, "right_child": {"leaf_index": 1, "leaf_value": 0.009811797814307655, "leaf_weight": 2125.387883991003, "leaf_count": 14651}}}, {"tree_index": 12, "num_leaves": 19, "num_cat": 0, "shrinkage": 0.0224093, "tree_structure": {"split_index": 0, "split_feature": 59, "split_gain": 1099.02001953125, "threshold": 1.0000000180025095e-35, "decision_type": "<=", "default_left": true, "missing_type": "None", "internal_value": -1.9981e-05, "internal_weight": 10731.4, "internal_count": 74272, "left_child": {"split_index": 1, "split_feature": 8, "split_gain": 1185.5400390625, "threshold": 1.0000000180025095e-35, "decision_type": "<=", "default_left": true, "missing_type": "None", "internal_value": -0.004943, "internal_weight": 7294.57, "internal_count": 50590, "left_child": {"split_index": 2, "split_feature": 26, "split_gain": 1955.3900146484375, "threshold": 1.0000000180025095e-35, "decision_type": "<=", "default_left": true, "missing_type": "None", "internal_value": 0.000345118, "internal_weight": 5434.44, "internal_count": 37622, "left_child": {"split_index": 3, "split_feature": 8, "split_gain": 116.30999755859375, "threshold": -1.0000000180025095e-35, "decision_type": "<=", "default_left": true, "missing_type": "None", "internal_value": 0.0179302, "internal_weight": 2001.24, "internal_count": 14011, "left_child": {"split_index": 6, "split_feature": 66, "split_gain": 33.104400634765625, "threshold": -0.015634104609489437, "decision_type": "<=", "default_left": true, "missing_type": "None", "internal_value": 0.0195964, "internal_weight": 1826.7, "internal_count": 12839, "left_child": {"leaf_index": 0, "leaf_value": 0.02478140433354335, "leaf_weight": 493.1653530597687, "leaf_count": 3498}, "right_child": {"leaf_index": 7, "leaf_value": 0.017594656934987955, "leaf_weight": 1333.537148579955, "leaf_count": 9341}}, "right_child": {"split_index": 11, "split_feature": 5, "split_gain": 9.66510009765625, "threshold": -0.00069698499282822, "decision_type": "<=", "default_left": true, "missing_type": "None", "internal_value": 0.000382421, "internal_weight": 174.54, "internal_count": 1172, "left_child": {"leaf_index": 4, "leaf_value": 0.009818715405965402, "leaf_weight": 37.80033656954765, "leaf_count": 256}, "right_child": {"split_index": 15, "split_feature": 2, "split_gain": 7.768189907073975, "threshold": -1.5177733302116392, "decision_type": "<=", "default_left": true, "missing_type": "None", "internal_value": -0.00238434, "internal_weight": 136.739, "internal_count": 916, "left_child": {"leaf_index": 12, "leaf_value": -0.012463252722076443, "leaf_weight": 25.74448125064373, "leaf_count": 173}, "right_child": {"leaf_index": 16, "leaf_value": 0.0002601411729547121, "leaf_weight": 110.99469996988773, "leaf_count": 743}}}}, "right_child": {"split_index": 4, "split_feature": 8, "split_gain": 71.18350219726562, "threshold": -0.0006093549891375004, "decision_type": "<=", "default_left": true, "missing_type": "None", "internal_value": -0.0099125, "internal_weight": 3433.2, "internal_count": 23611, "left_child": {"split_index": 14, "split_feature": 49, "split_gain": 8.226240158081055, "threshold": -0.00034076000156346703, "decision_type": "<=", "default_left": true, "missing_type": "None", "internal_value": -0.00524444, "internal_weight": 1125.02, "internal_count": 7810, "left_child": {"leaf_index": 3, "leaf_value": -0.002325791805215482, "leaf_weight": 353.05935184657574, "leaf_count": 2434}, "right_child": {"leaf_index": 15, "leaf_value": -0.006545238222059902, "leaf_weight": 771.9573429003358, "leaf_count": 5376}}, "right_child": {"split_index": 9, "split_feature": 12, "split_gain": 17.89780044555664, "threshold": 0.4721887260675431, "decision_type": "<=", "default_left": true, "missing_type": "None", "internal_value": -0.0121688, "internal_weight": 2308.18, "internal_count": 15801, "left_child": {"leaf_index": 5, "leaf_value": -0.010418378601082563, "leaf_weight": 1362.6756317168474, "leaf_count": 9314}, "right_child": {"split_index": 10, "split_feature": 47, "split_gain": 10.561400413513184, "threshold": 0.019578140228986744, "decision_type": "<=", "default_left": true, "missing_type": "None", "internal_value": -0.0146199, "internal_weight": 945.504, "internal_count": 6487, "left_child": {"leaf_index": 10, "leaf_value": -0.019165998268223412, "leaf_weight": 227.31721450388432, "leaf_count": 1548}, "right_child": {"split_index": 17, "split_feature": 49, "split_gain": 6.931700229644775, "threshold": 0.00042315499740652745, "decision_type": "<=", "default_left": true, "missing_type": "None", "internal_value": -0.013057, "internal_weight": 718.186, "internal_count": 4939, "left_child": {"leaf_index": 11, "leaf_value": -0.013650972532659015, "leaf_weight": 670.9744468331337, "leaf_count": 4612}, "right_child": {"leaf_index": 18, "leaf_value": -0.003969594265436731, "leaf_weight": 47.212001986801624, "leaf_count": 327}}}}}}, "right_child": {"split_index": 7, "split_feature": 66, "split_gain": 29.04640007019043, "threshold": 0.007666956866160036, "decision_type": "<=", "default_left": true, "missing_type": "None", "internal_value": -0.0203614, "internal_weight": 1860.14, "internal_count": 12968, "left_child": {"leaf_index": 2, "leaf_value": -0.016844106361041417, "leaf_weight": 797.5979801565409, "leaf_count": 5523}, "right_child": {"split_index": 16, "split_feature": 66, "split_gain": 7.061339855194092, "threshold": 0.017786965705454353, "decision_type": "<=", "default_left": true, "missing_type": "None", "internal_value": -0.0229103, "internal_weight": 1062.54, "internal_count": 7445, "left_child": {"leaf_index": 8, "leaf_value": -0.020908107634271655, "leaf_weight": 662.1848819032311, "leaf_count": 4613}, "right_child": {"leaf_index": 17, "leaf_value": -0.025928652093671543, "leaf_weight": 400.353587731719, "leaf_count": 2832}}}}, "right_child": {"split_index": 5, "split_feature": 66, "split_gain": 59.40729904174805, "threshold": 0.013441233430057766, "decision_type": "<=", "default_left": true, "missing_type": "None", "internal_value": 0.0104189, "internal_weight": 3436.82, "internal_count": 23682, "left_child": {"split_index": 12, "split_feature": 5, "split_gain": 9.4544095993042, "threshold": 0.004283715039491654, "decision_type": "<=", "default_left": true, "missing_type": "None", "internal_value": 0.013442, "internal_weight": 1682.31, "internal_count": 11587, "left_child": {"leaf_index": 1, "leaf_value": 0.013844029752182792, "leaf_weight": 1595.3664726242423, "leaf_count": 10974}, "right_child": {"leaf_index": 13, "leaf_value": 0.005637252183446865, "leaf_weight": 86.94423843920231, "leaf_count": 613}}, "right_child": {"split_index": 8, "split_feature": 49, "split_gain": 24.172300338745117, "threshold": 0.00017232499521924185, "decision_type": "<=", "default_left": true, "missing_type": "None", "internal_value": 0.00748766, "internal_weight": 1754.51, "internal_count": 12095, "left_child": {"split_index": 13, "split_feature": 5, "split_gain": 8.520139694213867, "threshold": 0.0009608550171833486, "decision_type": "<=", "default_left": true, "missing_type": "None", "internal_value": 0.00966065, "internal_weight": 1045.66, "internal_count": 7200, "left_child": {"leaf_index": 6, "leaf_value": 0.010926633312378479, "leaf_weight": 763.0952319726348, "leaf_count": 5255}, "right_child": {"leaf_index": 14, "leaf_value": 0.006089490528369775, "leaf_weight": 282.5669401213527, "leaf_count": 1945}}, "right_child": {"leaf_index": 9, "leaf_value": 0.00422750975294954, "leaf_weight": 708.8500550687313, "leaf_count": 4895}}}}}, {"tree_index": 13, "num_leaves": 19, "num_cat": 0, "shrinkage": 0.0224093, "tree_structure": {"split_index": 0, "split_feature": 59, "split_gain": 1051.8399658203125, "threshold": 1.0000000180025095e-35, "decision_type": "<=", "default_left": true, "missing_type": "None", "internal_value": -1.99352e-05, "internal_weight": 10716.4, "internal_count": 74272, "left_child": {"split_index": 1, "split_feature": 8, "split_gain": 1136.9000244140625, "threshold": 1.0000000180025095e-35, "decision_type": "<=", "default_left": true, "missing_type": "None", "internal_value": -0.00484168, "internal_weight": 7282.3, "internal_count": 50590, "left_child": {"split_index": 2, "split_feature": 26, "split_gain": 1872.77001953125, "threshold": 1.0000000180025095e-35, "decision_type": "<=", "default_left": true, "missing_type": "None", "internal_value": 0.000337503, "internal_weight": 5427.23, "internal_count": 37622, "left_child": {"split_index": 3, "split_feature": 8, "split_gain": 111.75, "threshold": -1.0000000180025095e-35, "decision_type": "<=", "default_left": true, "missing_type": "None", "internal_value": 0.0175726, "internal_weight": 1996.51, "internal_count": 14011, "left_child": {"split_index": 6, "split_feature": 66, "split_gain": 32.09349822998047, "threshold": -0.015634104609489437, "decision_type": "<=", "default_left": true, "missing_type": "None", "internal_value": 0.0192098, "internal_weight": 1821.98, "internal_count": 12839, "left_child": {"leaf_index": 0, "leaf_value": 0.024324566439120007, "leaf_weight": 491.27399784326553, "leaf_count": 3498}, "right_child": {"leaf_index": 7, "leaf_value": 0.017238575313491634, "leaf_weight": 1330.7065426260233, "leaf_count": 9341}}, "right_child": {"split_index": 12, "split_feature": 5, "split_gain": 9.285599708557129, 