{"format": "xgboost_json_v8", "version": 2, "num_features": 79, "num_trees": 466, "feature_names": ["ptb_dist_pct", "rsi_norm", "rsi_slope", "macd_hist", "macd_line", "vwap_dist", "vwap_slope", "ha_signed_consec", "delta_1m_pct", "delta_3m_pct", "vol_ratio_norm", "minutes_left_norm", "rule_prob_up", "rule_confidence", "vwap_cross_count_norm", "best_edge", "regime_trending", "regime_confidence", "regime_mean_reverting", "regime_moderate", "session_asia", "session_europe", "session_us", "session_overlap", "session_offhours", "ha_is_green", "multi_tf_agreement", "failed_vwap_reclaim", "bb_width", "bb_percent_b", "bb_squeeze", "atr_pct_norm", "atr_ratio_norm", "atr_expanding", "vol_delta_buy_ratio", "vol_delta_accel", "ema_dist_norm", "ema_cross_signal", "stoch_k_norm", "stoch_kd_norm", "volume_acceleration", "bb_squeeze_intensity", "hour_sin", "hour_cos", "market_yes_price", "market_price_momentum", "orderbook_imbalance", "spread_pct", "crowd_model_divergence", "momentum_5candle_slope", "volatility_change_ratio", "price_consistency", "funding_rate_norm", "funding_rate_change", "delta_1m_capped", "momentum_accel", "rsi_x_trending", "rsi_x_regime_conf", "rsi_x_mean_rev", "delta1m_x_multitf", "bb_pctb_x_squeeze", "vol_buy_x_delta", "vwap_trend_strength", "rsi_divergence", "combined_oscillator", "ha_delta_agree", "delta_1m_atr_adj", "price_position_score", "vol_weighted_momentum", "macd_x_rsi_slope", "trend_alignment_score", "oscillator_extreme", "vol_momentum_confirm", "squeeze_breakout_potential", "multi_indicator_agree", "stoch_rsi_extreme", "crowd_agree_momentum", "divergence_x_confidence", "imbalance_x_vol_delta"], "original_features": 54, "engineered_features": ["delta_1m_capped", "momentum_accel", "rsi_x_trending", "rsi_x_regime_conf", "rsi_x_mean_rev", "delta1m_x_multitf", "bb_pctb_x_squeeze", "vol_buy_x_delta", "vwap_trend_strength", "rsi_divergence", "combined_oscillator", "ha_delta_agree", "delta_1m_atr_adj", "price_position_score", "vol_weighted_momentum", "macd_x_rsi_slope", "trend_alignment_score", "oscillator_extreme", "vol_momentum_confirm", "squeeze_breakout_potential", "multi_indicator_agree", "stoch_rsi_extreme", "crowd_agree_momentum", "divergence_x_confidence", "imbalance_x_vol_delta"], "best_iteration": 465, "optimal_threshold": 0.55, "platt_a": 4.900626061167773, "platt_b": -2.4518437766086416, "pruned_features": ["ptb_dist_pct", "rsi_slope", "macd_hist", "macd_line", "ha_signed_consec", "delta_3m_pct", "vol_ratio_norm", "minutes_left_norm", "rule_confidence", "vwap_cross_count_norm", "regime_trending", "regime_mean_reverting", "session_asia", "session_europe", "session_us", "session_overlap", "ha_is_green", "failed_vwap_reclaim", "bb_width", "bb_squeeze", "atr_pct_norm", "atr_ratio_norm", "vol_delta_accel", "ema_dist_norm", "ema_cross_signal", "stoch_k_norm", "stoch_kd_norm", "volume_acceleration", "bb_squeeze_intensity", "hour_sin", "hour_cos", "crowd_model_divergence", "volatility_change_ratio", "price_consistency", "funding_rate_norm", "funding_rate_change", "momentum_accel", "rsi_x_mean_rev", "bb_pctb_x_squeeze", "vwap_trend_strength", "rsi_divergence", "combined_oscillator", "ha_delta_agree", "macd_x_rsi_slope", "oscillator_extreme", "squeeze_breakout_potential", "stoch_rsi_extreme", "divergence_x_confidence"], "pre_excluded_features": ["funding_rate_norm", "funding_sentiment", "regime_choppy", "spread_pct_norm", "stoch_d_norm", "vwap_cross_count", "failed_vwap_reclaim", "vol_delta_accel", "ema_cross_signal", "time_left_min", "rule_prob_up", "rule_confidence", "orderbook_imbalance", "market_price_momentum", "crowd_model_divergence", "regime_moderate", "regime_mean_reverting"], "zero_features": [], "recency_weighting": {"enabled": true, "halflife_days": 90}, "params": {"objective": "binary:logistic", "eval_metric": "['logloss', 'auc']", "scale_pos_weight": "0.9937961531856432", "seed": "42", "tree_method": "hist", "max_depth": "5", "learning_rate": "0.008008375171347585", "subsample": "0.737058744983708", "colsample_bytree": "0.9004348998655526", "min_child_weight": "13", "gamma": "0.19152378565612196", "reg_alpha": "0.0033340748720370283", "reg_lambda": "1.4102512133279306"}, "training_method": "optuna", "metrics": {"accuracy": 0.6924, "auc": 0.7417, "f1": 0.6929, "logloss": 0.5994, "high_conf_accuracy": 0.6992, "high_conf_ratio": 95.94, "high_conf_threshold": 0.55, "cv_auc": 0.7408, "cv_acc": 0.6929}, "trees": [{"nodeid": 0, "depth": 0, "split": "delta1m_x_multitf", "split_condition": 1.00000001e-07, "yes": 1, "no": 2, "missing": 2, "children": [{"nodeid": 1, "depth": 1, "split": "delta_1m_pct", "split_condition": 1.00000001e-07, "yes": 3, "no": 4, "missing": 4, "children": [{"nodeid": 3, "depth": 2, "split": "delta1m_x_multitf", "split_condition": 0, "yes": 7, "no": 8, "missing": 8, "children": [{"nodeid": 7, "depth": 3, "split": "delta_1m_pct", "split_condition": -0.000452529988, "yes": 15, "no": 16, "missing": 16, "children": [{"nodeid": 15, "depth": 4, "split": "macd_line", "split_condition": -20.2541981, "yes": 31, "no": 32, "missing": 32, "children": [{"nodeid": 31, "leaf": -0.00179752498}, {"nodeid": 32, "leaf": -0.00349708577}]}, {"nodeid": 16, "depth": 4, "split": "rsi_norm", "split_condition": 0.383012086, "yes": 33, "no": 34, "missing": 34, "children": [{"nodeid": 33, "leaf": -0.00448227208}, {"nodeid": 34, "leaf": -0.00640488975}]}]}, {"nodeid": 8, "depth": 3, "split": "delta_1m_pct", "split_condition": 0, "yes": 17, "no": 18, "missing": 18, "children": [{"nodeid": 17, "depth": 4, "split": "delta_1m_atr_adj", "split_condition": -0.0158519801, "yes": 35, "no": 36, "missing": 36, "children": [{"nodeid": 35, "leaf": 0.0111145191}, {"nodeid": 36, "leaf": 0.008049367}]}, {"nodeid": 18, "depth": 4, "split": "multi_tf_agreement", "split_condition": 1, "yes": 37, "no": 38, "missing": 38, "children": [{"nodeid": 37, "leaf": -0.000280012115}, {"nodeid": 38, "leaf": 0.0101875672}]}]}]}, {"nodeid": 4, "depth": 2, "split": "delta_1m_atr_adj", "split_condition": 0.0169708338, "yes": 9, "no": 10, "missing": 10, "children": [{"nodeid": 9, "depth": 3, "split": "vwap_dist", "split_condition": -0.000685230014, "yes": 19, "no": 20, "missing": 20, "children": [{"nodeid": 19, "depth": 4, "split": "rsi_slope", "split_condition": -0.291113675, "yes": 39, "no": 40, "missing": 40, "children": [{"nodeid": 39, "leaf": -0.00500034261}, {"nodeid": 40, "leaf": -0.00768036675}]}, {"nodeid": 20, "depth": 4, "split": "delta_1m_atr_adj", "split_condition": 0.00754246255, "yes": 41, "no": 42, "missing": 42, "children": [{"nodeid": 41, "leaf": -0.00849907938}, {"nodeid": 42, "leaf": -0.0100292563}]}]}, {"nodeid": 10, "depth": 3, "split": "vwap_slope", "split_condition": -0.0917498469, "yes": 21, "no": 22, "missing": 22, "children": [{"nodeid": 21, "depth": 4, "split": "atr_ratio_norm", "split_condition": 0.289027661, "yes": 43, "no": 44, "missing": 44, "children": [{"nodeid": 43, "leaf": -0.00792880636}, {"nodeid": 44, "leaf": -0.0108003402}]}, {"nodeid": 22, "leaf": -0.0121569084}]}]}]}, {"nodeid": 2, "depth": 1, "split": "delta_1m_pct", "split_condition": 0.000441359996, "yes": 5, "no": 6, "missing": 6, "children": [{"nodeid": 5, "depth": 2, "split": "vol_weighted_momentum", "split_condition": 2.04733878e-05, "yes": 11, "no": 12, "missing": 12, "children": [{"nodeid": 11, "depth": 3, "split": "vwap_dist", "split_condition": 0.0022259301, "yes": 23, "no": 24, "missing": 24, "children": [{"nodeid": 23, "depth": 4, "split": "oscillator_extreme", "split_condition": 0.042561233, "yes": 45, "no": 46, "missing": 46, "children": [{"nodeid": 45, "leaf": 0.00727462582}, {"nodeid": 46, "leaf": 0.0102515975}]}, {"nodeid": 24, "depth": 4, "split": "bb_percent_b", "split_condition": 0.725356638, "yes": 47, "no": 48, "missing": 48, "children": [{"nodeid": 47, "leaf": 0.00764009822}, {"nodeid": 48, "leaf": 0.00218094862}]}]}, {"nodeid": 12, "depth": 3, "split": "bb_percent_b", "split_condition": 0.572934687, "yes": 25, "no": 26, "missing": 26, "children": [{"nodeid": 25, "depth": 4, "split": "delta_1m_atr_adj", "split_condition": 0.00928878225, "yes": 49, "no": 50, "missing": 50, "children": [{"nodeid": 49, "leaf": 0.00540750846}, {"nodeid": 50, "leaf": 0.00707493071}]}, {"nodeid": 26, "depth": 4, "split": "volatility_change_ratio", "split_condition": 0.189438805, "yes": 51, "no": 52, "missing": 52, "children": [{"nodeid": 51, "leaf": 0.00645603472}, {"nodeid": 52, "leaf": 0.00406786567}]}]}]}, {"nodeid": 6, "depth": 2, "split": "rsi_x_trending", "split_condition": 0.647253454, "yes": 13, "no": 14, "missing": 14, "children": [{"nodeid": 13, "depth": 3, "split": "delta_1m_atr_adj", "split_condition": 0.0136368163, "yes": 27, "no": 28, "missing": 28, "children": [{"nodeid": 27, "depth": 4, "split": "momentum_accel", "split_condition": 7.64333381e-05, "yes": 53, "no": 54, "missing": 54, "children": [{"nodeid": 53, "leaf": 0.00171788875}, {"nodeid": 54, "leaf": 0.00631420175}]}, {"nodeid": 28, "depth": 4, "split": "rule_confidence", "split_condition": 0.0272462498, "yes": 55, "no": 56, "missing": 56, "children": [{"nodeid": 55, "leaf": 0.000511467108}, {"nodeid": 56, "leaf": 0.0039373883}]}]}, {"nodeid": 14, "depth": 3, "split": "stoch_kd_norm", "split_condition": 0.530007303, "yes": 29, "no": 30, "missing": 30, "children": [{"nodeid": 29, "depth": 4, "split": "vol_delta_accel", "split_condition": 0.528701127, "yes": 57, "no": 58, "missing": 58, "children": [{"nodeid": 57, "leaf": 0.000703080674}, {"nodeid": 58, "leaf": 0.00372627098}]}, {"nodeid": 30, "depth": 4, "split": "vol_momentum_confirm", "split_condition": 0.254835784, "yes": 59, "no": 60, "missing": 60, "children": [{"nodeid": 59, "leaf": 0.000572498888}, {"nodeid": 60, "leaf": 0.00444321986}]}]}]}]}]}, {"nodeid": 0, "depth": 0, "split": "delta1m_x_multitf", "split_condition": 1.00000001e-07, "yes": 1, "no": 2, "missing": 2, "children": [{"nodeid": 1, "depth": 1, "split": "delta_1m_pct", "split_condition": 1.00000001e-07, "yes": 3, "no": 4, "missing": 4, "children": [{"nodeid": 3, "depth": 2, "split": "delta1m_x_multitf", "split_condition": 0, "yes": 7, "no": 8, "missing": 8, "children": [{"nodeid": 7, "depth": 3, "split": "delta_1m_pct", "split_condition": -0.000602880027, "yes": 15, "no": 16, "missing": 16, "children": [{"nodeid": 15, "depth": 4, "split": "rsi_divergence", "split_condition": -0.0946577191, "yes": 31, "no": 32, "missing": 32, "children": [{"nodeid": 31, "leaf": -0.00192548789}, {"nodeid": 32, "leaf": -0.00415300624}]}, {"nodeid": 16, "depth": 4, "split": "rule_prob_up", "split_condition": 0.47372067, "yes": 33, "no": 34, "missing": 34, "children": [{"nodeid": 33, "leaf": -0.00488752965}, {"nodeid": 34, "leaf": -0.00661741011}]}]}, {"nodeid": 8, "depth": 3, "split": "delta_1m_pct", "split_condition": 0, "yes": 17, "no": 18, "missing": 18, "children": [{"nodeid": 17, "depth": 4, "split": "delta_1m_atr_adj", "split_condition": -0.0155787077, "yes": 35, "no": 36, "missing": 36, "children": [{"nodeid": 35, "leaf": 0.0109767774}, {"nodeid": 36, "leaf": 0.00802358985}]}, {"nodeid": 18, "depth": 4, "split": "multi_tf_agreement", "split_condition": 1, "yes": 37, "no": 38, "missing": 38, "children": [{"nodeid": 37, "leaf": -0.000595904479}, {"nodeid": 38, "leaf": 0.00836440083}]}]}]}, {"nodeid": 4, "depth": 2, "split": "delta_1m_atr_adj", "split_condition": 0.00848903134, "yes": 9, "no": 10, "missing": 10, "children": [{"nodeid": 9, "depth": 3, "split": "rule_prob_up", "split_condition": 0.48306334, "yes": 19, "no": 20, "missing": 20, "children": [{"nodeid": 19, "depth": 4, "split": "rsi_x_regime_conf", "split_condition": 0.364491314, "yes": 39, "no": 40, "missing": 40, "children": [{"nodeid": 39, "leaf": -0.00729158754}, {"nodeid": 40, "leaf": -0.00348434248}]}, {"nodeid": 20, "depth": 4, "split": "vwap_dist", "split_condition": -0.00250112009, "yes": 41, "no": 42, "missing": 42, "children": [{"nodeid": 41, "leaf": -0.00551374769}, {"nodeid": 42, "leaf": -0.00864040386}]}]}, {"nodeid": 10, "depth": 3, "split": "price_position_score", "split_condition": 0.432489246, "yes": 21, "no": 22, "missing": 22, "children": [{"nodeid": 21, "depth": 4, "split": "crowd_model_divergence", "split_condition": 0.00831883959, "yes": 43, "no": 44, "missing": 44, "children": [{"nodeid": 43, "leaf": -0.00596781075}, {"nodeid": 44, "leaf": -0.00946101733}]}, {"nodeid": 22, "depth": 4, "split": "volume_acceleration", "split_condition": 0.153096244, "yes": 45, "no": 46, "missing": 46, "children": [{"nodeid": 45, "leaf": -0.00703032268}, {"nodeid": 46, "leaf": -0.0112201646}]}]}]}]}, {"nodeid": 2, "depth": 1, "split": "delta_1m_pct", "split_condition": 0.000441359996, "yes": 5, "no": 6, "missing": 6, "children": [{"nodeid": 5, "depth": 2, "split": "vol_weighted_momentum", "split_condition": 2.85190108e-05, "yes": 11, "no": 12, "missing": 12, "children": [{"nodeid": 11, "depth": 3, "split": "atr_ratio_norm", "split_condition": 0.240488604, "yes": 23, "no": 24, "missing": 24, "children": [{"nodeid": 23, "depth": 4, "split": "market_yes_price", "split_condition": 0.523373187, "yes": 47, "no": 48, "missing": 48, "children": [{"nodeid": 47, "leaf": 0.0106072584}, {"nodeid": 48, "leaf": 0.00607718155}]}, {"nodeid": 24, "depth": 4, "split": "volatility_change_ratio", "split_condition": 0.101271227, "yes": 49, "no": 50, "missing": 50, "children": [{"nodeid": 49, "leaf": 0.00328840502}, {"nodeid": 50, "leaf": 0.00687164161}]}]}, {"nodeid": 12, "depth": 3, "split": "delta_1m_atr_adj", "split_condition": 0.031046588, "yes": 25, "no": 26, "missing": 26, "children": [{"nodeid": 25, "depth": 4, "split": "vol_buy_x_delta", "split_condition": 0.66533643, "yes": 51, "no": 52, "missing": 52, "children": [{"nodeid": 51, "leaf": 0.00556083769}, {"nodeid": 52, "leaf": 0.00349937449}]}, {"nodeid": 26, "depth": 4, "split": "rule_prob_up", "split_condition": 0.612063766, "yes": 53, "no": 54, "missing": 54, "children": [{"nodeid": 53, "leaf": 0.00540033588}, {"nodeid": 54, "leaf": -0.00210799859}]}]}]}, {"nodeid": 6, "depth": 2, "split": "vol_delta_buy_ratio", "split_condition": 0.481017113, "yes": 13, "no": 14, "missing": 14, "children": [{"nodeid": 13, "depth": 3, "split": "delta_3m_pct", "split_condition": 0.000300309999, "yes": 27, "no": 28, "missing": 28, "children": [{"nodeid": 27, "depth": 4, "split": "delta_1m_pct", "split_condition": 0.000603170018, "yes": 55, "no": 56, "missing": 56, "children": [{"nodeid": 55, "leaf": 0.00712697953}, {"nodeid": 56, "leaf": 0.0049093049}]}, {"nodeid": 28, "depth": 4, "split": "vol_delta_accel", "split_condition": 0.376472682, "yes": 57, "no": 58, "missing": 58, "children": [{"nodeid": 57, "leaf": 0.00166675332}, {"nodeid": 58, "leaf": 0.00441805786}]}]}, {"nodeid": 14, "depth": 3, "split": "delta_1m_atr_adj", "split_condition": 0.0210128147, "yes": 29, "no": 30, "missing": 30, "children": [{"nodeid": 29, "depth": 4, "split": "divergence_x_confidence", "split_condition": 0.000837818254, "yes": 59, "no": 60, "missing": 60, "children": [{"nodeid": 59, "leaf": -0.000820156361}, {"nodeid": 60, "leaf": 0.00384807377}]}, {"nodeid": 30, "depth": 4, "split": "rsi_x_regime_conf", "split_condition": 0.656358421, "yes": 61, "no": 62, "missing": 62, "children": [{"nodeid": 61, "leaf": 0.00232880632}, {"nodeid": 62, "leaf": 0.000231569196}]}]}]}]}]}, {"nodeid": 0, "depth": 0, "split": "delta1m_x_multitf", "split_condition": 1.00000001e-07, "yes": 1, "no": 2, "missing": 2, "children": [{"nodeid": 1, "depth": 1, "split": "delta_1m_pct", "split_condition": 1.00000001e-07, "yes": 3, "no": 4, "missing": 4, "children": [{"nodeid": 3, "depth": 2, "split": "delta1m_x_multitf", "split_condition": 0, "yes": 7, "no": 8, "missing": 8, "children": [{"nodeid": 7, "depth": 3, "split": "delta_1m_capped", "split_condition": -0.000608130009, "yes": 15, "no": 16, "missing": 16, "children": [{"nodeid": 15, "depth": 4, "split": "rsi_norm", "split_condition": 0.175213814, "yes": 31, "no": 32, "missing": 32, "children": [{"nodeid": 31, "leaf": 0.00118431798}, {"nodeid": 32, "leaf": -0.00260990323}]}, {"nodeid": 16, "depth": 4, "split": "delta_1m_pct", "split_condition": -0.000243510003, "yes": 33, "no": 34, "missing": 34, "children": [{"nodeid": 33, "leaf": -0.0048305071}, {"nodeid": 34, "leaf": -0.00639503822}]}]}, {"nodeid": 8, "depth": 3, "split": "delta_1m_pct", "split_condition": 0, "yes": 17, "no": 18, "missing": 18, "children": [{"nodeid": 17, "depth": 4, "split": "delta_1m_atr_adj", "split_condition": -0.0158519801, "yes": 35, "no": 36, "missing": 36, "children": [{"nodeid": 35, "leaf": 0.0109654339}, {"nodeid": 36, "leaf": 0.0079474235}]}, {"nodeid": 18, "depth": 4, "split": "multi_tf_agreement", "split_condition": 1, "yes": 37, "no": 38, "missing": 38, "children": [{"nodeid": 37, "leaf": -0.000750997511}, {"nodeid": 38, "leaf": 0.00942824036}]}]}]}, {"nodeid": 4, "depth": 2, "split": "delta_1m_atr_adj", "split_condition": 0.00772200013, "yes": 9, "no": 10, "missing": 10, "children": [{"nodeid": 9, "depth": 3, "split": "vwap_dist", "split_condition": -0.000960730016, "yes": 19, "no": 20, "missing": 20, "children": [{"nodeid": 19, "depth": 4, "split": "delta_1m_atr_adj", "split_condition": 0.00185230933, "yes": 39, "no": 40, "missing": 40, "children": [{"nodeid": 39, "leaf": -0.00362409558}, {"nodeid": 40, "leaf": -0.0064785853}]}, {"nodeid": 20, "depth": 4, "split": "rsi_x_regime_conf", "split_condition": 0.472189248, "yes": 41, "no": 42, "missing": 42, "children": [{"nodeid": 41, "leaf": -0.00769817829}, {"nodeid": 42, "leaf": -0.00927984249}]}]}, {"nodeid": 10, "depth": 3, "split": "delta_1m_atr_adj", "split_condition": 0.018122647, "yes": 21, "no": 22, "missing": 22, "children": [{"nodeid": 21, "depth": 4, "split": "crowd_model_divergence", "split_condition": 0.00997181982, "yes": 43, "no": 44, "missing": 44, "children": [{"nodeid": 43, "leaf": -0.00635106117}, {"nodeid": 44, "leaf": -0.00970062613}]}, {"nodeid": 22, "depth": 4, "split": "ema_dist_norm", "split_condition": 0.509203374, "yes": 45, "no": 46, "missing": 46, "children": [{"nodeid": 45, "leaf": -0.0100787077}, {"nodeid": 46, "leaf": -0.0122914743}]}]}]}]}, {"nodeid": 2, "depth": 1, "split": "delta_1m_capped", "split_condition": 0.000444150006, "yes": 5, "no": 6, "missing": 6, "children": [{"nodeid": 5, "depth": 2, "split": "delta1m_x_multitf", "split_condition": 0.000102890001, "yes": 11, "no": 12, "missing": 12, "children": [{"nodeid": 11, "depth": 3, "split": "vwap_trend_strength", "split_condition": 0.00277887005, "yes": 23, "no": 24, "missing": 24, "children": [{"nodeid": 23, "depth": 4, "split": "stoch_kd_norm", "split_condition": 0.535801828, "yes": 47, "no": 48, "missing": 48, "children": [{"nodeid": 47, "leaf": 0.00659440737}, {"nodeid": 48, "leaf": 0.00877078436}]}, {"nodeid": 24, "depth": 4, "split": "rsi_divergence", "split_condition": -0.465836763, "yes": 49, "no": 50, "missing": 50, "children": [{"nodeid": 49, "leaf": 0.00152195548}, {"nodeid": 50, "leaf": 0.0054231016}]}]}, {"nodeid": 12, "depth": 3, "split": "combined_oscillator", "split_condition": 0.508892953, "yes": 25, "no": 26, "missing": 26, "children": [{"nodeid": 25, "depth": 4, "split": "rsi_x_regime_conf", "split_condition": 0.196560785, "yes": 51, "no": 52, "missing": 52, "children": [{"nodeid": 51, "leaf": 0.00935892295}, {"nodeid": 52, "leaf": 0.00602099206}]}, {"nodeid": 26, "depth": 4, "split": "vol_momentum_confirm", "split_condition": 0.0477088615, "yes": 53, "no": 54, "missing": 54, "children": [{"nodeid": 53, "leaf": 0.00746100117}, {"nodeid": 54, "leaf": 0.0043434957}]}]}]}, {"nodeid": 6, "depth": 2, "split": "rsi_x_trending", "split_condition": 0.604147732, "yes": 13, "no": 14, "missing": 14, "children": [{"nodeid": 13, "depth": 3, "split": "delta_1m_atr_adj", "split_condition": 0.0136368163, "yes": 27, "no": 28, "missing": 28, "children": [{"nodeid": 27, "depth": 4, "split": "delta_3m_pct", "split_condition": 0.000814740022, "yes": 55, "no": 56, "missing": 56, "children": [{"nodeid": 55, "leaf": 0.00663304422}, {"nodeid": 56, "leaf": 0.00303676096}]}, {"nodeid": 28, "depth": 4, "split": "vol_delta_buy_ratio", "split_condition": 0.482346833, "yes": 57, "no": 58, "missing": 58, "children": [{"nodeid": 57, "leaf": 0.00421501696}, {"nodeid": 58, "leaf": 0.00216535875}]}]}, {"nodeid": 14, "depth": 3, "split": "vwap_slope", "split_condition": -2.38870192, "yes": 29, "no": 30, "missing": 30, "children": [{"nodeid": 29, "leaf": -0.00200767117}, {"nodeid": 30, "depth": 4, "split": "stoch_rsi_extreme", "split_condition": 0.804653764, "yes": 59, "no": 60, "missing": 60, "children": [{"nodeid": 59, "leaf": 0.00158870837}, {"nodeid": 60, "leaf": 0.003438866}]}]}]}]}]}, {"nodeid": 0, "depth": 0, "split": "delta1m_x_multitf", "split_condition": 1.00000001e-07, "yes": 1, "no": 2, "missing": 2, "children": [{"nodeid": 1, "depth": 1, "split": "delta_1m_pct", "split_condition": 1.00000001e-07, "yes": 3, "no": 4, "missing": 4, "children": [{"nodeid": 3, "depth": 2, "split": "delta1m_x_multitf", "split_condition": 0, "yes": 7, "no": 8, "missing": 8, "children": [{"nodeid": 7, "depth": 3, "split": "delta_1m_pct", "split_condition": -0.000602880027, "yes": 15, "no": 16, "missing": 16, "children": [{"nodeid": 15, "depth": 4, "split": "oscillator_extreme", "split_condition": 0.118180096, "yes": 31, "no": 32, "missing": 32, "children": [{"nodeid": 31, "leaf": -0.00274791056}, {"nodeid": 32, "leaf": 0.00118574093}]}, {"nodeid": 16, "depth": 4, "split": "rule_prob_up", "split_condition": 0.47372067, "yes": 33, "no": 34, "missing": 34, "children": [{"nodeid": 33, "leaf": -0.00470492058}, {"nodeid": 34, "leaf": -0.0065888036}]}]}, {"nodeid": 8, "depth": 3, "split": "delta_1m_pct", "split_condition": 0, "yes": 17, "no": 18, "missing": 18, "children": [{"nodeid": 17, "depth": 4, "split": "delta_1m_pct", "split_condition": -0.000461660005, "yes": 35, "no": 36, "missing": 36, "children": [{"nodeid": 35, "leaf": 0.0101652015}, {"nodeid": 36, "leaf": 0.00808490533}]}, {"nodeid": 18, "depth": 4, "split": "multi_tf_agreement", "split_condition": 1, "yes": 37, "no": 38, "missing": 38, "children": [{"nodeid": 37, "leaf": -0.000841720321}, {"nodeid": 38, "leaf": 0.00775076682}]}]}]}, {"nodeid": 4, "depth": 2, "split": "vwap_dist", "split_condition": -0.000685230014, "yes": 9, "no": 10, "missing": 10, "children": [{"nodeid": 9, "depth": 3, "split": "rsi_slope", "split_condition": -1.14772677, "yes": 19, "no": 20, "missing": 20, "children": [{"nodeid": 19, "depth": 4, "split": "rsi_x_trending", "split_condition": 0.3271541, "yes": 39, "no": 40, "missing": 40, "children": [{"nodeid": 39, "leaf": -0.00658468343}, {"nodeid": 40, "leaf": -0.00277499994}]}, {"nodeid": 20, "depth": 4, "split": "vol_weighted_momentum", "split_condition": 3.63054714e-05, "yes": 41, "no": 42, "missing": 42, "children": [{"nodeid": 41, "leaf": -0.00666642189}, {"nodeid": 42, "leaf": -0.0086804796}]}]}, {"nodeid": 10, "depth": 3, "split": "delta_1m_capped", "split_condition": 0.000160049996, "yes": 21, "no": 22, "missing": 22, "children": [{"nodeid": 21, "depth": 4, "split": "bb_width", "split_condition": 0.00539691979, "yes": 43, "no": 44, "missing": 44, "children": [{"nodeid": 43, "leaf": -0.00891203713}, {"nodeid": 44, "leaf": -0.0051612854}]}, {"nodeid": 22, "depth": 4, "split": "atr_pct_norm", "split_condition": 0.0197967198, "yes": 45, "no": 46, "missing": 46, "children": [{"nodeid": 45, "leaf": -0.0114089539}, {"nodeid": 46, "leaf": -0.0096140448}]}]}]}]}, {"nodeid": 2, "depth": 1, "split": "delta_1m_pct", "split_condition": 0.000423810008, "yes": 5, "no": 6, "missing": 6, "children": [{"nodeid": 5, "depth": 2, "split": "vol_weighted_momentum", "split_condition": 3.04685418e-05, "yes": 11, "no": 12, "missing": 12, "children": [{"nodeid": 11, "depth": 3, "split": "vwap_trend_strength", "split_condition": 0.00277887005, "yes": 23, "no": 24, "missing": 24, "children": [{"nodeid": 23, "depth": 4, "split": "best_edge", "split_condition": 0.0466863699, "yes": 47, "no": 48, "missing": 48, "children": [{"nodeid": 47, "leaf": 0.00676588155}, {"nodeid": 48, "leaf": 0.00976522174}]}, {"nodeid": 24, "depth": 4, "split": "vol_weighted_momentum", "split_condition": 1.9769479e-05, "yes": 49, "no": 50, "missing": 50, "children": [{"nodeid": 49, "leaf": 0.00263473671}, {"nodeid": 50, "leaf": 0.00742600486}]}]}, {"nodeid": 12, "depth": 3, "split": "rsi_x_regime_conf", "split_condition": 0.39805162, "yes": 25, "no": 26, "missing": 26, "children": [{"nodeid": 25, "depth": 4, "split": "macd_x_rsi_slope", "split_condition": -1.48500335, "yes": 51, "no": 52, "missing": 52, "children": [{"nodeid": 51, "leaf": 0.00695015583}, {"nodeid": 52, "leaf": 0.0048671253}]}, {"nodeid": 26, "depth": 4, "split": "vol_ratio_norm", "split_condition": 0.184713185, "yes": 53, "no": 54, "missing": 54, "children": [{"nodeid": 53, "leaf": 0.00307910331}, {"nodeid": 54, "leaf": 0.00513781095}]}]}]}, {"nodeid": 6, "depth": 2, "split": "vwap_slope", "split_condition": 3.64682961, "yes": 13, "no": 14, "missing": 14, "children": [{"nodeid": 13, "depth": 3, "split": "orderbook_imbalance", "split_condition": 0.388076782, "yes": 27, "no": 28, "missing": 28, "children": [{"nodeid": 27, "depth": 4, "split": "stoch_kd_norm", "split_condition": 0.577942669, "yes": 55, "no": 56, "missing": 56, "children": [{"nodeid": 55, "leaf": 0.00463286508}, {"nodeid": 56, "leaf": 0.00318374368}]}, {"nodeid": 28, "depth": 4, "split": "volume_acceleration", "split_condition": 0.32095331, "yes": 57, "no": 58, "missing": 58, "children": [{"nodeid": 57, "leaf": -0.00181213778}, {"nodeid": 58, "leaf": 0.00254525454}]}]}, {"nodeid": 14, "depth": 3, "split": "vwap_slope", "split_condition": 8.52327156, "yes": 29, "no": 30, "missing": 30, "children": [{"nodeid": 29, "depth": 4, "split": "volatility_change_ratio", "split_condition": 0.339015841, "yes": 59, "no": 60, "missing": 60, "children": [{"nodeid": 59, "leaf": 0.0017928622}, {"nodeid": 60, "leaf": -0.00196410343}]}, {"nodeid": 30, "depth": 4, "split": "vwap_slope", "split_condition": 10.0240526, "yes": 61, "no": 62, "missing": 62, "children": [{"nodeid": 61, "leaf": 0.00673931418}, {"nodeid": 62, "leaf": 0.00212130044}]}]}]}]}]}, {"nodeid": 0, "depth": 0, "split": "delta1m_x_multitf", "split_condition": 1.00000001e-07, "yes": 1, "no": 2, "missing": 2, "children": [{"nodeid": 1, "depth": 1, "split": "delta_1m_capped", "split_condition": 1.00000001e-07, "yes": 3, "no": 4, "missing": 4, "children": [{"nodeid": 3, "depth": 2, "split": "delta1m_x_multitf", "split_condition": 0, "yes": 7, "no": 8, "missing": 8, "children": [{"nodeid": 7, "depth": 3, "split": "delta_1m_capped", "split_condition": -0.000403579994, "yes": 15, "no": 16, "missing": 16, "children": [{"nodeid": 15, "depth": 4, "split": "ha_signed_consec", "split_condition": 0.0666666701, "yes": 31, "no": 32, "missing": 32, "children": [{"nodeid": 31, "leaf": -0.00238662539}, {"nodeid": 32, "leaf": -0.00442921929}]}, {"nodeid": 16, "depth": 4, "split": "rule_prob_up", "split_condition": 0.472034335, "yes": 33, "no": 34, "missing": 34, "children": [{"nodeid": 33, "leaf": -0.00513936253}, {"nodeid": 34, "leaf": -0.00668263948}]}]}, {"nodeid": 8, "depth": 3, "split": "delta_1m_capped", "split_condition": 0, "yes": 17, "no": 18, "missing": 18, "children": [{"nodeid": 17, "depth": 4, "split": "delta_1m_atr_adj", "split_condition": -0.0158519801, "yes": 35, "no": 36, "missing": 36, "children": [{"nodeid": 35, "leaf": 0.0108507918}, {"nodeid": 36, "leaf": 0.00788408983}]}, {"nodeid": 18, "depth": 4, "split": "multi_tf_agreement", "split_condition": 1, "yes": 37, "no": 38, "missing": 38, "children": [{"nodeid": 37, "leaf": -0.000594258308}, {"nodeid": 38, "leaf": 0.0101186996}]}]}]}, {"nodeid": 4, "depth": 2, "split": "delta_1m_atr_adj", "split_condition": 0.0169708338, "yes": 9, "no": 10, "missing": 10, "children": [{"nodeid": 9, "depth": 3, "split": "vwap_dist", "split_condition": -0.000685230014, "yes": 19, "no": 20, "missing": 20, "children": [{"nodeid": 19, "depth": 4, "split": "delta_3m_pct", "split_condition": -0.000189719998, "yes": 39, "no": 40, "missing": 40, "children": [{"nodeid": 39, "leaf": -0.00540761184}, {"nodeid": 40, "leaf": -0.00756836589}]}, {"nodeid": 20, "depth": 4, "split": "stoch_k_norm", "split_condition": 0.0338796303, "yes": 41, "no": 42, "missing": 42, "children": [{"nodeid": 41, "leaf": -0.00539159775}, {"nodeid": 42, "leaf": -0.00891179498}]}]}, {"nodeid": 10, "depth": 3, "split": "market_yes_price", "split_condition": 0.530986965, "yes": 21, "no": 22, "missing": 22, "children": [{"nodeid": 21, "depth": 4, "split": "vol_ratio_norm", "split_condition": 0.0969150588, "yes": 43, "no": 44, "missing": 44, "children": [{"nodeid": 43, "leaf": -0.00602784939}, {"nodeid": 44, "leaf": -0.0104007581}]}, {"nodeid": 22, "leaf": -0.0120250853}]}]}]}, {"nodeid": 2, "depth": 1, "split": "delta1m_x_multitf", "split_condition": 0.000421130011, "yes": 5, "no": 6, "missing": 6, "children": [{"nodeid": 5, "depth": 2, "split": "delta_1m_capped", "split_condition": 0.000132789995, "yes": 11, "no": 12, "missing": 12, "children": [{"nodeid": 11, "depth": 3, "split": "macd_hist", "split_condition": -9.22672462, "yes": 23, "no": 24, "missing": 24, "children": [{"nodeid": 23, "depth": 4, "split": "delta_3m_pct", "split_condition": -0.000473610009, "yes": 45, "no": 46, "missing": 46, "children": [{"nodeid": 45, "leaf": 0.00616314122}, {"nodeid": 46, "leaf": 0.00143329019}]}, {"nodeid": 24, "depth": 4, "split": "ptb_dist_pct", "split_condition": -0.00272067008, "yes": 47, "no": 48, "missing": 48, "children": [{"nodeid": 47, "leaf": 0.0020961205}, {"nodeid": 48, "leaf": 0.00720345322}]}]}, {"nodeid": 12, "depth": 3, "split": "vol_delta_buy_ratio", "split_condition": 0.498008847, "yes": 25, "no": 26, "missing": 26, "children": [{"nodeid": 25, "depth": 4, "split": "vol_delta_accel", "split_condition": 0.32310015, "yes": 49, "no": 50, "missing": 50, "children": [{"nodeid": 49, "leaf": 0.00447687833}, {"nodeid": 50, "leaf": 0.00625186972}]}, {"nodeid": 26, "depth": 4, "split": "vol_delta_accel", "split_condition": 0.607599556, "yes": 51, "no": 52, "missing": 52, "children": [{"nodeid": 51, "leaf": 0.00354617485}, {"nodeid": 52, "leaf": 0.00545653654}]}]}]}, {"nodeid": 6, "depth": 2, "split": "rsi_x_trending", "split_condition": 0.602046967, "yes": 13, "no": 14, "missing": 14, "children": [{"nodeid": 13, "depth": 3, "split": "delta_1m_atr_adj", "split_condition": 0.0136368163, "yes": 27, "no": 28, "missing": 28, "children": [{"nodeid": 27, "depth": 4, "split": "stoch_rsi_extreme", "split_condition": 0.854975581, "yes": 53, "no": 54, "missing": 54, "children": [{"nodeid": 53, "leaf": 0.00585940294}, {"nodeid": 54, "leaf": 0.00126183184}]}, {"nodeid": 28, "depth": 4, "split": "best_edge", "split_condition": 0.00426033, "yes": 55, "no": 56, "missing": 56, "children": [{"nodeid": 55, "leaf": 0.000525941898}, {"nodeid": 56, "leaf": 0.00386933121}]}]}, {"nodeid": 14, "depth": 3, "split": "volatility_change_ratio", "split_condition": 0.315823942, "yes": 29, "no": 30, "missing": 30, "children": [{"nodeid": 29, "depth": 4, "split": "bb_percent_b", "split_condition": 1.13769972, "yes": 57, "no": 58, "missing": 58, "children": [{"nodeid": 57, "leaf": 0.00355722546}, {"nodeid": 58, "leaf": -0.00203938177}]}, {"nodeid": 30, "depth": 4, "split": "minutes_left_norm", "split_condition": 0.666666687, "yes": 59, "no": 60, "missing": 60, "children": [{"nodeid": 59, "leaf": 0.000108634682}, {"nodeid": 60, "leaf": 0.0035976409}]}]}]}]}]}, {"nodeid": 0, "depth": 0, "split": "delta1m_x_multitf", "split_condition": 1.00000001e-07, "yes": 1, "no": 2, "missing": 2, "children": [{"nodeid": 1, "depth": 1, "split": "delta_1m_capped", "split_condition": 1.00000001e-07, "yes": 3, "no": 4, "missing": 4, "children": [{"nodeid": 3, "depth": 2, "split": "delta1m_x_multitf", "split_condition": 0, "yes": 7, "no": 8, "missing": 8, "children": [{"nodeid": 7, "depth": 3, "split": "delta1m_x_multitf", "split_condition": -0.000603479974, "yes": 15, "no": 16, "missing": 16, "children": [{"nodeid": 15, "depth": 4, "split": "rsi_divergence", "split_condition": -0.298395932, "yes": 31, "no": 32, "missing": 32, "children": [{"nodeid": 31, "leaf": -0.00215896685}, {"nodeid": 32, "leaf": -0.00416077441}]}, {"nodeid": 16, "depth": 4, "split": "delta_1m_capped", "split_condition": -0.000201930001, "yes": 33, "no": 34, "missing": 34, "children": [{"nodeid": 33, "leaf": -0.00465115951}, {"nodeid": 34, "leaf": -0.00629678974}]}]}, {"nodeid": 8, "depth": 3, "split": "delta_1m_capped", "split_condition": 0, "yes": 17, "no": 18, "missing": 18, "children": [{"nodeid": 17, "depth": 4, "split": "delta_1m_atr_adj", "split_condition": -0.0158519801, "yes": 35, "no": 36, "missing": 36, "children": [{"nodeid": 35, "leaf": 0.0107042314}, {"nodeid": 36, "leaf": 0.00779566495}]}, {"nodeid": 18, "depth": 4, "split": "multi_tf_agreement", "split_condition": 1, "yes": 37, "no": 38, "missing": 38, "children": [{"nodeid": 37, "leaf": -0.000394157862}, {"nodeid": 38, "leaf": 0.00914448313}]}]}]}, {"nodeid": 4, "depth": 2, "split": "delta_1m_atr_adj", "split_condition": 0.018122647, "yes": 9, "no": 10, "missing": 10, "children": [{"nodeid": 9, "depth": 3, "split": "vwap_dist", "split_condition": -0.000685230014, "yes": 19, "no": 20, "missing": 20, "children": [{"nodeid": 19, "depth": 4, "split": "delta_3m_pct", "split_condition": -0.000221819995, "yes": 39, "no": 40, "missing": 40, "children": [{"nodeid": 39, "leaf": -0.00548542244}, {"nodeid": 40, "leaf": -0.00767193548}]}, {"nodeid": 20, "depth": 4, "split": "stoch_k_norm", "split_condition": 0.0338796303, "yes": 41, "no": 42, "missing": 42, "children": [{"nodeid": 41, "leaf": -0.00579927815}, {"nodeid": 42, "leaf": -0.00904403348}]}]}, {"nodeid": 10, "depth": 3, "split": "rsi_x_regime_conf", "split_condition": 0.297566563, "yes": 21, "no": 22, "missing": 22, "children": [{"nodeid": 21, "depth": 4, "split": "divergence_x_confidence", "split_condition": 0.0102077415, "yes": 43, "no": 44, "missing": 44, "children": [{"nodeid": 43, "leaf": -0.0108913267}, {"nodeid": 44, "leaf": -0.00466073025}]}, {"nodeid": 22, "depth": 4, "split": "vol_ratio_norm", "split_condition": 0.129392982, "yes": 45, "no": 46, "missing": 46, "children": [{"nodeid": 45, "leaf": -0.00979295187}, {"nodeid": 46, "leaf": -0.0118792122}]}]}]}]}, {"nodeid": 2, "depth": 1, "split": "delta1m_x_multitf", "split_condition": 0.000421130011, "yes": 5, "no": 6, "missing": 6, "children": [{"nodeid": 5, "depth": 2, "split": "vol_weighted_momentum", "split_condition": 3.04685418e-05, "yes": 11, "no": 12, "missing": 12, "children": [{"nodeid": 11, "depth": 3, "split": "divergence_x_confidence", "split_condition": 0.038391415, "yes": 23, "no": 24, "missing": 24, "children": [{"nodeid": 23, "depth": 4, "split": "divergence_x_confidence", "split_condition": 0.0306882933, "yes": 47, "no": 48, "missing": 48, "children": [{"nodeid": 47, "leaf": 0.00669419486}, {"nodeid": 48, "leaf": 0.00367392832}]}, {"nodeid": 24, "depth": 4, "split": "stoch_rsi_extreme", "split_condition": 0.0506746769, "yes": 49, "no": 50, "missing": 50, "children": [{"nodeid": 49, "leaf": 0.00654950086}, {"nodeid": 50, "leaf": 0.011143161}]}]}, {"nodeid": 12, "depth": 3, "split": "market_yes_price", "split_condition": 0.483413935, "yes": 25, "no": 26, "missing": 26, "children": [{"nodeid": 25, "depth": 4, "split": "volatility_change_ratio", "split_condition": 0.365545362, "yes": 51, "no": 52, "missing": 52, "children": [{"nodeid": 51, "leaf": 0.00546371238}, {"nodeid": 52, "leaf": 0.00794043113}]}, {"nodeid": 26, "depth": 4, "split": "rsi_divergence", "split_condition": -6.80532408, "yes": 53, "no": 54, "missing": 54, "children": [{"nodeid": 53, "leaf": -0.00118598808}, {"nodeid": 54, "leaf": 0.00455663726}]}]}]}, {"nodeid": 6, "depth": 2, "split": "rsi_norm", "split_condition": 0.605402708, "yes": 13, "no": 14, "missing": 14, "children": [{"nodeid": 13, "depth": 3, "split": "delta_1m_atr_adj", "split_condition": 0.0217883401, "yes": 27, "no": 28, "missing": 28, "children": [{"nodeid": 27, "depth": 4, "split": "rsi_x_regime_conf", "split_condition": 0.308841616, "yes": 55, "no": 56, "missing": 56, "children": [{"nodeid": 55, "leaf": 0.0066595301}, {"nodeid": 56, "leaf": 0.00443089195}]}, {"nodeid": 28, "depth": 4, "split": "vwap_dist", "split_condition": 0.0022259301, "yes": 57, "no": 58, "missing": 58, "children": [{"nodeid": 57, "leaf": 0.00368813844}, {"nodeid": 58, "leaf": -0.00140517531}]}]}, {"nodeid": 14, "depth": 3, "split": "stoch_k_norm", "split_condition": 0.983246744, "yes": 29, "no": 30, "missing": 30, "children": [{"nodeid": 29, "depth": 4, "split": "market_price_momentum", "split_condition": 0.000960370002, "yes": 59, "no": 60, "missing": 60, "children": [{"nodeid": 59, "leaf": 0.00230698171}, {"nodeid": 60, "leaf": -0.000560226385}]}, {"nodeid": 30, "depth": 4, "split": "hour_cos", "split_condition": 0.195090324, "yes": 61, "no": 62, "missing": 62, "children": [{"nodeid": 61, "leaf": 0.00228732731}, {"nodeid": 62, "leaf": 0.00616241433}]}]}]}]}]}, {"nodeid": 0, "depth": 0, "split": "delta1m_x_multitf", "split_condition": 1.00000001e-07, "yes": 1, "no": 2, "missing": 2, "children": [{"nodeid": 1, "depth": 1, "split": "delta_1m_capped", "split_condition": 1.00000001e-07, "yes": 3, "no": 4, "missing": 4, "children": [{"nodeid": 3, "depth": 2, "split": "delta1m_x_multitf", "split_condition": 0, "yes": 7, "no": 8, "missing": 8, "children": [{"nodeid": 7, "depth": 3, "split": "delta_1m_capped", "split_condition": -0.000595560006, "yes": 15, "no": 16, "missing": 16, "children": [{"nodeid": 15, "depth": 4, "split": "oscillator_extreme", "split_condition": 0.119485021, "yes": 31, "no": 32, "missing": 32, "children": [{"nodeid": 31, "leaf": -0.00260780216}, {"nodeid": 32, "leaf": 0.00122599199}]}, {"nodeid": 16, "depth": 4, "split": "rule_prob_up", "split_condition": 0.47372067, "yes": 33, "no": 34, "missing": 34, "children": [{"nodeid": 33, "leaf": -0.00463312957}, {"nodeid": 34, "leaf": -0.00637338124}]}]}, {"nodeid": 8, "depth": 3, "split": "delta_1m_capped", "split_condition": 0, "yes": 17, "no": 18, "missing": 18, "children": [{"nodeid": 17, "depth": 4, "split": "delta_1m_atr_adj", "split_condition": -0.0158519801, "yes": 35, "no": 36, "missing": 36, "children": [{"nodeid": 35, "leaf": 0.0105248215}, {"nodeid": 36, "leaf": 0.00771956751}]}, {"nodeid": 18, "depth": 4, "split": "multi_tf_agreement", "split_condition": 1, "yes": 37, "no": 38, "missing": 38, "children": [{"nodeid": 37, "leaf": -0.00102156121}, {"nodeid": 38, "leaf": 0.00878669508}]}]}]}, {"nodeid": 4, "depth": 2, "split": "delta_1m_atr_adj", "split_condition": 0.0169708338, "yes": 9, "no": 10, "missing": 10, "children": [{"nodeid": 9, "depth": 3, "split": "vwap_dist", "split_condition": -0.000685230014, "yes": 19, "no": 20, "missing": 20, "children": [{"nodeid": 19, "depth": 4, "split": "rsi_slope", "split_condition": -1.18205333, "yes": 39, "no": 40, "missing": 40, "children": [{"nodeid": 39, "leaf": -0.00317303604}, {"nodeid": 40, "leaf": -0.00685782265}]}, {"nodeid": 20, "depth": 4, "split": "delta_1m_atr_adj", "split_condition": 0.00663832854, "yes": 41, "no": 42, "missing": 42, "children": [{"nodeid": 41, "leaf": -0.00803397316}, {"nodeid": 42, "leaf": -0.00945673045}]}]}, {"nodeid": 10, "depth": 3, "split": "rsi_x_regime_conf", "split_condition": 0.467188001, "yes": 21, "no": 22, "missing": 22, "children": [{"nodeid": 21, "depth": 4, "split": "divergence_x_confidence", "split_condition": 0.00716427341, "yes": 43, "no": 44, "missing": 44, "children": [{"nodeid": 43, "leaf": -0.0112325856}, {"nodeid": 44, "leaf": -0.00888962205}]}, {"nodeid": 22, "leaf": -0.0119487233}]}]}]}, {"nodeid": 2, "depth": 1, "split": "delta_1m_capped", "split_condition": 0.000491440005, "yes": 5, "no": 6, "missing": 6, "children": [{"nodeid": 5, "depth": 2, "split": "delta1m_x_multitf", "split_condition": 0.000131089997, "yes": 11, "no": 12, "missing": 12, "children": [{"nodeid": 11, "depth": 3, "split": "vwap_trend_strength", "split_condition": 0.00214320002, "yes": 23, "no": 24, "missing": 24, "children": [{"nodeid": 23, "depth": 4, "split": "vol_momentum_confirm", "split_condition": 0.0512369797, "yes": 45, "no": 46, "missing": 46, "children": [{"nodeid": 45, "leaf": 0.00929455552}, {"nodeid": 46, "leaf": 0.00688650645}]}, {"nodeid": 24, "depth": 4, "split": "rsi_divergence", "split_condition": -0.227989286, "yes": 47, "no": 48, "missing": 48, "children": [{"nodeid": 47, "leaf": 0.00348858093}, {"nodeid": 48, "leaf": 0.00746295601}]}]}, {"nodeid": 12, "depth": 3, "split": "rsi_norm", "split_condition": 0.569287777, "yes": 25, "no": 26, "missing": 26, "children": [{"nodeid": 25, "depth": 4, "split": "macd_line", "split_condition": 18.9838371, "yes": 49, "no": 50, "missing": 50, "children": [{"nodeid": 49, "leaf": 0.00581870694}, {"nodeid": 50, "leaf": 0.00155260868}]}, {"nodeid": 26, "depth": 4, "split": "volatility_change_ratio", "split_condition": 0.190766349, "yes": 51, "no": 52, "missing": 52, "children": [{"nodeid": 51, "leaf": 0.00577126862}, {"nodeid": 52, "leaf": 0.00360341556}]}]}]}, {"nodeid": 6, "depth": 2, "split": "market_yes_price", "split_condition": 0.508681774, "yes": 13, "no": 14, "missing": 14, "children": [{"nodeid": 13, "depth": 3, "split": "vol_buy_x_delta", "split_condition": 0.480280727, "yes": 27, "no": 28, "missing": 28, "children": [{"nodeid": 27, "depth": 4, "split": "vol_delta_accel", "split_condition": 0.295762569, "yes": 53, "no": 54, "missing": 54, "children": [{"nodeid": 53, "leaf": 0.00164483383}, {"nodeid": 54, "leaf": 0.00519102113}]}, {"nodeid": 28, "depth": 4, "split": "delta1m_x_multitf", "split_condition": 0.000787629979, "yes": 55, "no": 56, "missing": 56, "children": [{"nodeid": 55, "leaf": 0.00443064468}, {"nodeid": 56, "leaf": 0.00122853857}]}]}, {"nodeid": 14, "depth": 3, "split": "delta_1m_atr_adj", "split_condition": 0.00848903134, "yes": 29, "no": 30, "missing": 30, "children": [{"nodeid": 29, "leaf": 0.00612695934}, {"nodeid": 30, "depth": 4, "split": "vwap_trend_strength", "split_condition": 0.00456633, "yes": 57, "no": 58, "missing": 58, "children": [{"nodeid": 57, "leaf": 0.002299099}, {"nodeid": 58, "leaf": 0.000542331312}]}]}]}]}]}, {"nodeid": 0, "depth": 0, "split": "delta1m_x_multitf", "split_condition": 1.00000001e-07, "yes": 1, "no": 2, "missing": 2, "children": [{"nodeid": 1, "depth": 1, "split": "delta_1m_pct", "split_condition": 1.00000001e-07, "yes": 3, "no": 4, "missing": 4, "children": [{"nodeid": 3, "depth": 2, "split": "delta1m_x_multitf", "split_condition": 0, "yes": 7, "no": 8, "missing": 8, "children": [{"nodeid": 7, "depth": 3, "split": "delta_1m_pct", "split_condition": -0.00059037999, "yes": 15, "no": 16, "missing": 16, "children": [{"nodeid": 15, "depth": 4, "split": "imbalance_x_vol_delta", "split_condition": -0.0554791167, "yes": 31, "no": 32, "missing": 32, "children": [{"nodeid": 31, "leaf": -0.0012660668}, {"nodeid": 32, "leaf": -0.00319818547}]}, {"nodeid": 16, "depth": 4, "split": "rule_prob_up", "split_condition": 0.472034335, "yes": 33, "no": 34, "missing": 34, "children": [{"nodeid": 33, "leaf": -0.00465815328}, {"nodeid": 34, "leaf": -0.00629092613}]}]}, {"nodeid": 8, "depth": 3, "split": "delta_1m_pct", "split_condition": 0, "yes": 17, "no": 18, "missing": 18, "children": [{"nodeid": 17, "depth": 4, "split": "delta_1m_atr_adj", "split_condition": -0.0153020052, "yes": 35, "no": 36, "missing": 36, "children": [{"nodeid": 35, "leaf": 0.010693253}, {"nodeid": 36, "leaf": 0.00761272898}]}, {"nodeid": 18, "depth": 4, "split": "multi_tf_agreement", "split_condition": 1, "yes": 37, "no": 38, "missing": 38, "children": [{"nodeid": 37, "leaf": -0.000688832195}, {"nodeid": 38, "leaf": 0.00941005256}]}]}]}, {"nodeid": 4, "depth": 2, "split": "delta_1m_atr_adj", "split_condition": 0.0169708338, "yes": 9, "no": 10, "missing": 10, "children": [{"nodeid": 9, "depth": 3, "split": "vwap_dist", "split_condition": -0.00143522001, "yes": 19, "no": 20, "missing": 20, "children": [{"nodeid": 19, "depth": 4, "split": "minutes_left_norm", "split_condition": 0.866666675, "yes": 39, "no": 40, "missing": 40, "children": [{"nodeid": 39, "leaf": -0.0067294077}, {"nodeid": 40, "leaf": -0.00301469536}]}, {"nodeid": 20, "depth": 4, "split": "delta_1m_atr_adj", "split_condition": 0.00663832854, "yes": 41, "no": 42, "missing": 42, "children": [{"nodeid": 41, "leaf": -0.00788715947}, {"nodeid": 42, "leaf": -0.00909172371}]}]}, {"nodeid": 10, "depth": 3, "split": "rsi_x_trending", "split_condition": 0.477811188, "yes": 21, "no": 22, "missing": 22, "children": [{"nodeid": 21, "depth": 4, "split": "bb_squeeze_intensity", "split_condition": 0.320475489, "yes": 43, "no": 44, "missing": 44, "children": [{"nodeid": 43, "leaf": -0.0108102914}, {"nodeid": 44, "leaf": -0.0081927944}]}, {"nodeid": 22, "leaf": -0.0118992245}]}]}]}, {"nodeid": 2, "depth": 1, "split": "delta1m_x_multitf", "split_condition": 0.000421130011, "yes": 5, "no": 6, "missing": 6, "children": [{"nodeid": 5, "depth": 2, "split": "delta_1m_pct", "split_condition": 0.000134799993, "yes": 11, "no": 12, "missing": 12, "children": [{"nodeid": 11, "depth": 3, "split": "divergence_x_confidence", "split_condition": 0.0389156491, "yes": 23, "no": 24, "missing": 24, "children": [{"nodeid": 23, "depth": 4, "split": "divergence_x_confidence", "split_condition": 0.0133038983, "yes": 45, "no": 46, "missing": 46, "children": [{"nodeid": 45, "leaf": 0.00706185354}, {"nodeid": 46, "leaf": 0.005166749}]}, {"nodeid": 24, "leaf": 0.0098883016}]}, {"nodeid": 12, "depth": 3, "split": "bb_percent_b", "split_condition": 0.572934687, "yes": 25, "no": 26, "missing": 26, "children": [{"nodeid": 25, "depth": 4, "split": "delta_1m_atr_adj", "split_condition": 0.00948541332, "yes": 47, "no": 48, "missing": 48, "children": [{"nodeid": 47, "leaf": 0.00497427722}, {"nodeid": 48, "leaf": 0.00672277901}]}, {"nodeid": 26, "depth": 4, "split": "volatility_change_ratio", "split_condition": 0.201758116, "yes": 49, "no": 50, "missing": 50, "children": [{"nodeid": 49, "leaf": 0.00614885287}, {"nodeid": 50, "leaf": 0.00374731165}]}]}]}, {"nodeid": 6, "depth": 2, "split": "rsi_x_trending", "split_condition": 0.647253454, "yes": 13, "no": 14, "missing": 14, "children": [{"nodeid": 13, "depth": 3, "split": "volatility_change_ratio", "split_condition": 0.228564233, "yes": 27, "no": 28, "missing": 28, "children": [{"nodeid": 27, "depth": 4, "split": "momentum_accel", "split_condition": 0.000174356668, "yes": 51, "no": 52, "missing": 52, "children": [{"nodeid": 51, "leaf": 0.00211286056}, {"nodeid": 52, "leaf": 0.00600532861}]}, {"nodeid": 28, "depth": 4, "split": "vol_delta_buy_ratio", "split_condition": 0.693998873, "yes": 53, "no": 54, "missing": 54, "children": [{"nodeid": 53, "leaf": 0.00348977931}, {"nodeid": 54, "leaf": -0.00133872847}]}]}, {"nodeid": 14, "depth": 3, "split": "stoch_rsi_extreme", "split_condition": 0.594063401, "yes": 29, "no": 30, "missing": 30, "children": [{"nodeid": 29, "depth": 4, "split": "bb_percent_b", "split_condition": 0.818731546, "yes": 55, "no": 56, "missing": 56, "children": [{"nodeid": 55, "leaf": 0.00399406999}, {"nodeid": 56, "leaf": 0.000224559873}]}, {"nodeid": 30, "depth": 4, "split": "momentum_accel", "split_condition": 0.000237819972, "yes": 57, "no": 58, "missing": 58, "children": [{"nodeid": 57, "leaf": 0.00440524612}, {"nodeid": 58, "leaf": 0.00196155929}]}]}]}]}]}, {"nodeid": 0, "depth": 0, "split": "delta1m_x_multitf", "split_condition": 1.00000001e-07, "yes": 1, "no": 2, "missing": 2, "children": [{"nodeid": 1, "depth": 1, "split": "delta_1m_pct", "split_condition": 1.00000001e-07, "yes": 3, "no": 4, "missing": 4, "children": [{"nodeid": 3, "depth": 2, "split": "delta1m_x_multitf", "split_condition": 0, "yes": 7, "no": 8, "missing": 8, "children": [{"nodeid": 7, "depth": 3, "split": "delta_1m_pct", "split_condition": -0.000423910009, "yes": 15, "no": 16, "missing": 16, "children": [{"nodeid": 15, "depth": 4, "split": "bb_percent_b", "split_condition": 0.200250223, "yes": 31, "no": 32, "missing": 32, "children": [{"nodeid": 31, "leaf": -0.00171131478}, {"nodeid": 32, "leaf": -0.00338423834}]}, {"nodeid": 16, "depth": 4, "split": "delta_1m_pct", "split_condition": -0.000243510003, "yes": 33, "no": 34, "missing": 34, "children": [{"nodeid": 33, "leaf": -0.00448629959}, {"nodeid": 34, "leaf": -0.00606733141}]}]}, {"nodeid": 8, "depth": 3, "split": "delta_1m_pct", "split_condition": 0, "yes": 17, "no": 18, "missing": 18, "children": [{"nodeid": 17, "depth": 4, "split": "delta_1m_atr_adj", "split_condition": -0.0158519801, "yes": 35, "no": 36, "missing": 36, "children": [{"nodeid": 35, "leaf": 0.0104519418}, {"nodeid": 36, "leaf": 0.00769101456}]}, {"nodeid": 18, "depth": 4, "split": "multi_tf_agreement", "split_condition": 1, "yes": 37, "no": 38, "missing": 38, "children": [{"nodeid": 37, "leaf": -0.0011134434}, {"nodeid": 38, "leaf": 0.00911848061}]}]}]}, {"nodeid": 4, "depth": 2, "split": "delta_1m_atr_adj", "split_condition": 0.00848903134, "yes": 9, "no": 10, "missing": 10, "children": [{"nodeid": 9, "depth": 3, "split": "rule_prob_up", "split_condition": 0.50413841, "yes": 19, "no": 20, "missing": 20, "children": [{"nodeid": 19, "depth": 4, "split": "stoch_k_norm", "split_condition": 0.317385495, "yes": 39, "no": 40, "missing": 40, "children": [{"nodeid": 39, "leaf": -0.00694078812}, {"nodeid": 40, "leaf": -0.00441058539}]}, {"nodeid": 20, "depth": 4, "split": "minutes_left_norm", "split_condition": 0.333333343, "yes": 41, "no": 42, "missing": 42, "children": [{"nodeid": 41, "leaf": -0.0067573837}, {"nodeid": 42, "leaf": -0.00871335063}]}]}, {"nodeid": 10, "depth": 3, "split": "delta_1m_atr_adj", "split_condition": 0.018122647, "yes": 21, "no": 22, "missing": 22, "children": [{"nodeid": 21, "depth": 4, "split": "vwap_slope", "split_condition": -3.38839412, "yes": 43, "no": 44, "missing": 44, "children": [{"nodeid": 43, "leaf": -0.00619802857}, {"nodeid": 44, "leaf": -0.00933835004}]}, {"nodeid": 22, "depth": 4, "split": "market_yes_price", "split_condition": 0.524279773, "yes": 45, "no": 46, "missing": 46, "children": [{"nodeid": 45, "leaf": -0.00964687113}, {"nodeid": 46, "leaf": -0.011756313}]}]}]}]}, {"nodeid": 2, "depth": 1, "split": "delta_1m_atr_adj", "split_condition": 0.0136368163, "yes": 5, "no": 6, "missing": 6, "children": [{"nodeid": 5, "depth": 2, "split": "delta_1m_capped", "split_condition": 0.00010297, "yes": 11, "no": 12, "missing": 12, "children": [{"nodeid": 11, "depth": 3, "split": "vwap_dist", "split_condition": -0.00279107993, "yes": 23, "no": 24, "missing": 24, "children": [{"nodeid": 23, "leaf": 0.00182414206}, {"nodeid": 24, "depth": 4, "split": "market_yes_price", "split_condition": 0.526322544, "yes": 47, "no": 48, "missing": 48, "children": [{"nodeid": 47, "leaf": 0.0081318412}, {"nodeid": 48, "leaf": 0.0059957779}]}]}, {"nodeid": 12, "depth": 3, "split": "vwap_dist", "split_condition": 0.00424086023, "yes": 25, "no": 26, "missing": 26, "children": [{"nodeid": 25, "depth": 4, "split": "hour_cos", "split_condition": -0.342020154, "yes": 49, "no": 50, "missing": 50, "children": [{"nodeid": 49, "leaf": 0.00447195489}, {"nodeid": 50, "leaf": 0.00566005474}]}, {"nodeid": 26, "depth": 4, "split": "hour_cos", "split_condition": 0.279828995, "yes": 51, "no": 52, "missing": 52, "children": [{"nodeid": 51, "leaf": 0.00486288546}, {"nodeid": 52, "leaf": 0.000222703471}]}]}]}, {"nodeid": 6, "depth": 2, "split": "momentum_5candle_slope", "split_condition": 0.000113629998, "yes": 13, "no": 14, "missing": 14, "children": [{"nodeid": 13, "depth": 3, "split": "vwap_dist", "split_condition": 0.00100181997, "yes": 27, "no": 28, "missing": 28, "children": [{"nodeid": 27, "depth": 4, "split": "market_price_momentum", "split_condition": 0.000450029998, "yes": 53, "no": 54, "missing": 54, "children": [{"nodeid": 53, "leaf": 0.00546123693}, {"nodeid": 54, "leaf": 0.00340827089}]}, {"nodeid": 28, "depth": 4, "split": "delta_1m_capped", "split_condition": 0.000339849998, "yes": 55, "no": 56, "missing": 56, "children": [{"nodeid": 55, "leaf": 0.00535508385}, {"nodeid": 56, "leaf": 0.00208383845}]}]}, {"nodeid": 14, "depth": 3, "split": "macd_x_rsi_slope", "split_condition": 5.9503355, "yes": 29, "no": 30, "missing": 30, "children": [{"nodeid": 29, "depth": 4, "split": "ema_dist_norm", "split_condition": 0.678847671, "yes": 57, "no": 58, "missing": 58, "children": [{"nodeid": 57, "leaf": 0.00363147585}, {"nodeid": 58, "leaf": 0.00179345463}]}, {"nodeid": 30, "depth": 4, "split": "delta1m_x_multitf", "split_condition": 0.000666300009, "yes": 59, "no": 60, "missing": 60, "children": [{"nodeid": 59, "leaf": -0.00309831672}, {"nodeid": 60, "leaf": 0.000713278074}]}]}]}]}]}, {"nodeid": 0, "depth": 0, "split": "delta1m_x_multitf", "split_condition": 1.00000001e-07, "yes": 1, "no": 2, "missing": 2, "children": [{"nodeid": 1, "depth": 1, "split": "delta_1m_pct", "split_condition": 1.00000001e-07, "yes": 3, "no": 4, "missing": 4, "children": [{"nodeid": 3, "depth": 2, "split": "delta1m_x_multitf", "split_condition": 0, "yes": 7, "no": 8, "missing": 8, "children": [{"nodeid": 7, "depth": 3, "split": "delta1m_x_multitf", "split_condition": -0.000504149997, "yes": 15, "no": 16, "missing": 16, "children": [{"nodeid": 15, "depth": 4, "split": "momentum_5candle_slope", "split_condition": -0.000342890009, "yes": 31, "no": 32, "missing": 32, "children": [{"nodeid": 31, "leaf": -0.00117262581}, {"nodeid": 32, "leaf": -0.00306261983}]}, {"nodeid": 16, "depth": 4, "split": "vol_delta_buy_ratio", "split_condition": 0.442919105, "yes": 33, "no": 34, "missing": 34, "children": [{"nodeid": 33, "leaf": -0.00446356786}, {"nodeid": 34, "leaf": -0.0059925192}]}]}, {"nodeid": 8, "depth": 3, "split": "delta_1m_pct", "split_condition": 0, "yes": 17, "no": 18, "missing": 18, "children": [{"nodeid": 17, "depth": 4, "split": "delta_1m_pct", "split_condition": -0.000461660005, "yes": 35, "no": 36, "missing": 36, "children": [{"nodeid": 35, "leaf": 0.00970662385}, {"nodeid": 36, "leaf": 0.00770092616}]}, {"nodeid": 18, "depth": 4, "split": "multi_tf_agreement", "split_condition": 1, "yes": 37, "no": 38, "missing": 38, "children": [{"nodeid": 37, "leaf": -0.000698801305}, {"nodeid": 38, "leaf": 0.00801866408}]}]}]}, {"nodeid": 4, "depth": 2, "split": "price_position_score", "split_condition": 0.397900164, "yes": 9, "no": 10, "missing": 10, "children": [{"nodeid": 9, "depth": 3, "split": "vol_delta_accel", "split_condition": 0.429666311, "yes": 19, "no": 20, "missing": 20, "children": [{"nodeid": 19, "depth": 4, "split": "delta_3m_pct", "split_condition": -0.000647259993, "yes": 39, "no": 40, "missing": 40, "children": [{"nodeid": 39, "leaf": -0.00562943844}, {"nodeid": 40, "leaf": -0.00938422699}]}, {"nodeid": 20, "depth": 4, "split": "market_price_momentum", "split_condition": 0.000319140003, "yes": 41, "no": 42, "missing": 42, "children": [{"nodeid": 41, "leaf": -0.00641985051}, {"nodeid": 42, "leaf": -0.00904338714}]}]}, {"nodeid": 10, "depth": 3, "split": "vol_delta_buy_ratio", "split_condition": 0.580112934, "yes": 21, "no": 22, "missing": 22, "children": [{"nodeid": 21, "depth": 4, "split": "bb_width", "split_condition": 0.00271630008, "yes": 43, "no": 44, "missing": 44, "children": [{"nodeid": 43, "leaf": -0.00999635272}, {"nodeid": 44, "leaf": -0.00831972901}]}, {"nodeid": 22, "depth": 4, "split": "market_price_momentum", "split_condition": 0.000163460005, "yes": 45, "no": 46, "missing": 46, "children": [{"nodeid": 45, "leaf": -0.0094820261}, {"nodeid": 46, "leaf": -0.0114389928}]}]}]}]}, {"nodeid": 2, "depth": 1, "split": "delta1m_x_multitf", "split_condition": 0.000476059999, "yes": 5, "no": 6, "missing": 6, "children": [{"nodeid": 5, "depth": 2, "split": "delta_1m_pct", "split_condition": 9.0020003e-05, "yes": 11, "no": 12, "missing": 12, "children": [{"nodeid": 11, "depth": 3, "split": "macd_hist", "split_condition": -8.32022381, "yes": 23, "no": 24, "missing": 24, "children": [{"nodeid": 23, "depth": 4, "split": "minutes_left_norm", "split_condition": 0.400000006, "yes": 47, "no": 48, "missing": 48, "children": [{"nodeid": 47, "leaf": 0.00169763749}, {"nodeid": 48, "leaf": 0.00558809005}]}, {"nodeid": 24, "depth": 4, "split": "momentum_5candle_slope", "split_condition": 7.89800033e-05, "yes": 49, "no": 50, "missing": 50, "children": [{"nodeid": 49, "leaf": 0.00793403853}, {"nodeid": 50, "leaf": 0.00549741555}]}]}, {"nodeid": 12, "depth": 3, "split": "rsi_norm", "split_condition": 0.558438897, "yes": 25, "no": 26, "missing": 26, "children": [{"nodeid": 25, "depth": 4, "split": "spread_pct", "split_condition": 0.0347495414, "yes": 51, "no": 52, "missing": 52, "children": [{"nodeid": 51, "leaf": 0.00636648852}, {"nodeid": 52, "leaf": 0.00488488516}]}, {"nodeid": 26, "depth": 4, "split": "volatility_change_ratio", "split_condition": 0.201758116, "yes": 53, "no": 54, "missing": 54, "children": [{"nodeid": 53, "leaf": 0.00587786734}, {"nodeid": 54, "leaf": 0.00369994459}]}]}]}, {"nodeid": 6, "depth": 2, "split": "rsi_norm", "split_condition": 0.450776398, "yes": 13, "no": 14, "missing": 14, "children": [{"nodeid": 13, "depth": 3, "split": "rsi_divergence", "split_condition": 4.29035044, "yes": 27, "no": 28, "missing": 28, "children": [{"nodeid": 27, "depth": 4, "split": "delta_1m_pct", "split_condition": 0.000971220026, "yes": 55, "no": 56, "missing": 56, "children": [{"nodeid": 55, "leaf": 0.00647566933}, {"nodeid": 56, "leaf": 0.0034084802}]}, {"nodeid": 28, "leaf": 0.00161786971}]}, {"nodeid": 14, "depth": 3, "split": "atr_expanding", "split_condition": 1, "yes": 29, "no": 30, "missing": 30, "children": [{"nodeid": 29, "depth": 4, "split": "rsi_norm", "split_condition": 0.658106506, "yes": 57, "no": 58, "missing": 58, "children": [{"nodeid": 57, "leaf": 0.00386192463}, {"nodeid": 58, "leaf": 0.00216092705}]}, {"nodeid": 30, "depth": 4, "split": "atr_pct_norm", "split_condition": 0.0293196198, "yes": 59, "no": 60, "missing": 60, "children": [{"nodeid": 59, "leaf": -0.000817329274}, {"nodeid": 60, "leaf": 0.00211226917}]}]}]}]}]}, {"nodeid": 0, "depth": 0, "split": "delta1m_x_multitf", "split_condition": 1.00000001e-07, "yes": 1, "no": 2, "missing": 2, "children": [{"nodeid": 1, "depth": 1, "split": "delta_1m_pct", "split_condition": 1.00000001e-07, "yes": 3, "no": 4, "missing": 4, "children": [{"nodeid": 3, "depth": 2, "split": "delta1m_x_multitf", "split_condition": 0, "yes": 7, "no": 8, "missing": 8, "children": [{"nodeid": 7, "depth": 3, "split": "delta_1m_capped", "split_condition": -0.000595560006, "yes": 15, "no": 16, "missing": 16, "children": [{"nodeid": 15, "depth": 4, "split": "orderbook_imbalance", "split_condition": -0.417829514, "yes": 31, "no": 32, "missing": 32, "children": [{"nodeid": 31, "leaf": 0.00158393325}, {"nodeid": 32, "leaf": -0.00247456483}]}, {"nodeid": 16, "depth": 4, "split": "delta_1m_pct", "split_condition": -0.000243510003, "yes": 33, "no": 34, "missing": 34, "children": [{"nodeid": 33, "leaf": -0.00419852184}, {"nodeid": 34, "leaf": -0.00608644402}]}]}, {"nodeid": 8, "depth": 3, "split": "delta_1m_atr_adj", "split_condition": -6.13678594e-06, "yes": 17, "no": 18, "missing": 18, "children": [{"nodeid": 17, "depth": 4, "split": "delta_1m_atr_adj", "split_condition": -0.0158519801, "yes": 35, "no": 36, "missing": 36, "children": [{"nodeid": 35, "leaf": 0.0102541605}, {"nodeid": 36, "leaf": 0.00751663279}]}, {"nodeid": 18, "depth": 4, "split": "macd_line", "split_condition": -14.8590851, "yes": 37, "no": 38, "missing": 38, "children": [{"nodeid": 37, "leaf": 0.00470141787}, {"nodeid": 38, "leaf": -0.00060968881}]}]}]}, {"nodeid": 4, "depth": 2, "split": "delta_1m_atr_adj", "split_condition": 0.0124931624, "yes": 9, "no": 10, "missing": 10, "children": [{"nodeid": 9, "depth": 3, "split": "vwap_dist", "split_condition": -0.000960730016, "yes": 19, "no": 20, "missing": 20, "children": [{"nodeid": 19, "depth": 4, "split": "delta_1m_atr_adj", "split_condition": 0.00185230933, "yes": 39, "no": 40, "missing": 40, "children": [{"nodeid": 39, "leaf": -0.00357771898}, {"nodeid": 40, "leaf": -0.00666222442}]}, {"nodeid": 20, "depth": 4, "split": "bb_width", "split_condition": 0.00103828998, "yes": 41, "no": 42, "missing": 42, "children": [{"nodeid": 41, "leaf": -0.011230492}, {"nodeid": 42, "leaf": -0.00802878663}]}]}, {"nodeid": 10, "depth": 3, "split": "rsi_x_regime_conf", "split_condition": 0.474796593, "yes": 21, "no": 22, "missing": 22, "children": [{"nodeid": 21, "depth": 4, "split": "divergence_x_confidence", "split_condition": 0.00482897041, "yes": 43, "no": 44, "missing": 44, "children": [{"nodeid": 43, "leaf": -0.0107968915}, {"nodeid": 44, "leaf": -0.00862245075}]}, {"nodeid": 22, "depth": 4, "split": "atr_ratio_norm", "split_condition": 0.250544757, "yes": 45, "no": 46, "missing": 46, "children": [{"nodeid": 45, "leaf": -0.00724489987}, {"nodeid": 46, "leaf": -0.011488595}]}]}]}]}, {"nodeid": 2, "depth": 1, "split": "delta_1m_capped", "split_condition": 0.000462869997, "yes": 5, "no": 6, "missing": 6, "children": [{"nodeid": 5, "depth": 2, "split": "delta_1m_atr_adj", "split_condition": 0.0260374714, "yes": 11, "no": 12, "missing": 12, "children": [{"nodeid": 11, "depth": 3, "split": "momentum_5candle_slope", "split_condition": 0.000215389999, "yes": 23, "no": 24, "missing": 24, "children": [{"nodeid": 23, "depth": 4, "split": "delta_1m_capped", "split_condition": 8.8929999e-05, "yes": 47, "no": 48, "missing": 48, "children": [{"nodeid": 47, "leaf": 0.00708179502}, {"nodeid": 48, "leaf": 0.00567074819}]}, {"nodeid": 24, "depth": 4, "split": "volatility_change_ratio", "split_condition": 0.16849789, "yes": 49, "no": 50, "missing": 50, "children": [{"nodeid": 49, "leaf": 0.00633195834}, {"nodeid": 50, "leaf": 0.0035296611}]}]}, {"nodeid": 12, "depth": 3, "split": "hour_cos", "split_condition": 0, "yes": 25, "no": 26, "missing": 26, "children": [{"nodeid": 25, "depth": 4, "split": "vol_delta_accel", "split_condition": 0.592630029, "yes": 51, "no": 52, "missing": 52, "children": [{"nodeid": 51, "leaf": -0.00139337126}, {"nodeid": 52, "leaf": 0.00348559697}]}, {"nodeid": 26, "depth": 4, "split": "vol_delta_buy_ratio", "split_condition": 0.53105408, "yes": 53, "no": 54, "missing": 54, "children": [{"nodeid": 53, "leaf": 0.00637334911}, {"nodeid": 54, "leaf": 0.00179739541}]}]}]}, {"nodeid": 6, "depth": 2, "split": "rsi_x_trending", "split_condition": 0.562912166, "yes": 13, "no": 14, "missing": 14, "children": [{"nodeid": 13, "depth": 3, "split": "delta_1m_atr_adj", "split_condition": 0.0136368163, "yes": 27, "no": 28, "missing": 28, "children": [{"nodeid": 27, "depth": 4, "split": "momentum_accel", "split_condition": 7.64333381e-05, "yes": 55, "no": 56, "missing": 56, "children": [{"nodeid": 55, "leaf": 0.000132590532}, {"nodeid": 56, "leaf": 0.00619266182}]}, {"nodeid": 28, "depth": 4, "split": "rule_confidence", "split_condition": 0.0415469818, "yes": 57, "no": 58, "missing": 58, "children": [{"nodeid": 57, "leaf": 0.000997116207}, {"nodeid": 58, "leaf": 0.00369568449}]}]}, {"nodeid": 14, "depth": 3, "split": "delta_1m_atr_adj", "split_condition": 0.0210128147, "yes": 29, "no": 30, "missing": 30, "children": [{"nodeid": 29, "depth": 4, "split": "hour_sin", "split_condition": 0.737277329, "yes": 59, "no": 60, "missing": 60, "children": [{"nodeid": 59, "leaf": 0.0036670554}, {"nodeid": 60, "leaf": -0.000134311311}]}, {"nodeid": 30, "depth": 4, "split": "rule_confidence", "split_condition": 0.145231679, "yes": 61, "no": 62, "missing": 62, "children": [{"nodeid": 61, "leaf": -0.00244409218}, {"nodeid": 62, "leaf": 0.0015057245}]}]}]}]}]}, {"nodeid": 0, "depth": 0, "split": "delta1m_x_multitf", "split_condition": 1.00000001e-07, "yes": 1, "no": 2, "missing": 2, "children": [{"nodeid": 1, "depth": 1, "split": "delta_1m_pct", "split_condition": 1.00000001e-07, "yes": 3, "no": 4, "missing": 4, "children": [{"nodeid": 3, "depth": 2, "split": "delta1m_x_multitf", "split_condition": 0, "yes": 7, "no": 8, "missing": 8, "children": [{"nodeid": 7, "depth": 3, "split": "delta_1m_pct", "split_condition": -0.000602880027, "yes": 15, "no": 16, "missing": 16, "children": [{"nodeid": 15, "depth": 4, "split": "rsi_norm", "split_condition": 0.259191722, "yes": 31, "no": 32, "missing": 32, "children": [{"nodeid": 31, "leaf": -0.000270951045}, {"nodeid": 32, "leaf": -0.00264049834}]}, {"nodeid": 16, "depth": 4, "split": "bb_percent_b", "split_condition": 0.128278702, "yes": 33, "no": 34, "missing": 34, "children": [{"nodeid": 33, "leaf": -0.00353174889}, {"nodeid": 34, "leaf": -0.00567292329}]}]}, {"nodeid": 8, "depth": 3, "split": "delta_1m_pct", "split_condition": 0, "yes": 17, "no": 18, "missing": 18, "children": [{"nodeid": 17, "depth": 4, "split": "delta_1m_atr_adj", "split_condition": -0.0123636676, "yes": 35, "no": 36, "missing": 36, "children": [{"nodeid": 35, "leaf": 0.00984435342}, {"nodeid": 36, "leaf": 0.00707769766}]}, {"nodeid": 18, "depth": 4, "split": "multi_tf_agreement", "split_condition": 1, "yes": 37, "no": 38, "missing": 38, "children": [{"nodeid": 37, "leaf": -0.000863245572}, {"nodeid": 38, "leaf": 0.00841087941}]}]}]}, {"nodeid": 4, "depth": 2, "split": "delta_1m_atr_adj", "split_condition": 0.0169708338, "yes": 9, "no": 10, "missing": 10, "children": [{"nodeid": 9, "depth": 3, "split": "vwap_dist", "split_condition": -0.000685230014, "yes": 19, "no": 20, "missing": 20, "children": [{"nodeid": 19, "depth": 4, "split": "delta_3m_pct", "split_condition": -0.000221819995, "yes": 39, "no": 40, "missing": 40, "children": [{"nodeid": 39, "leaf": -0.00463818852}, {"nodeid": 40, "leaf": -0.00725217909}]}, {"nodeid": 20, "depth": 4, "split": "delta_1m_atr_adj", "split_condition": 0.00663832854, "yes": 41, "no": 42, "missing": 42, "children": [{"nodeid": 41, "leaf": -0.00772312749}, {"nodeid": 42, "leaf": -0.00910864212}]}]}, {"nodeid": 10, "depth": 3, "split": "price_position_score", "split_condition": 0.394784153, "yes": 21, "no": 22, "missing": 22, "children": [{"nodeid": 21, "depth": 4, "split": "vwap_slope", "split_condition": -0.496999621, "yes": 43, "no": 44, "missing": 44, "children": [{"nodeid": 43, "leaf": -0.0101027898}, {"nodeid": 44, "leaf": -0.00711563742}]}, {"nodeid": 22, "depth": 4, "split": "atr_ratio_norm", "split_condition": 0.250544757, "yes": 45, "no": 46, "missing": 46, "children": [{"nodeid": 45, "leaf": -0.00679815002}, {"nodeid": 46, "leaf": -0.0114463735}]}]}]}]}, {"nodeid": 2, "depth": 1, "split": "delta1m_x_multitf", "split_condition": 0.000488810008, "yes": 5, "no": 6, "missing": 6, "children": [{"nodeid": 5, "depth": 2, "split": "delta_1m_atr_adj", "split_condition": 0.031046588, "yes": 11, "no": 12, "missing": 12, "children": [{"nodeid": 11, "depth": 3, "split": "vol_weighted_momentum", "split_condition": 1.0388494e-05, "yes": 23, "no": 24, "missing": 24, "children": [{"nodeid": 23, "depth": 4, "split": "bb_width", "split_condition": 0.00295433006, "yes": 47, "no": 48, "missing": 48, "children": [{"nodeid": 47, "leaf": 0.00784886535}, {"nodeid": 48, "leaf": 0.00498622982}]}, {"nodeid": 24, "depth": 4, "split": "ptb_dist_pct", "split_condition": -0.000300470012, "yes": 49, "no": 50, "missing": 50, "children": [{"nodeid": 49, "leaf": 0.00595300132}, {"nodeid": 50, "leaf": 0.00471932953}]}]}, {"nodeid": 12, "depth": 3, "split": "price_position_score", "split_condition": 0.319522887, "yes": 25, "no": 26, "missing": 26, "children": [{"nodeid": 25, "leaf": 0.00530682458}, {"nodeid": 26, "depth": 4, "split": "bb_squeeze_intensity", "split_condition": 0.181283966, "yes": 51, "no": 52, "missing": 52, "children": [{"nodeid": 51, "leaf": 0.00163686485}, {"nodeid": 52, "leaf": -0.00336118485}]}]}]}, {"nodeid": 6, "depth": 2, "split": "vwap_slope", "split_condition": 1.59240234, "yes": 13, "no": 14, "missing": 14, "children": [{"nodeid": 13, "depth": 3, "split": "orderbook_imbalance", "split_condition": 0.388076782, "yes": 27, "no": 28, "missing": 28, "children": [{"nodeid": 27, "depth": 4, "split": "delta_1m_atr_adj", "split_condition": 0.0199757405, "yes": 53, "no": 54, "missing": 54, "children": [{"nodeid": 53, "leaf": 0.0044736485}, {"nodeid": 54, "leaf": 0.00292187161}]}, {"nodeid": 28, "leaf": -0.00184640405}]}, {"nodeid": 14, "depth": 3, "split": "stoch_kd_norm", "split_condition": 0.661396742, "yes": 29, "no": 30, "missing": 30, "children": [{"nodeid": 29, "depth": 4, "split": "vwap_trend_strength", "split_condition": 0.00280884001, "yes": 55, "no": 56, "missing": 56, "children": [{"nodeid": 55, "leaf": 0.000564631482}, {"nodeid": 56, "leaf": 0.00264502736}]}, {"nodeid": 30, "depth": 4, "split": "macd_line", "split_condition": 36.0691261, "yes": 57, "no": 58, "missing": 58, "children": [{"nodeid": 57, "leaf": 0.000937993755}, {"nodeid": 58, "leaf": -0.00413367013}]}]}]}]}]}, {"nodeid": 0, "depth": 0, "split": "delta1m_x_multitf", "split_condition": 1.00000001e-07, "yes": 1, "no": 2, "missing": 2, "children": [{"nodeid": 1, "depth": 1, "split": "delta_1m_pct", "split_condition": 1.00000001e-07, "yes": 3, "no": 4, "missing": 4, "children": [{"nodeid": 3, "depth": 2, "split": "delta1m_x_multitf", "split_condition": 0, "yes": 7, "no": 8, "missing": 8, "children": [{"nodeid": 7, "depth": 3, "split": "delta_1m_pct", "split_condition": -0.000602880027, "yes": 15, "no": 16, "missing": 16, "children": [{"nodeid": 15, "depth": 4, "split": "imbalance_x_vol_delta", "split_condition": -0.0554791167, "yes": 31, "no": 32, "missing": 32, "children": [{"nodeid": 31, "leaf": -0.00114714378}, {"nodeid": 32, "leaf": -0.00289079617}]}, {"nodeid": 16, "depth": 4, "split": "delta_1m_pct", "split_condition": -0.000243510003, "yes": 33, "no": 34, "missing": 34, "children": [{"nodeid": 33, "leaf": -0.00435252022}, {"nodeid": 34, "leaf": -0.00599928992}]}]}, {"nodeid": 8, "depth": 3, "split": "delta_1m_pct", "split_condition": 0, "yes": 17, "no": 18, "missing": 18, "children": [{"nodeid": 17, "depth": 4, "split": "delta_1m_pct", "split_condition": -0.000328830007, "yes": 35, "no": 36, "missing": 36, "children": [{"nodeid": 35, "leaf": 0.00931771286}, {"nodeid": 36, "leaf": 0.0073995241}]}, {"nodeid": 18, "depth": 4, "split": "multi_tf_agreement", "split_condition": 1, "yes": 37, "no": 38, "missing": 38, "children": [{"nodeid": 37, "leaf": -0.00041628271}, {"nodeid": 38, "leaf": 0.00855717249}]}]}]}, {"nodeid": 4, "depth": 2, "split": "price_position_score", "split_condition": 0.430529773, "yes": 9, "no": 10, "missing": 10, "children": [{"nodeid": 9, "depth": 3, "split": "delta_1m_pct", "split_condition": 0.000406720006, "yes": 19, "no": 20, "missing": 20, "children": [{"nodeid": 19, "depth": 4, "split": "vol_delta_accel", "split_condition": 0.400068641, "yes": 39, "no": 40, "missing": 40, "children": [{"nodeid": 39, "leaf": -0.00852315314}, {"nodeid": 40, "leaf": -0.00636484241}]}, {"nodeid": 20, "depth": 4, "split": "squeeze_breakout_potential", "split_condition": 0.803383589, "yes": 41, "no": 42, "missing": 42, "children": [{"nodeid": 41, "leaf": -0.00888290163}, {"nodeid": 42, "leaf": -0.0046746484}]}]}, {"nodeid": 10, "depth": 3, "split": "macd_x_rsi_slope", "split_condition": 2.52631402, "yes": 21, "no": 22, "missing": 22, "children": [{"nodeid": 21, "depth": 4, "split": "imbalance_x_vol_delta", "split_condition": 0.0884840861, "yes": 43, "no": 44, "missing": 44, "children": [{"nodeid": 43, "leaf": -0.007849521}, {"nodeid": 44, "leaf": -0.00972037483}]}, {"nodeid": 22, "depth": 4, "split": "momentum_accel", "split_condition": -9.9453333e-05, "yes": 45, "no": 46, "missing": 46, "children": [{"nodeid": 45, "leaf": -0.00836253073}, {"nodeid": 46, "leaf": -0.0109497672}]}]}]}]}, {"nodeid": 2, "depth": 1, "split": "delta1m_x_multitf", "split_condition": 0.000421130011, "yes": 5, "no": 6, "missing": 6, "children": [{"nodeid": 5, "depth": 2, "split": "vol_weighted_momentum", "split_condition": 3.04685418e-05, "yes": 11, "no": 12, "missing": 12, "children": [{"nodeid": 11, "depth": 3, "split": "vwap_trend_strength", "split_condition": 0.00456633, "yes": 23, "no": 24, "missing": 24, "children": [{"nodeid": 23, "depth": 4, "split": "vol_delta_accel", "split_condition": 0.176278025, "yes": 47, "no": 48, "missing": 48, "children": [{"nodeid": 47, "leaf": 0.00188690773}, {"nodeid": 48, "leaf": 0.00661992375}]}, {"nodeid": 24, "leaf": 0.00202868832}]}, {"nodeid": 12, "depth": 3, "split": "bb_percent_b", "split_condition": 0.572934687, "yes": 25, "no": 26, "missing": 26, "children": [{"nodeid": 25, "depth": 4, "split": "hour_cos", "split_condition": 0.442288697, "yes": 49, "no": 50, "missing": 50, "children": [{"nodeid": 49, "leaf": 0.0050138291}, {"nodeid": 50, "leaf": 0.0070647127}]}, {"nodeid": 26, "depth": 4, "split": "hour_cos", "split_condition": -0.402746677, "yes": 51, "no": 52, "missing": 52, "children": [{"nodeid": 51, "leaf": 0.00271382811}, {"nodeid": 52, "leaf": 0.00488958135}]}]}]}, {"nodeid": 6, "depth": 2, "split": "vol_delta_buy_ratio", "split_condition": 0.481017113, "yes": 13, "no": 14, "missing": 14, "children": [{"nodeid": 13, "depth": 3, "split": "delta_3m_pct", "split_condition": 0.000309180003, "yes": 27, "no": 28, "missing": 28, "children": [{"nodeid": 27, "depth": 4, "split": "delta_1m_pct", "split_condition": 0.000603170018, "yes": 53, "no": 54, "missing": 54, "children": [{"nodeid": 53, "leaf": 0.00716322334}, {"nodeid": 54, "leaf": 0.00455069821}]}, {"nodeid": 28, "depth": 4, "split": "vol_delta_buy_ratio", "split_condition": 0.470737964, "yes": 55, "no": 56, "missing": 56, "children": [{"nodeid": 55, "leaf": 0.00298092328}, {"nodeid": 56, "leaf": 0.00645775814}]}]}, {"nodeid": 14, "depth": 3, "split": "stoch_kd_norm", "split_condition": 0.645387113, "yes": 29, "no": 30, "missing": 30, "children": [{"nodeid": 29, "depth": 4, "split": "divergence_x_confidence", "split_condition": 0.000837818254, "yes": 57, "no": 58, "missing": 58, "children": [{"nodeid": 57, "leaf": -0.000796595239}, {"nodeid": 58, "leaf": 0.00285329134}]}, {"nodeid": 30, "depth": 4, "split": "bb_percent_b", "split_condition": 0.47132802, "yes": 59, "no": 60, "missing": 60, "children": [{"nodeid": 59, "leaf": 0.00560192298}, {"nodeid": 60, "leaf": 4.18465279e-05}]}]}]}]}]}, {"nodeid": 0, "depth": 0, "split": "delta1m_x_multitf", "split_condition": 1.00000001e-07, "yes": 1, "no": 2, "missing": 2, "children": [{"nodeid": 1, "depth": 1, "split": "delta_1m_pct", "split_condition": 1.00000001e-07, "yes": 3, "no": 4, "missing": 4, "children": [{"nodeid": 3, "depth": 2, "split": "delta1m_x_multitf", "split_condition": 0, "yes": 7, "no": 8, "missing": 8, "children": [{"nodeid": 7, "depth": 3, "split": "delta_1m_capped", "split_condition": -0.000595560006, "yes": 15, "no": 16, "missing": 16, "children": [{"nodeid": 15, "depth": 4, "split": "vwap_slope", "split_condition": 8.52327156, "yes": 31, "no": 32, "missing": 32, "children": [{"nodeid": 31, "leaf": -0.00205387827}, {"nodeid": 32, "leaf": -0.00519021694}]}, {"nodeid": 16, "depth": 4, "split": "delta_1m_pct", "split_condition": -0.000243510003, "yes": 33, "no": 34, "missing": 34, "children": [{"nodeid": 33, "leaf": -0.00417625485}, {"nodeid": 34, "leaf": -0.0059640687}]}]}, {"nodeid": 8, "depth": 3, "split": "delta_1m_pct", "split_condition": 0, "yes": 17, "no": 18, "missing": 18, "children": [{"nodeid": 17, "depth": 4, "split": "delta_1m_atr_adj", "split_condition": -0.0158519801, "yes": 35, "no": 36, "missing": 36, "children": [{"nodeid": 35, "leaf": 0.0103386017}, {"nodeid": 36, "leaf": 0.00729200896}]}, {"nodeid": 18, "depth": 4, "split": "vwap_dist", "split_condition": -0.000666369975, "yes": 37, "no": 38, "missing": 38, "children": [{"nodeid": 37, "leaf": 0.00462806551}, {"nodeid": 38, "leaf": -0.00121348468}]}]}]}, {"nodeid": 4, "depth": 2, "split": "delta_1m_atr_adj", "split_condition": 0.0169708338, "yes": 9, "no": 10, "missing": 10, "children": [{"nodeid": 9, "depth": 3, "split": "vwap_dist", "split_condition": -0.000685230014, "yes": 19, "no": 20, "missing": 20, "children": [{"nodeid": 19, "depth": 4, "split": "rsi_slope", "split_condition": -1.81836832, "yes": 39, "no": 40, "missing": 40, "children": [{"nodeid": 39, "leaf": -0.00292039197}, {"nodeid": 40, "leaf": -0.00685439073}]}, {"nodeid": 20, "depth": 4, "split": "minutes_left_norm", "split_condition": 0.400000006, "yes": 41, "no": 42, "missing": 42, "children": [{"nodeid": 41, "leaf": -0.00738201477}, {"nodeid": 42, "leaf": -0.00904637296}]}]}, {"nodeid": 10, "depth": 3, "split": "market_yes_price", "split_condition": 0.530986965, "yes": 21, "no": 22, "missing": 22, "children": [{"nodeid": 21, "depth": 4, "split": "atr_ratio_norm", "split_condition": 0.290409029, "yes": 43, "no": 44, "missing": 44, "children": [{"nodeid": 43, "leaf": -0.00678752875}, {"nodeid": 44, "leaf": -0.00999044348}]}, {"nodeid": 22, "leaf": -0.0112899784}]}]}]}, {"nodeid": 2, "depth": 1, "split": "delta_1m_capped", "split_condition": 0.000491440005, "yes": 5, "no": 6, "missing": 6, "children": [{"nodeid": 5, "depth": 2, "split": "delta_1m_capped", "split_condition": 9.89600012e-05, "yes": 11, "no": 12, "missing": 12, "children": [{"nodeid": 11, "depth": 3, "split": "vwap_trend_strength", "split_condition": 0.00277887005, "yes": 23, "no": 24, "missing": 24, "children": [{"nodeid": 23, "depth": 4, "split": "vol_momentum_confirm", "split_condition": 0.0865505114, "yes": 45, "no": 46, "missing": 46, "children": [{"nodeid": 45, "leaf": 0.00794673152}, {"nodeid": 46, "leaf": 0.00572472159}]}, {"nodeid": 24, "depth": 4, "split": "divergence_x_confidence", "split_condition": 0.00752474926, "yes": 47, "no": 48, "missing": 48, "children": [{"nodeid": 47, "leaf": -0.000660688791}, {"nodeid": 48, "leaf": 0.00486420188}]}]}, {"nodeid": 12, "depth": 3, "split": "atr_ratio_norm", "split_condition": 0.229493961, "yes": 25, "no": 26, "missing": 26, "children": [{"nodeid": 25, "depth": 4, "split": "price_position_score", "split_condition": 0.473871768, "yes": 49, "no": 50, "missing": 50, "children": [{"nodeid": 49, "leaf": 0.00944453478}, {"nodeid": 50, "leaf": 0.0047719758}]}, {"nodeid": 26, "depth": 4, "split": "momentum_5candle_slope", "split_condition": -2.01999992e-05, "yes": 51, "no": 52, "missing": 52, "children": [{"nodeid": 51, "leaf": 0.00541879842}, {"nodeid": 52, "leaf": 0.00422220537}]}]}]}, {"nodeid": 6, "depth": 2, "split": "vwap_slope", "split_condition": -1.85793662, "yes": 13, "no": 14, "missing": 14, "children": [{"nodeid": 13, "depth": 3, "split": "delta_1m_pct", "split_condition": 0.000915609999, "yes": 27, "no": 28, "missing": 28, "children": [{"nodeid": 27, "depth": 4, "split": "stoch_kd_norm", "split_condition": 0.691258252, "yes": 53, "no": 54, "missing": 54, "children": [{"nodeid": 53, "leaf": 0.00638151402}, {"nodeid": 54, "leaf": 0.00307424483}]}, {"nodeid": 28, "depth": 4, "split": "minutes_left_norm", "split_condition": 0.200000003, "yes": 55, "no": 56, "missing": 56, "children": [{"nodeid": 55, "leaf": -0.000641486433}, {"nodeid": 56, "leaf": 0.0038486612}]}]}, {"nodeid": 14, "depth": 3, "split": "vwap_slope", "split_condition": 1.67919016, "yes": 29, "no": 30, "missing": 30, "children": [{"nodeid": 29, "depth": 4, "split": "vol_delta_accel", "split_condition": 0.274774134, "yes": 57, "no": 58, "missing": 58, "children": [{"nodeid": 57, "leaf": -0.00151687162}, {"nodeid": 58, "leaf": 0.00306553766}]}, {"nodeid": 30, "depth": 4, "split": "stoch_kd_norm", "split_condition": 0.655147552, "yes": 59, "no": 60, "missing": 60, "children": [{"nodeid": 59, "leaf": 0.00171194517}, {"nodeid": 60, "leaf": -0.00223326008}]}]}]}]}]}, {"nodeid": 0, "depth": 0, "split": "delta1m_x_multitf", "split_condition": 1.00000001e-07, "yes": 1, "no": 2, "missing": 2, "children": [{"nodeid": 1, "depth": 1, "split": "delta_1m_capped", "split_condition": 1.00000001e-07, "yes": 3, "no": 4, "missing": 4, "children": [{"nodeid": 3, "depth": 2, "split": "delta1m_x_multitf", "split_condition": 0, "yes": 7, "no": 8, "missing": 8, "children": [{"nodeid": 7, "depth": 3, "split": "delta_1m_capped", "split_condition": -0.000608130009, "yes": 15, "no": 16, "missing": 16, "children": [{"nodeid": 15, "depth": 4, "split": "macd_line", "split_condition": -68.5067596, "yes": 31, "no": 32, "missing": 32, "children": [{"nodeid": 31, "leaf": -0.000121412944}, {"nodeid": 32, "leaf": -0.00242013694}]}, {"nodeid": 16, "depth": 4, "split": "delta1m_x_multitf", "split_condition": -0.000250829995, "yes": 33, "no": 34, "missing": 34, "children": [{"nodeid": 33, "leaf": -0.00401077466}, {"nodeid": 34, "leaf": -0.00568175456}]}]}, {"nodeid": 8, "depth": 3, "split": "delta_1m_capped", "split_condition": 0, "yes": 17, "no": 18, "missing": 18, "children": [{"nodeid": 17, "depth": 4, "split": "delta_1m_atr_adj", "split_condition": -0.0158519801, "yes": 35, "no": 36, "missing": 36, "children": [{"nodeid": 35, "leaf": 0.0098835323}, {"nodeid": 36, "leaf": 0.00724252593}]}, {"nodeid": 18, "depth": 4, "split": "multi_tf_agreement", "split_condition": 1, "yes": 37, "no": 38, "missing": 38, "children": [{"nodeid": 37, "leaf": -0.00093475054}, {"nodeid": 38, "leaf": 0.00730216783}]}]}]}, {"nodeid": 4, "depth": 2, "split": "delta_1m_atr_adj", "split_condition": 0.0178447179, "yes": 9, "no": 10, "missing": 10, "children": [{"nodeid": 9, "depth": 3, "split": "vwap_dist", "split_condition": -0.000685230014, "yes": 19, "no": 20, "missing": 20, "children": [{"nodeid": 19, "depth": 4, "split": "delta_3m_pct", "split_condition": -0.000205060001, "yes": 39, "no": 40, "missing": 40, "children": [{"nodeid": 39, "leaf": -0.00514311064}, {"nodeid": 40, "leaf": -0.00714592775}]}, {"nodeid": 20, "depth": 4, "split": "minutes_left_norm", "split_condition": 0.400000006, "yes": 41, "no": 42, "missing": 42, "children": [{"nodeid": 41, "leaf": -0.00747793587}, {"nodeid": 42, "leaf": -0.00874637533}]}]}, {"nodeid": 10, "depth": 3, "split": "ptb_dist_pct", "split_condition": 0.000580130029, "yes": 21, "no": 22, "missing": 22, "children": [{"nodeid": 21, "depth": 4, "split": "rsi_norm", "split_condition": 0.542959869, "yes": 43, "no": 44, "missing": 44, "children": [{"nodeid": 43, "leaf": -0.0103124678}, {"nodeid": 44, "leaf": -0.00819739234}]}, {"nodeid": 22, "leaf": -0.0114067923}]}]}]}, {"nodeid": 2, "depth": 1, "split": "delta_1m_atr_adj", "split_condition": 0.0134006692, "yes": 5, "no": 6, "missing": 6, "children": [{"nodeid": 5, "depth": 2, "split": "delta_1m_capped", "split_condition": 0.000132789995, "yes": 11, "no": 12, "missing": 12, "children": [{"nodeid": 11, "depth": 3, "split": "bb_percent_b", "split_condition": 0.871735871, "yes": 23, "no": 24, "missing": 24, "children": [{"nodeid": 23, "depth": 4, "split": "atr_pct_norm", "split_condition": 0.0166384391, "yes": 45, "no": 46, "missing": 46, "children": [{"nodeid": 45, "leaf": 0.00761168869}, {"nodeid": 46, "leaf": 0.00603838312}]}, {"nodeid": 24, "depth": 4, "split": "stoch_k_norm", "split_condition": 0.910334408, "yes": 47, "no": 48, "missing": 48, "children": [{"nodeid": 47, "leaf": 0.00102522445}, {"nodeid": 48, "leaf": 0.00584621588}]}]}, {"nodeid": 12, "depth": 3, "split": "hour_sin", "split_condition": -0.939692616, "yes": 25, "no": 26, "missing": 26, "children": [{"nodeid": 25, "depth": 4, "split": "volatility_change_ratio", "split_condition": 0.170053065, "yes": 49, "no": 50, "missing": 50, "children": [{"nodeid": 49, "leaf": 0.00935106259}, {"nodeid": 50, "leaf": 0.0054333834}]}, {"nodeid": 26, "depth": 4, "split": "minutes_left_norm", "split_condition": 0.466666669, "yes": 51, "no": 52, "missing": 52, "children": [{"nodeid": 51, "leaf": 0.00366193638}, {"nodeid": 52, "leaf": 0.00501691364}]}]}]}, {"nodeid": 6, "depth": 2, "split": "market_yes_price", "split_condition": 0.508681774, "yes": 13, "no": 14, "missing": 14, "children": [{"nodeid": 13, "depth": 3, "split": "macd_hist", "split_condition": 15.465189, "yes": 27, "no": 28, "missing": 28, "children": [{"nodeid": 27, "depth": 4, "split": "hour_sin", "split_condition": -0.994056344, "yes": 53, "no": 54, "missing": 54, "children": [{"nodeid": 53, "leaf": 0.000545461546}, {"nodeid": 54, "leaf": 0.00509150326}]}, {"nodeid": 28, "depth": 4, "split": "rule_confidence", "split_condition": 0.0617373995, "yes": 55, "no": 56, "missing": 56, "children": [{"nodeid": 55, "leaf": -0.00239595701}, {"nodeid": 56, "leaf": 0.00274009933}]}]}, {"nodeid": 14, "depth": 3, "split": "macd_x_rsi_slope", "split_condition": 5.9503355, "yes": 29, "no": 30, "missing": 30, "children": [{"nodeid": 29, "depth": 4, "split": "vwap_dist", "split_condition": 0.0022259301, "yes": 57, "no": 58, "missing": 58, "children": [{"nodeid": 57, "leaf": 0.00337277306}, {"nodeid": 58, "leaf": 0.00135063182}]}, {"nodeid": 30, "depth": 4, "split": "vwap_trend_strength", "split_condition": 6.01899992e-05, "yes": 59, "no": 60, "missing": 60, "children": [{"nodeid": 59, "leaf": 0.00360873435}, {"nodeid": 60, "leaf": -0.00112088176}]}]}]}]}]}, {"nodeid": 0, "depth": 0, "split": "delta1m_x_multitf", "split_condition": 1.00000001e-07, "yes": 1, "no": 2, "missing": 2, "children": [{"nodeid": 1, "depth": 1, "split": "delta_1m_pct", "split_condition": 1.00000001e-07, "yes": 3, "no": 4, "missing": 4, "children": [{"nodeid": 3, "depth": 2, "split": "delta1m_x_multitf", "split_condition": 0, "yes": 7, "no": 8, "missing": 8, "children": [{"nodeid": 7, "depth": 3, "split": "delta_1m_pct", "split_condition": -0.000602880027, "yes": 15, "no": 16, "missing": 16, "children": [{"nodeid": 15, "depth": 4, "split": "spread_pct", "split_condition": 0.0228147805, "yes": 31, "no": 32, "missing": 32, "children": [{"nodeid": 31, "leaf": 0.00117865484}, {"nodeid": 32, "leaf": -0.00224131951}]}, {"nodeid": 16, "depth": 4, "split": "delta_1m_pct", "split_condition": -0.000243510003, "yes": 33, "no": 34, "missing": 34, "children": [{"nodeid": 33, "leaf": -0.0040635867}, {"nodeid": 34, "leaf": -0.00588003453}]}]}, {"nodeid": 8, "depth": 3, "split": "delta_1m_pct", "split_condition": 0, "yes": 17, "no": 18, "missing": 18, "children": [{"nodeid": 17, "depth": 4, "split": "delta_1m_atr_adj", "split_condition": -0.0158519801, "yes": 35, "no": 36, "missing": 36, "children": [{"nodeid": 35, "leaf": 0.0100896228}, {"nodeid": 36, "leaf": 0.00718317414}]}, {"nodeid": 18, "depth": 4, "split": "multi_tf_agreement", "split_condition": 1, "yes": 37, "no": 38, "missing": 38, "children": [{"nodeid": 37, "leaf": -0.000628558977}, {"nodeid": 38, "leaf": 0.0083335964}]}]}]}, {"nodeid": 4, "depth": 2, "split": "delta_1m_atr_adj", "split_condition": 0.0178447179, "yes": 9, "no": 10, "missing": 10, "children": [{"nodeid": 9, "depth": 3, "split": "vwap_dist", "split_condition": -0.000807530014, "yes": 19, "no": 20, "missing": 20, "children": [{"nodeid": 19, "depth": 4, "split": "ema_dist_norm", "split_condition": 0.377532959, "yes": 39, "no": 40, "missing": 40, "children": [{"nodeid": 39, "leaf": -0.00650144415}, {"nodeid": 40, "leaf": -0.0029363092}]}, {"nodeid": 20, "depth": 4, "split": "minutes_left_norm", "split_condition": 0.600000024, "yes": 41, "no": 42, "missing": 42, "children": [{"nodeid": 41, "leaf": -0.0075278352}, {"nodeid": 42, "leaf": -0.00890739355}]}]}, {"nodeid": 10, "depth": 3, "split": "ptb_dist_pct", "split_condition": 0.000580130029, "yes": 21, "no": 22, "missing": 22, "children": [{"nodeid": 21, "depth": 4, "split": "ptb_dist_pct", "split_condition": 0.000398600008, "yes": 43, "no": 44, "missing": 44, "children": [{"nodeid": 43, "leaf": -0.00967392605}, {"nodeid": 44, "leaf": -0.0065047117}]}, {"nodeid": 22, "depth": 4, "split": "squeeze_breakout_potential", "split_condition": 0.730446935, "yes": 45, "no": 46, "missing": 46, "children": [{"nodeid": 45, "leaf": -0.0116617503}, {"nodeid": 46, "leaf": -0.00781904627}]}]}]}]}, {"nodeid": 2, "depth": 1, "split": "delta_1m_capped", "split_condition": 0.000491440005, "yes": 5, "no": 6, "missing": 6, "children": [{"nodeid": 5, "depth": 2, "split": "momentum_5candle_slope", "split_condition": 8.57900013e-05, "yes": 11, "no": 12, "missing": 12, "children": [{"nodeid": 11, "depth": 3, "split": "delta_1m_capped", "split_condition": 8.40799985e-05, "yes": 23, "no": 24, "missing": 24, "children": [{"nodeid": 23, "depth": 4, "split": "macd_line", "split_condition": 10.3591204, "yes": 47, "no": 48, "missing": 48, "children": [{"nodeid": 47, "leaf": 0.00658927159}, {"nodeid": 48, "leaf": 0.00903456006}]}, {"nodeid": 24, "depth": 4, "split": "vwap_trend_strength", "split_condition": 0.00533265993, "yes": 49, "no": 50, "missing": 50, "children": [{"nodeid": 49, "leaf": 0.00537270727}, {"nodeid": 50, "leaf": 0.00143354654}]}]}, {"nodeid": 12, "depth": 3, "split": "volatility_change_ratio", "split_condition": 0.189438805, "yes": 25, "no": 26, "missing": 26, "children": [{"nodeid": 25, "depth": 4, "split": "hour_cos", "split_condition": -0.555570245, "yes": 51, "no": 52, "missing": 52, "children": [{"nodeid": 51, "leaf": 0.00317039643}, {"nodeid": 52, "leaf": 0.00632232102}]}, {"nodeid": 26, "depth": 4, "split": "divergence_x_confidence", "split_condition": 0.038391415, "yes": 53, "no": 54, "missing": 54, "children": [{"nodeid": 53, "leaf": 0.00328844273}, {"nodeid": 54, "leaf": 0.00651349174}]}]}]}, {"nodeid": 6, "depth": 2, "split": "delta_1m_atr_adj", "split_condition": 0.0199757405, "yes": 13, "no": 14, "missing": 14, "children": [{"nodeid": 13, "depth": 3, "split": "hour_cos", "split_condition": -0.923879504, "yes": 27, "no": 28, "missing": 28, "children": [{"nodeid": 27, "depth": 4, "split": "rule_confidence", "split_condition": 0.171972066, "yes": 55, "no": 56, "missing": 56, "children": [{"nodeid": 55, "leaf": -0.0012008067}, {"nodeid": 56, "leaf": 0.00301684695}]}, {"nodeid": 28, "depth": 4, "split": "hour_sin", "split_condition": 0.4617486, "yes": 57, "no": 58, "missing": 58, "children": [{"nodeid": 57, "leaf": 0.00450606178}, {"nodeid": 58, "leaf": 0.00230088667}]}]}, {"nodeid": 14, "depth": 3, "split": "vwap_dist", "split_condition": 0.00227149995, "yes": 29, "no": 30, "missing": 30, "children": [{"nodeid": 29, "depth": 4, "split": "momentum_5candle_slope", "split_condition": 0.000299250009, "yes": 59, "no": 60, "missing": 60, "children": [{"nodeid": 59, "leaf": 0.00308199693}, {"nodeid": 60, "leaf": 0.00103068806}]}, {"nodeid": 30, "depth": 4, "split": "momentum_accel", "split_condition": 0.0012442267, "yes": 61, "no": 62, "missing": 62, "children": [{"nodeid": 61, "leaf": 0.00109454058}, {"nodeid": 62, "leaf": -0.00141275837}]}]}]}]}]}, {"nodeid": 0, "depth": 0, "split": "delta1m_x_multitf", "split_condition": 1.00000001e-07, "yes": 1, "no": 2, "missing": 2, "children": [{"nodeid": 1, "depth": 1, "split": "delta_1m_pct", "split_condition": 1.00000001e-07, "yes": 3, "no": 4, "missing": 4, "children": [{"nodeid": 3, "depth": 2, "split": "delta1m_x_multitf", "split_condition": 0, "yes": 7, "no": 8, "missing": 8, "children": [{"nodeid": 7, "depth": 3, "split": "delta_1m_pct", "split_condition": -0.000243510003, "yes": 15, "no": 16, "missing": 16, "children": [{"nodeid": 15, "depth": 4, "split": "delta_1m_pct", "split_condition": -0.000602880027, "yes": 31, "no": 32, "missing": 32, "children": [{"nodeid": 31, "leaf": -0.00220356137}, {"nodeid": 32, "leaf": -0.00397924846}]}, {"nodeid": 16, "depth": 4, "split": "rule_prob_up", "split_condition": 0.47372067, "yes": 33, "no": 34, "missing": 34, "children": [{"nodeid": 33, "leaf": -0.00500648422}, {"nodeid": 34, "leaf": -0.00681319973}]}]}, {"nodeid": 8, "depth": 3, "split": "delta_1m_pct", "split_condition": 0, "yes": 17, "no": 18, "missing": 18, "children": [{"nodeid": 17, "depth": 4, "split": "vol_weighted_momentum", "split_condition": -0.000120241282, "yes": 35, "no": 36, "missing": 36, "children": [{"nodeid": 35, "leaf": 0.00968122017}, {"nodeid": 36, "leaf": 0.00739549659}]}, {"nodeid": 18, "depth": 4, "split": "multi_tf_agreement", "split_condition": 1, "yes": 37, "no": 38, "missing": 38, "children": [{"nodeid": 37, "leaf": -0.000998219475}, {"nodeid": 38, "leaf": 0.0076166885}]}]}]}, {"nodeid": 4, "depth": 2, "split": "vol_weighted_momentum", "split_condition": 2.94309375e-05, "yes": 9, "no": 10, "missing": 10, "children": [{"nodeid": 9, "depth": 3, "split": "vwap_dist", "split_condition": -0.000787010009, "yes": 19, "no": 20, "missing": 20, "children": [{"nodeid": 19, "depth": 4, "split": "momentum_accel", "split_condition": 0.000164976751, "yes": 39, "no": 40, "missing": 40, "children": [{"nodeid": 39, "leaf": -0.00610036496}, {"nodeid": 40, "leaf": -0.00301984674}]}, {"nodeid": 20, "depth": 4, "split": "bb_width", "split_condition": 0.0023048101, "yes": 41, "no": 42, "missing": 42, "children": [{"nodeid": 41, "leaf": -0.00873755105}, {"nodeid": 42, "leaf": -0.00648863055}]}]}, {"nodeid": 10, "depth": 3, "split": "vwap_dist", "split_condition": -0.000403150014, "yes": 21, "no": 22, "missing": 22, "children": [{"nodeid": 21, "depth": 4, "split": "rsi_slope", "split_condition": -1.81836832, "yes": 43, "no": 44, "missing": 44, "children": [{"nodeid": 43, "leaf": -0.00292966026}, {"nodeid": 44, "leaf": -0.00785217248}]}, {"nodeid": 22, "depth": 4, "split": "spread_pct", "split_condition": 0.0400120094, "yes": 45, "no": 46, "missing": 46, "children": [{"nodeid": 45, "leaf": -0.0102566388}, {"nodeid": 46, "leaf": -0.0086014038}]}]}]}]}, {"nodeid": 2, "depth": 1, "split": "delta_1m_pct", "split_condition": 0.000478959992, "yes": 5, "no": 6, "missing": 6, "children": [{"nodeid": 5, "depth": 2, "split": "delta_1m_pct", "split_condition": 0.000134799993, "yes": 11, "no": 12, "missing": 12, "children": [{"nodeid": 11, "depth": 3, "split": "vwap_dist", "split_condition": -0.00261615007, "yes": 23, "no": 24, "missing": 24, "children": [{"nodeid": 23, "leaf": 0.00205165124}, {"nodeid": 24, "depth": 4, "split": "volume_acceleration", "split_condition": 0.549536407, "yes": 47, "no": 48, "missing": 48, "children": [{"nodeid": 47, "leaf": 0.00668947864}, {"nodeid": 48, "leaf": 0.00371729233}]}]}, {"nodeid": 12, "depth": 3, "split": "rsi_x_regime_conf", "split_condition": 0.299064249, "yes": 25, "no": 26, "missing": 26, "children": [{"nodeid": 25, "depth": 4, "split": "stoch_k_norm", "split_condition": 0.79353863, "yes": 49, "no": 50, "missing": 50, "children": [{"nodeid": 49, "leaf": 0.00639498932}, {"nodeid": 50, "leaf": 0.00211419677}]}, {"nodeid": 26, "depth": 4, "split": "vwap_trend_strength", "split_condition": 0.00436645001, "yes": 51, "no": 52, "missing": 52, "children": [{"nodeid": 51, "leaf": 0.0044324887}, {"nodeid": 52, "leaf": 0.00113711436}]}]}]}, {"nodeid": 6, "depth": 2, "split": "vol_delta_buy_ratio", "split_condition": 0.481017113, "yes": 13, "no": 14, "missing": 14, "children": [{"nodeid": 13, "depth": 3, "split": "vol_delta_accel", "split_condition": 0.287755579, "yes": 27, "no": 28, "missing": 28, "children": [{"nodeid": 27, "depth": 4, "split": "atr_ratio_norm", "split_condition": 0.350149035, "yes": 53, "no": 54, "missing": 54, "children": [{"nodeid": 53, "leaf": -0.00142784021}, {"nodeid": 54, "leaf": 0.00303920661}]}, {"nodeid": 28, "depth": 4, "split": "delta1m_x_multitf", "split_condition": 0.000985829975, "yes": 55, "no": 56, "missing": 56, "children": [{"nodeid": 55, "leaf": 0.00490415283}, {"nodeid": 56, "leaf": 0.00284342351}]}]}, {"nodeid": 14, "depth": 3, "split": "macd_x_rsi_slope", "split_condition": 5.63115025, "yes": 29, "no": 30, "missing": 30, "children": [{"nodeid": 29, "depth": 4, "split": "hour_cos", "split_condition": -0.806444585, "yes": 57, "no": 58, "missing": 58, "children": [{"nodeid": 57, "leaf": 0.000401518133}, {"nodeid": 58, "leaf": 0.00263400259}]}, {"nodeid": 30, "depth": 4, "split": "volume_acceleration", "split_condition": 0.385677963, "yes": 59, "no": 60, "missing": 60, "children": [{"nodeid": 59, "leaf": -0.00150586211}, {"nodeid": 60, "leaf": 0.00211659935}]}]}]}]}]}, {"nodeid": 0, "depth": 0, "split": "delta1m_x_multitf", "split_condition": 1.00000001e-07, "yes": 1, "no": 2, "missing": 2, "children": [{"nodeid": 1, "depth": 1, "split": "delta_1m_capped", "split_condition": 1.00000001e-07, "yes": 3, "no": 4, "missing": 4, "children": [{"nodeid": 3, "depth": 2, "split": "delta1m_x_multitf", "split_condition": 0, "yes": 7, "no": 8, "missing": 8, "children": [{"nodeid": 7, "depth": 3, "split": "delta_1m_capped", "split_condition": -0.000395970012, "yes": 15, "no": 16, "missing": 16, "children": [{"nodeid": 15, "depth": 4, "split": "ha_signed_consec", "split_condition": 0.0666666701, "yes": 31, "no": 32, "missing": 32, "children": [{"nodeid": 31, "leaf": -0.00238169613}, {"nodeid": 32, "leaf": -0.00456070714}]}, {"nodeid": 16, "depth": 4, "split": "vol_momentum_confirm", "split_condition": -0.0754477531, "yes": 33, "no": 34, "missing": 34, "children": [{"nodeid": 33, "leaf": -0.00594745623}, {"nodeid": 34, "leaf": -0.00447280006}]}]}, {"nodeid": 8, "depth": 3, "split": "delta_1m_capped", "split_condition": 0, "yes": 17, "no": 18, "missing": 18, "children": [{"nodeid": 17, "depth": 4, "split": "delta_1m_atr_adj", "split_condition": -0.0158519801, "yes": 35, "no": 36, "missing": 36, "children": [{"nodeid": 35, "leaf": 0.00979276001}, {"nodeid": 36, "leaf": 0.00715135178}]}, {"nodeid": 18, "depth": 4, "split": "multi_tf_agreement", "split_condition": 1, "yes": 37, "no": 38, "missing": 38, "children": [{"nodeid": 37, "leaf": -0.000332271506}, {"nodeid": 38, "leaf": 0.00853482168}]}]}]}, {"nodeid": 4, "depth": 2, "split": "delta_1m_atr_adj", "split_condition": 0.0122786611, "yes": 9, "no": 10, "missing": 10, "children": [{"nodeid": 9, "depth": 3, "split": "vwap_dist", "split_condition": -0.000807530014, "yes": 19, "no": 20, "missing": 20, "children": [{"nodeid": 19, "depth": 4, "split": "macd_x_rsi_slope", "split_condition": 1.17374849, "yes": 39, "no": 40, "missing": 40, "children": [{"nodeid": 39, "leaf": -0.00627440633}, {"nodeid": 40, "leaf": -0.0031854338}]}, {"nodeid": 20, "depth": 4, "split": "atr_pct_norm", "split_condition": 0.0201134998, "yes": 41, "no": 42, "missing": 42, "children": [{"nodeid": 41, "leaf": -0.00873205531}, {"nodeid": 42, "leaf": -0.00722536771}]}]}, {"nodeid": 10, "depth": 3, "split": "vwap_dist", "split_condition": -7.09300002e-05, "yes": 21, "no": 22, "missing": 22, "children": [{"nodeid": 21, "depth": 4, "split": "vol_delta_buy_ratio", "split_condition": 0.562411666, "yes": 43, "no": 44, "missing": 44, "children": [{"nodeid": 43, "leaf": -0.00855322089}, {"nodeid": 44, "leaf": -0.00458744494}]}, {"nodeid": 22, "depth": 4, "split": "vol_ratio_norm", "split_condition": 0.0933049172, "yes": 45, "no": 46, "missing": 46, "children": [{"nodeid": 45, "leaf": -0.00668413704}, {"nodeid": 46, "leaf": -0.0102650188}]}]}]}]}, {"nodeid": 2, "depth": 1, "split": "delta1m_x_multitf", "split_condition": 0.000488810008, "yes": 5, "no": 6, "missing": 6, "children": [{"nodeid": 5, "depth": 2, "split": "delta1m_x_multitf", "split_condition": 9.49800014e-05, "yes": 11, "no": 12, "missing": 12, "children": [{"nodeid": 11, "depth": 3, "split": "momentum_accel", "split_condition": -0.000251073332, "yes": 23, "no": 24, "missing": 24, "children": [{"nodeid": 23, "leaf": 0.00235393061}, {"nodeid": 24, "depth": 4, "split": "momentum_5candle_slope", "split_condition": -0.000185769997, "yes": 47, "no": 48, "missing": 48, "children": [{"nodeid": 47, "leaf": 0.00379649037}, {"nodeid": 48, "leaf": 0.0073005762}]}]}, {"nodeid": 12, "depth": 3, "split": "orderbook_imbalance", "split_condition": -0.0162039809, "yes": 25, "no": 26, "missing": 26, "children": [{"nodeid": 25, "depth": 4, "split": "atr_ratio_norm", "split_condition": 0.25379473, "yes": 49, "no": 50, "missing": 50, "children": [{"nodeid": 49, "leaf": 0.00829540472}, {"nodeid": 50, "leaf": 0.00514937192}]}, {"nodeid": 26, "depth": 4, "split": "hour_cos", "split_condition": -0.402746677, "yes": 51, "no": 52, "missing": 52, "children": [{"nodeid": 51, "leaf": 0.0027536212}, {"nodeid": 52, "leaf": 0.00472935336}]}]}]}, {"nodeid": 6, "depth": 2, "split": "market_yes_price", "split_condition": 0.508681774, "yes": 13, "no": 14, "missing": 14, "children": [{"nodeid": 13, "depth": 3, "split": "atr_ratio_norm", "split_condition": 0.259622127, "yes": 27, "no": 28, "missing": 28, "children": [{"nodeid": 27, "leaf": 0.00884162076}, {"nodeid": 28, "depth": 4,